// AUTO-GENERATED BY XGBOOST TRANSPILER
// DO NOT EDIT MANUALLY

#include <math.h>
#include <string.h>
double sigmoid(double x) {
    if (x < 0.0) {
        double z = exp(x);
        return z / (1.0 + z);
    }
    return 1.0 / (1.0 + exp(-x));
}
void predict_branch_ai(double * input, double * output) {
    double var0;
    if (input[3] < 1.0) {
        if (input[2] < 1.0) {
            if (input[0] < -2147483600.0) {
                var0 = -0.100261286;
            } else {
                if (input[0] < -2147483600.0) {
                    var0 = -0.19606753;
                } else {
                    var0 = -0.19356498;
                }
            }
        } else {
            if (input[0] < -2147483600.0) {
                var0 = -0.00096711284;
            } else {
                if (input[0] < -2147483600.0) {
                    var0 = -0.1588785;
                } else {
                    var0 = -0.03687262;
                }
            }
        }
    } else {
        if (input[2] < 1.0) {
            if (input[0] < -2147483600.0) {
                if (input[0] < -2147483600.0) {
                    var0 = 0.0016345736;
                } else {
                    var0 = -0.17106919;
                }
            } else {
                var0 = 0.05703422;
            }
        } else {
            if (input[0] < -2147483600.0) {
                var0 = 0.18176271;
            } else {
                if (input[0] < -2147483600.0) {
                    var0 = 0.19754864;
                } else {
                    var0 = 0.18576464;
                }
            }
        }
    }
    double var1;
    if (input[3] < 1.0) {
        if (input[2] < 1.0) {
            if (input[0] < -2147483600.0) {
                var1 = -0.090470545;
            } else {
                if (input[0] < -2147483600.0) {
                    var1 = -0.17822763;
                } else {
                    var1 = -0.17590669;
                }
            }
        } else {
            if (input[0] < -2147483600.0) {
                var1 = -0.00087041076;
            } else {
                if (input[0] < -2147483600.0) {
                    var1 = -0.14411592;
                } else {
                    var1 = -0.033199478;
                }
            }
        }
    } else {
        if (input[2] < 1.0) {
            if (input[0] < -2147483600.0) {
                if (input[0] < -2147483600.0) {
                    var1 = 0.0014711152;
                } else {
                    var1 = -0.15533523;
                }
            } else {
                var1 = 0.051377844;
            }
        } else {
            if (input[0] < -2147483600.0) {
                var1 = 0.1649916;
            } else {
                if (input[0] < -2147483600.0) {
                    var1 = 0.17960978;
                } else {
                    var1 = 0.16868933;
                }
            }
        }
    }
    double var2;
    if (input[3] < 1.0) {
        if (input[2] < 1.0) {
            if (input[0] < -2147483600.0) {
                var2 = -0.08198688;
            } else {
                if (input[0] < -2147483600.0) {
                    var2 = -0.16470979;
                } else {
                    var2 = -0.16245376;
                }
            }
        } else {
            if (input[0] < -2147483600.0) {
                var2 = -0.00078336475;
            } else {
                if (input[0] < -2147483600.0) {
                    var2 = -0.13213308;
                } else {
                    var2 = -0.029909564;
                }
            }
        }
    } else {
        if (input[2] < 1.0) {
            if (input[0] < -2147483600.0) {
                if (input[0] < -2147483600.0) {
                    var2 = 0.0013240133;
                } else {
                    var2 = -0.14281271;
                }
            } else {
                var2 = 0.046346616;
            }
        } else {
            if (input[0] < -2147483600.0) {
                var2 = 0.15190691;
            } else {
                if (input[0] < -2147483600.0) {
                    var2 = 0.16606118;
                } else {
                    var2 = 0.15547019;
                }
            }
        }
    }
    double var3;
    if (input[3] < 1.0) {
        if (input[2] < 1.0) {
            if (input[0] < -2147483600.0) {
                var3 = -0.07452595;
            } else {
                if (input[0] < -2147483600.0) {
                    var3 = -0.15411358;
                } else {
                    var3 = -0.15184759;
                }
            }
        } else {
            if (input[0] < -2147483600.0) {
                var3 = -0.00070503907;
            } else {
                if (input[0] < -2147483600.0) {
                    var3 = -0.122105695;
                } else {
                    var3 = -0.026956609;
                }
            }
        }
    } else {
        if (input[2] < 1.0) {
            if (input[0] < -2147483600.0) {
                if (input[0] < -2147483600.0) {
                    var3 = 0.0011915987;
                } else {
                    var3 = -0.1325152;
                }
            } else {
                var3 = 0.04184878;
            }
        } else {
            if (input[0] < -2147483600.0) {
                var3 = 0.14133963;
            } else {
                if (input[0] < -2147483600.0) {
                    var3 = 0.15547858;
                } else {
                    var3 = 0.14487557;
                }
            }
        }
    }
    double var4;
    if (input[3] < 1.0) {
        if (input[2] < 1.0) {
            if (input[0] < -2147483600.0) {
                var4 = -0.06788763;
            } else {
                if (input[0] < -2147483600.0) {
                    var4 = -0.14558479;
                } else {
                    var4 = -0.14325565;
                }
            }
        } else {
            if (input[0] < -2147483600.0) {
                var4 = -0.0006345214;
            } else {
                if (input[0] < -2147483600.0) {
                    var4 = -0.113500275;
                } else {
                    var4 = -0.024301775;
                }
            }
        }
    } else {
        if (input[2] < 1.0) {
            if (input[0] < -2147483600.0) {
                if (input[0] < -2147483600.0) {
                    var4 = 0.0010724639;
                } else {
                    var4 = -0.123814665;
                }
            } else {
                var4 = 0.037812352;
            }
        } else {
            if (input[0] < -2147483600.0) {
                var4 = 0.1325598;
            } else {
                if (input[0] < -2147483600.0) {
                    var4 = 0.14699526;
                } else {
                    var4 = 0.1361411;
                }
            }
        }
    }
    double var5;
    if (input[3] < 1.0) {
        if (input[2] < 1.0) {
            if (input[0] < -2147483600.0) {
                var5 = -0.061927445;
            } else {
                if (input[0] < -2147483600.0) {
                    var5 = -0.13857037;
                } else {
                    var5 = -0.13613719;
                }
            }
        } else {
            if (input[0] < -2147483600.0) {
                var5 = -0.0005710789;
            } else {
                if (input[0] < -2147483600.0) {
                    var5 = -0.105956614;
                } else {
                    var5 = -0.02191213;
                }
            }
        }
    } else {
        if (input[2] < 1.0) {
            if (input[0] < -2147483600.0) {
                if (input[0] < -2147483600.0) {
                    var5 = 0.0009652019;
                } else {
                    var5 = -0.116291486;
                }
            } else {
                var5 = 0.03417942;
            }
        } else {
            if (input[0] < -2147483600.0) {
                var5 = 0.12508632;
            } else {
                if (input[0] < -2147483600.0) {
                    var5 = 0.14005148;
                } else {
                    var5 = 0.12876527;
                }
            }
        }
    }
    double var6;
    if (input[3] < 1.0) {
        if (input[2] < 1.0) {
            if (input[0] < -2147483600.0) {
                var6 = -0.05653867;
            } else {
                if (input[0] < -2147483600.0) {
                    var6 = -0.13269533;
                } else {
                    var6 = -0.1301242;
                }
            }
        } else {
            if (input[0] < -2147483600.0) {
                var6 = -0.0005139544;
            } else {
                if (input[0] < -2147483600.0) {
                    var6 = -0.09922347;
                } else {
                    var6 = -0.019759243;
                }
            }
        }
    } else {
        if (input[2] < 1.0) {
            if (input[0] < -2147483600.0) {
                if (input[0] < -2147483600.0) {
                    var6 = 0.0008686922;
                } else {
                    var6 = -0.10965456;
                }
            } else {
                var6 = 0.03090266;
            }
        } else {
            if (input[0] < -2147483600.0) {
                var6 = 0.11858829;
            } else {
                if (input[0] < -2147483600.0) {
                    var6 = 0.13426849;
                } else {
                    var6 = 0.12240403;
                }
            }
        }
    }
    double var7;
    if (input[3] < 1.0) {
        if (input[2] < 1.0) {
            if (input[0] < -2147483600.0) {
                var7 = -0.05164078;
            } else {
                if (input[0] < -2147483600.0) {
                    var7 = -0.12769549;
                } else {
                    var7 = -0.12495668;
                }
            }
        } else {
            if (input[0] < -2147483600.0) {
                var7 = -0.00046256962;
            } else {
                if (input[0] < -2147483600.0) {
                    var7 = -0.09312126;
                } else {
                    var7 = -0.017818492;
                }
            }
        }
    } else {
        if (input[2] < 1.0) {
            if (input[0] < -2147483600.0) {
                if (input[0] < -2147483600.0) {
                    var7 = 0.000781838;
                } else {
                    var7 = -0.103696;
                }
            } else {
                var7 = 0.027942548;
            }
        } else {
            if (input[0] < -2147483600.0) {
                var7 = 0.11283024;
            } else {
                if (input[0] < -2147483600.0) {
                    var7 = 0.12937997;
                } else {
                    var7 = 0.11681302;
                }
            }
        }
    }
    double var8;
    if (input[3] < 1.0) {
        if (input[2] < 1.0) {
            if (input[0] < -2147483600.0) {
                var8 = -0.047171824;
            } else {
                if (input[0] < -2147483600.0) {
                    var8 = -0.12337883;
                } else {
                    var8 = -0.120445035;
                }
            }
        } else {
            if (input[0] < -2147483600.0) {
                var8 = -0.0004163227;
            } else {
                if (input[0] < -2147483600.0) {
                    var8 = -0.08751928;
                } else {
                    var8 = -0.01606813;
                }
            }
        }
    } else {
        if (input[2] < 1.0) {
            if (input[0] < -2147483600.0) {
                if (input[0] < -2147483600.0) {
                    var8 = 0.00070363795;
                } else {
                    var8 = -0.09826376;
                }
            } else {
                var8 = 0.025265595;
            }
        } else {
            if (input[0] < -2147483600.0) {
                var8 = 0.10763981;
            } else {
                if (input[0] < -2147483600.0) {
                    var8 = 0.12519285;
                } else {
                    var8 = 0.11181327;
                }
            }
        }
    }
    double var9;
    if (input[3] < 1.0) {
        if (input[2] < 1.0) {
            if (input[0] < -2147483600.0) {
                var9 = -0.043082975;
            } else {
                if (input[0] < -2147483600.0) {
                    var9 = -0.11960181;
                } else {
                    var9 = -0.11644719;
                }
            }
        } else {
            if (input[0] < -2147483600.0) {
                var9 = -0.00037469502;
            } else {
                if (input[0] < -2147483600.0) {
                    var9 = -0.08232119;
                } else {
                    var9 = -0.014489116;
                }
            }
        }
    } else {
        if (input[2] < 1.0) {
            if (input[0] < -2147483600.0) {
                if (input[0] < -2147483600.0) {
                    var9 = 0.0006332814;
                } else {
                    var9 = -0.09324496;
                }
            } else {
                var9 = 0.022842968;
            }
        } else {
            if (input[0] < -2147483600.0) {
                var9 = 0.10288812;
            } else {
                if (input[0] < -2147483600.0) {
                    var9 = 0.12156321;
                } else {
                    var9 = 0.10727065;
                }
            }
        }
    }
    double var10;
    if (input[3] < 1.0) {
        if (input[2] < 1.0) {
            if (input[0] < -2147483600.0) {
                var10 = -0.03933511;
            } else {
                if (input[0] < -2147483600.0) {
                    var10 = -0.11625471;
                } else {
                    var10 = -0.11285416;
                }
            }
        } else {
            if (input[0] < -2147483600.0) {
                var10 = -0.0003372098;
            } else {
                if (input[0] < -2147483600.0) {
                    var10 = -0.077455536;
                } else {
                    var10 = -0.013064398;
                }
            }
        }
    } else {
        if (input[2] < 1.0) {
            if (input[0] < -2147483600.0) {
                if (input[0] < -2147483600.0) {
                    var10 = 0.00056995783;
                } else {
                    var10 = -0.08855469;
                }
            } else {
                var10 = 0.02064959;
            }
        } else {
            if (input[0] < -2147483600.0) {
                var10 = 0.0984771;
            } else {
                if (input[0] < -2147483600.0) {
                    var10 = 0.118381344;
                } else {
                    var10 = 0.10308253;
                }
            }
        }
    }
    double var11;
    if (input[3] < 1.0) {
        if (input[2] < 1.0) {
            if (input[0] < -2147483600.0) {
                var11 = -0.035895944;
            } else {
                if (input[0] < -2147483600.0) {
                    var11 = -0.11325177;
                } else {
                    var11 = -0.109580636;
                }
            }
        } else {
            if (input[0] < -2147483600.0) {
                var11 = -0.0003034975;
            } else {
                if (input[0] < -2147483600.0) {
                    var11 = -0.072869234;
                } else {
                    var11 = -0.0117788045;
                }
            }
        }
    } else {
        if (input[2] < 1.0) {
            if (input[0] < -2147483600.0) {
                if (input[0] < -2147483600.0) {
                    var11 = 0.0005129759;
                } else {
                    var11 = -0.08412873;
                }
            } else {
                var11 = 0.018663323;
            }
        } else {
            if (input[0] < -2147483600.0) {
                var11 = 0.0943312;
            } else {
                if (input[0] < -2147483600.0) {
                    var11 = 0.115561746;
                } else {
                    var11 = 0.0991692;
                }
            }
        }
    }
    double var12;
    if (input[3] < 1.0) {
        if (input[2] < 1.0) {
            if (input[0] < -2147483600.0) {
                var12 = -0.032738376;
            } else {
                if (input[0] < -2147483600.0) {
                    var12 = -0.11052469;
                } else {
                    var12 = -0.10655858;
                }
            }
        } else {
            if (input[0] < -2147483600.0) {
                var12 = -0.00027313494;
            } else {
                if (input[0] < -2147483600.0) {
                    var12 = -0.06852289;
                } else {
                    var12 = -0.010618776;
                }
            }
        }
    } else {
        if (input[2] < 1.0) {
            if (input[0] < -2147483600.0) {
                if (input[0] < -2147483600.0) {
                    var12 = 0.0004616681;
                } else {
                    var12 = -0.07991856;
                }
            } else {
                var12 = 0.0168645;
            }
        } else {
            if (input[0] < -2147483600.0) {
                var12 = 0.09039175;
            } else {
                if (input[0] < -2147483600.0) {
                    var12 = 0.11303665;
                } else {
                    var12 = 0.09546803;
                }
            }
        }
    }
    double var13;
    if (input[3] < 1.0) {
        if (input[2] < 1.0) {
            if (input[0] < -2147483600.0) {
                var13 = -0.029839143;
            } else {
                if (input[0] < -2147483600.0) {
                    var13 = -0.108018175;
                } else {
                    var13 = -0.10373288;
                }
            }
        } else {
            if (input[0] < -2147483600.0) {
                var13 = -0.00024584788;
            } else {
                if (input[0] < -2147483600.0) {
                    var13 = -0.06438759;
                } else {
                    var13 = -0.009572065;
                }
            }
        }
    } else {
        if (input[2] < 1.0) {
            if (input[0] < -2147483600.0) {
                if (input[0] < -2147483600.0) {
                    var13 = 0.00041550995;
                } else {
                    var13 = -0.07588773;
                }
            } else {
                var13 = 0.0152356345;
            }
        } else {
            if (input[0] < -2147483600.0) {
                var13 = 0.086613186;
            } else {
                if (input[0] < -2147483600.0) {
                    var13 = 0.110751346;
                } else {
                    var13 = 0.091929495;
                }
            }
        }
    }
    double var14;
    if (input[3] < 1.0) {
        if (input[2] < 1.0) {
            if (input[0] < -2147483600.0) {
                var14 = -0.027177772;
            } else {
                if (input[0] < -2147483600.0) {
                    var14 = -0.105686665;
                } else {
                    var14 = -0.10105826;
                }
            }
        } else {
            if (input[0] < -2147483600.0) {
                var14 = -0.00022122516;
            } else {
                if (input[0] < -2147483600.0) {
                    var14 = -0.060442355;
                } else {
                    var14 = -0.008627684;
                }
            }
        }
    } else {
        if (input[2] < 1.0) {
            if (input[0] < -2147483600.0) {
                if (input[0] < -2147483600.0) {
                    var14 = 0.0003739531;
                } else {
                    var14 = -0.072009176;
                }
            } else {
                var14 = 0.013760827;
            }
        } else {
            if (input[0] < -2147483600.0) {
                var14 = 0.08296025;
            } else {
                if (input[0] < -2147483600.0) {
                    var14 = 0.1086609;
                } else {
                    var14 = 0.08851429;
                }
            }
        }
    }
    double var15;
    if (input[3] < 1.0) {
        if (input[2] < 1.0) {
            if (input[0] < -2147483600.0) {
                var15 = -0.024736056;
            } else {
                if (input[0] < -2147483600.0) {
                    var15 = -0.1034922;
                } else {
                    var15 = -0.09849712;
                }
            }
        } else {
            if (input[0] < -2147483600.0) {
                var15 = -0.00019912366;
            } else {
                if (input[0] < -2147483600.0) {
                    var15 = -0.05667221;
                } else {
                    var15 = -0.0077756965;
                }
            }
        }
    } else {
        if (input[2] < 1.0) {
            if (input[0] < -2147483600.0) {
                if (input[0] < -2147483600.0) {
                    var15 = 0.00033656848;
                } else {
                    var15 = -0.06826334;
                }
            } else {
                var15 = 0.012425885;
            }
        } else {
            if (input[0] < -2147483600.0) {
                var15 = 0.079405956;
            } else {
                if (input[0] < -2147483600.0) {
                    var15 = 0.10672804;
                } else {
                    var15 = 0.08519145;
                }
            }
        }
    }
    double var16;
    if (input[3] < 1.0) {
        if (input[2] < 1.0) {
            if (input[0] < -2147483600.0) {
                var16 = -0.022497451;
            } else {
                if (input[0] < -2147483600.0) {
                    var16 = -0.10140262;
                } else {
                    var16 = -0.09601799;
                }
            }
        } else {
            if (input[0] < -2147483600.0) {
                var16 = -0.00017919774;
            } else {
                if (input[0] < -2147483600.0) {
                    var16 = -0.05306676;
                } else {
                    var16 = -0.0070071677;
                }
            }
        }
    } else {
        if (input[2] < 1.0) {
            if (input[0] < -2147483600.0) {
                if (input[0] < -2147483600.0) {
                    var16 = 0.0003029031;
                } else {
                    var16 = -0.06463661;
                }
            } else {
                var16 = 0.011217796;
            }
        } else {
            if (input[0] < -2147483600.0) {
                var16 = 0.07593029;
            } else {
                if (input[0] < -2147483600.0) {
                    var16 = 0.104921214;
                } else {
                    var16 = 0.08193675;
                }
            }
        }
    }
    double var17;
    if (input[3] < 1.0) {
        if (input[2] < 1.0) {
            if (input[0] < -2147483600.0) {
                var17 = -0.020446802;
            } else {
                if (input[0] < -2147483600.0) {
                    var17 = -0.09939044;
                } else {
                    var17 = -0.093594305;
                }
            }
        } else {
            if (input[0] < -2147483600.0) {
                var17 = -0.00016126854;
            } else {
                if (input[0] < -2147483600.0) {
                    var17 = -0.04961895;
                } else {
                    var17 = -0.0063140052;
                }
            }
        }
    } else {
        if (input[2] < 1.0) {
            if (input[0] < -2147483600.0) {
                if (input[0] < -2147483600.0) {
                    var17 = 0.00027262323;
                } else {
                    var17 = -0.06112008;
                }
            } else {
                var17 = 0.010124883;
            }
        } else {
            if (input[0] < -2147483600.0) {
                var17 = 0.07251883;
            } else {
                if (input[0] < -2147483600.0) {
                    var17 = 0.103213444;
                } else {
                    var17 = 0.07873171;
                }
            }
        }
    }
    double var18;
    if (input[3] < 1.0) {
        if (input[2] < 1.0) {
            if (input[0] < -2147483600.0) {
                var18 = -0.018570054;
            } else {
                if (input[0] < -2147483600.0) {
                    var18 = -0.09743192;
                } else {
                    var18 = -0.091203704;
                }
            }
        } else {
            if (input[0] < -2147483600.0) {
                var18 = -0.00014515132;
            } else {
                if (input[0] < -2147483600.0) {
                    var18 = -0.046324175;
                } else {
                    var18 = -0.0056889006;
                }
            }
        }
    } else {
        if (input[2] < 1.0) {
            if (input[0] < -2147483600.0) {
                if (input[0] < -2147483600.0) {
                    var18 = 0.0002453474;
                } else {
                    var18 = -0.05770856;
                }
            } else {
                var18 = 0.009136501;
            }
        } else {
            if (input[0] < -2147483600.0) {
                var18 = 0.06916206;
            } else {
                if (input[0] < -2147483600.0) {
                    var18 = 0.101581395;
                } else {
                    var18 = 0.07556282;
                }
            }
        }
    }
    double var19;
    if (input[3] < 1.0) {
        if (input[2] < 1.0) {
            if (input[0] < -2147483600.0) {
                var19 = -0.016854158;
            } else {
                if (input[0] < -2147483600.0) {
                    var19 = -0.095506415;
                } else {
                    var19 = -0.088827305;
                }
            }
        } else {
            if (input[0] < -2147483600.0) {
                var19 = -0.00013064338;
            } else {
                if (input[0] < -2147483600.0) {
                    var19 = -0.043179434;
                } else {
                    var19 = -0.0051252614;
                }
            }
        }
    } else {
        if (input[2] < 1.0) {
            if (input[0] < -2147483600.0) {
                if (input[0] < -2147483600.0) {
                    var19 = 0.00022081337;
                } else {
                    var19 = -0.054399736;
                }
            } else {
                var19 = 0.008242881;
            }
        } else {
            if (input[0] < -2147483600.0) {
                var19 = 0.065854445;
            } else {
                if (input[0] < -2147483600.0) {
                    var19 = 0.100004666;
                } else {
                    var19 = 0.07242077;
                }
            }
        }
    }
    double var20;
    if (input[3] < 1.0) {
        if (input[2] < 1.0) {
            if (input[0] < -2147483600.0) {
                var20 = -0.015286882;
            } else {
                if (input[0] < -2147483600.0) {
                    var20 = -0.093595855;
                } else {
                    var20 = -0.08644938;
                }
            }
        } else {
            if (input[0] < -2147483600.0) {
                var20 = -0.00011758389;
            } else {
                if (input[0] < -2147483600.0) {
                    var20 = -0.040182766;
                } else {
                    var20 = -0.004617105;
                }
            }
        }
    } else {
        if (input[2] < 1.0) {
            if (input[0] < -2147483600.0) {
                if (input[0] < -2147483600.0) {
                    var20 = 0.00019873508;
                } else {
                    var20 = -0.051193397;
                }
            } else {
                var20 = 0.007435199;
            }
        } else {
            if (input[0] < -2147483600.0) {
                var20 = 0.06259393;
            } else {
                if (input[0] < -2147483600.0) {
                    var20 = 0.09846514;
                } else {
                    var20 = 0.06929996;
                }
            }
        }
    }
    double var21;
    if (input[3] < 1.0) {
        if (input[2] < 1.0) {
            if (input[0] < -2147483600.0) {
                var21 = -0.013856809;
            } else {
                if (input[0] < -2147483600.0) {
                    var21 = -0.09168442;
                } else {
                    var21 = -0.08405695;
                }
            }
        } else {
            if (input[0] < -2147483600.0) {
                var21 = -0.000105805884;
            } else {
                if (input[0] < -2147483600.0) {
                    var21 = -0.037332736;
                } else {
                    var21 = -0.004159018;
                }
            }
        }
    } else {
        if (input[2] < 1.0) {
            if (input[0] < -2147483600.0) {
                if (input[0] < -2147483600.0) {
                    var21 = 0.0001788741;
                } else {
                    var21 = -0.048090905;
                }
            } else {
                var21 = 0.006705463;
            }
        } else {
            if (input[0] < -2147483600.0) {
                var21 = 0.059381347;
            } else {
                if (input[0] < -2147483600.0) {
                    var21 = 0.096946664;
                } else {
                    var21 = 0.06619807;
                }
            }
        }
    }
    double var22;
    if (input[3] < 1.0) {
        if (input[0] < -2147483600.0) {
            if (input[2] < 1.0) {
                var22 = -0.0125531955;
            } else {
                var22 = -0.00009524381;
            }
        } else {
            if (input[2] < 1.0) {
                if (input[0] < -2147483600.0) {
                    var22 = -0.089758314;
                } else {
                    var22 = -0.08163971;
                }
            } else {
                if (input[0] < -2147483600.0) {
                    var22 = -0.034628067;
                } else {
                    var22 = -0.003746092;
                }
            }
        }
    } else {
        if (input[2] < 1.0) {
            if (input[0] < -2147483600.0) {
                if (input[0] < -2147483600.0) {
                    var22 = 0.00016096816;
                } else {
                    var22 = -0.045094613;
                }
            } else {
                var22 = 0.0060463366;
            }
        } else {
            if (input[0] < -2147483600.0) {
                var22 = 0.056219738;
            } else {
                if (input[0] < -2147483600.0) {
                    var22 = 0.095434755;
                } else {
                    var22 = 0.06311552;
                }
            }
        }
    }
    double var23;
    if (input[3] < 1.0) {
        if (input[0] < -2147483600.0) {
            if (input[2] < 1.0) {
                var23 = -0.011366008;
            } else {
                var23 = -0.0000857248;
            }
        } else {
            if (input[2] < 1.0) {
                if (input[0] < -2147483600.0) {
                    var23 = -0.0878055;
                } else {
                    var23 = -0.07918967;
                }
            } else {
                if (input[0] < -2147483600.0) {
                    var23 = -0.0320674;
                } else {
                    var23 = -0.0033739624;
                }
            }
        }
    } else {
        if (input[2] < 1.0) {
            if (input[0] < -2147483600.0) {
                if (input[0] < -2147483600.0) {
                    var23 = 0.00014487426;
                } else {
                    var23 = -0.042207383;
                }
            } else {
                var23 = 0.0054510925;
            }
        } else {
            if (input[0] < -2147483600.0) {
                var23 = 0.05311392;
            } else {
                if (input[0] < -2147483600.0) {
                    var23 = 0.09391635;
                } else {
                    var23 = 0.060055356;
                }
            }
        }
    }
    double var24;
    if (input[3] < 1.0) {
        if (input[0] < -2147483600.0) {
            if (input[2] < 1.0) {
                var24 = -0.010285835;
            } else {
                var24 = -0.000077147604;
            }
        } else {
            if (input[2] < 1.0) {
                if (input[0] < -2147483600.0) {
                    var24 = -0.08581566;
                } else {
                    var24 = -0.07670129;
                }
            } else {
                if (input[0] < -2147483600.0) {
                    var24 = -0.029648993;
                } else {
                    var24 = -0.0030386467;
                }
            }
        }
    } else {
        if (input[2] < 1.0) {
            if (input[0] < -2147483600.0) {
                if (input[0] < -2147483600.0) {
                    var24 = 0.00013040162;
                } else {
                    var24 = -0.039432254;
                }
            } else {
                var24 = 0.0049137603;
            }
        } else {
            if (input[0] < -2147483600.0) {
                var24 = 0.050070275;
            } else {
                if (input[0] < -2147483600.0) {
                    var24 = 0.09237953;
                } else {
                    var24 = 0.05702234;
                }
            }
        }
    }
    double var25;
    if (input[3] < 1.0) {
        if (input[0] < -2147483600.0) {
            if (input[2] < 1.0) {
                var25 = -0.00930389;
            } else {
                var25 = -0.00006944657;
            }
        } else {
            if (input[2] < 1.0) {
                if (input[0] < -2147483600.0) {
                    var25 = -0.08378016;
                } else {
                    var25 = -0.0741712;
                }
            } else {
                if (input[0] < -2147483600.0) {
                    var25 = -0.027370675;
                } else {
                    var25 = -0.0027364695;
                }
            }
        }
    } else {
        if (input[2] < 1.0) {
            if (input[0] < -2147483600.0) {
                if (input[0] < -2147483600.0) {
                    var25 = 0.00011735953;
                } else {
                    var25 = -0.036772124;
                }
            } else {
                var25 = 0.0044287443;
            }
        } else {
            if (input[0] < -2147483600.0) {
                var25 = 0.047095623;
            } else {
                if (input[0] < -2147483600.0) {
                    var25 = 0.09081362;
                } else {
                    var25 = 0.054023024;
                }
            }
        }
    }
    double var26;
    if (input[3] < 1.0) {
        if (input[0] < -2147483600.0) {
            if (input[2] < 1.0) {
                var26 = -0.008411946;
            } else {
                var26 = -0.000062502506;
            }
        } else {
            if (input[2] < 1.0) {
                if (input[0] < -2147483600.0) {
                    var26 = -0.08169198;
                } else {
                    var26 = -0.0715982;
                }
            } else {
                if (input[0] < -2147483600.0) {
                    var26 = -0.025229758;
                } else {
                    var26 = -0.0024642455;
                }
            }
        }
    } else {
        if (input[2] < 1.0) {
            if (input[0] < -2147483600.0) {
                if (input[0] < -2147483600.0) {
                    var26 = 0.00010560494;
                } else {
                    var26 = -0.034229502;
                }
            } else {
                var26 = 0.00399117;
            }
        } else {
            if (input[0] < -2147483600.0) {
                var26 = 0.044197712;
            } else {
                if (input[0] < -2147483600.0) {
                    var26 = 0.089209;
                } else {
                    var26 = 0.051065028;
                }
            }
        }
    }
    double var27;
    if (input[3] < 1.0) {
        if (input[0] < -2147483600.0) {
            if (input[2] < 1.0) {
                var27 = -0.0076024206;
            } else {
                var27 = -0.00005623798;
            }
        } else {
            if (input[2] < 1.0) {
                if (input[0] < -2147483600.0) {
                    var27 = -0.07954573;
                } else {
                    var27 = -0.06898321;
                }
            } else {
                if (input[0] < -2147483600.0) {
                    var27 = -0.023222994;
                } else {
                    var27 = -0.002218988;
                }
            }
        }
    } else {
        if (input[2] < 1.0) {
            if (input[0] < -2147483600.0) {
                if (input[0] < -2147483600.0) {
                    var27 = 0.000095066316;
                } else {
                    var27 = -0.03180627;
                }
            } else {
                var27 = 0.003596367;
            }
        } else {
            if (input[0] < -2147483600.0) {
                var27 = 0.041384045;
            } else {
                if (input[0] < -2147483600.0) {
                    var27 = 0.08755697;
                } else {
                    var27 = 0.04815706;
                }
            }
        }
    }
    double var28;
    if (input[3] < 1.0) {
        if (input[0] < -2147483600.0) {
            if (input[2] < 1.0) {
                var28 = -0.0068682055;
            } else {
                var28 = -0.000050611212;
            }
        } else {
            if (input[2] < 1.0) {
                if (input[0] < -2147483600.0) {
                    var28 = -0.07733767;
                } else {
                    var28 = -0.0663291;
                }
            } else {
                if (input[0] < -2147483600.0) {
                    var28 = -0.02134659;
                } else {
                    var28 = -0.0019980434;
                }
            }
        }
    } else {
        if (input[2] < 1.0) {
            if (input[0] < -2147483600.0) {
                if (input[0] < -2147483600.0) {
                    var28 = 0.00008555294;
                } else {
                    var28 = -0.029503668;
                }
            } else {
                var28 = 0.0032402896;
            }
        } else {
            if (input[0] < -2147483600.0) {
                var28 = 0.038661856;
            } else {
                if (input[0] < -2147483600.0) {
                    var28 = 0.08585003;
                } else {
                    var28 = 0.04530805;
                }
            }
        }
    }
    double var29;
    if (input[3] < 1.0) {
        if (input[0] < -2147483600.0) {
            if (input[2] < 1.0) {
                var29 = -0.0062027453;
            } else {
                var29 = -0.000045556655;
            }
        } else {
            if (input[2] < 1.0) {
                if (input[0] < -2147483600.0) {
                    var29 = -0.07506574;
                } else {
                    var29 = -0.06364062;
                }
            } else {
                if (input[0] < -2147483600.0) {
                    var29 = -0.019596254;
                } else {
                    var29 = -0.0017990556;
                }
            }
        }
    } else {
        if (input[2] < 1.0) {
            if (input[0] < -2147483600.0) {
                if (input[0] < -2147483600.0) {
                    var29 = 0.000076993274;
                } else {
                    var29 = -0.027322127;
                }
            } else {
                var29 = 0.002919196;
            }
        } else {
            if (input[0] < -2147483600.0) {
                var29 = 0.0360381;
            } else {
                if (input[0] < -2147483600.0) {
                    var29 = 0.08408164;
                } else {
                    var29 = 0.04252703;
                }
            }
        }
    }
    double var30;
    if (input[3] < 1.0) {
        if (input[0] < -2147483600.0) {
            if (input[2] < 1.0) {
                var30 = -0.00559999;
            } else {
                var30 = -0.000040996798;
            }
        } else {
            if (input[2] < 1.0) {
                if (input[0] < -2147483600.0) {
                    var30 = -0.07272964;
                } else {
                    var30 = -0.060924243;
                }
            } else {
                if (input[0] < -2147483600.0) {
                    var30 = -0.017967287;
                } else {
                    var30 = -0.001619803;
                }
            }
        }
    } else {
        if (input[2] < 1.0) {
            if (input[0] < -2147483600.0) {
                if (input[0] < -2147483600.0) {
                    var30 = 0.00006929195;
                } else {
                    var30 = -0.025261296;
                }
            } else {
                var30 = 0.0026297094;
            }
        } else {
            if (input[0] < -2147483600.0) {
                var30 = 0.033518665;
            } else {
                if (input[0] < -2147483600.0) {
                    var30 = 0.08224633;
                } else {
                    var30 = 0.039822664;
                }
            }
        }
    }
    double var31;
    if (input[3] < 1.0) {
        if (input[0] < -2147483600.0) {
            if (input[2] < 1.0) {
                var31 = -0.0050543463;
            } else {
                var31 = -0.0000369079;
            }
        } else {
            if (input[2] < 1.0) {
                if (input[0] < -2147483600.0) {
                    var31 = -0.07033073;
                } else {
                    var31 = -0.05818792;
                }
            } else {
                if (input[0] < -2147483600.0) {
                    var31 = -0.016454617;
                } else {
                    var31 = -0.0014583825;
                }
            }
        }
    } else {
        if (input[2] < 1.0) {
            if (input[0] < -2147483600.0) {
                if (input[0] < -2147483600.0) {
                    var31 = 0.00006237743;
                } else {
                    var31 = -0.023320004;
                }
            } else {
                var31 = 0.0023686986;
            }
        } else {
            if (input[0] < -2147483600.0) {
                var31 = 0.031108437;
            } else {
                if (input[0] < -2147483600.0) {
                    var31 = 0.080340065;
                } else {
                    var31 = 0.037203565;
                }
            }
        }
    }
    double var32;
    if (input[3] < 1.0) {
        if (input[0] < -2147483600.0) {
            if (input[2] < 1.0) {
                var32 = -0.0045606396;
            } else {
                var32 = -0.0000332302;
            }
        } else {
            if (input[2] < 1.0) {
                if (input[0] < -2147483600.0) {
                    var32 = -0.067872114;
                } else {
                    var32 = -0.055440944;
                }
            } else {
                if (input[0] < -2147483600.0) {
                    var32 = -0.015052865;
                } else {
                    var32 = -0.0013130102;
                }
            }
        }
    } else {
        if (input[2] < 1.0) {
            if (input[0] < -2147483600.0) {
                if (input[0] < -2147483600.0) {
                    var32 = 0.00005613052;
                } else {
                    var32 = -0.021496395;
                }
            } else {
                var32 = 0.0021334626;
            }
        } else {
            if (input[0] < -2147483600.0) {
                var32 = 0.028811619;
            } else {
                if (input[0] < -2147483600.0) {
                    var32 = 0.078359745;
                } else {
                    var32 = 0.03467705;
                }
            }
        }
    }
    double var33;
    if (input[3] < 1.0) {
        if (input[0] < -2147483600.0) {
            if (input[2] < 1.0) {
                var33 = -0.004114167;
            } else {
                var33 = -0.000029868437;
            }
        } else {
            if (input[2] < 1.0) {
                if (input[0] < -2147483600.0) {
                    var33 = -0.06535857;
                } else {
                    var33 = -0.05269363;
                }
            } else {
                if (input[0] < -2147483600.0) {
                    var33 = -0.013756483;
                } else {
                    var33 = -0.0011820864;
                }
            }
        }
    } else {
        if (input[2] < 1.0) {
            if (input[0] < -2147483600.0) {
                if (input[0] < -2147483600.0) {
                    var33 = 0.00005052737;
                } else {
                    var33 = -0.019787854;
                }
            } else {
                var33 = 0.0019214824;
            }
        } else {
            if (input[0] < -2147483600.0) {
                var33 = 0.026630757;
            } else {
                if (input[0] < -2147483600.0) {
                    var33 = 0.07630383;
                } else {
                    var33 = 0.032249782;
                }
            }
        }
    }
    double var34;
    if (input[3] < 1.0) {
        if (input[0] < -2147483600.0) {
            if (input[2] < 1.0) {
                var34 = -0.0037105796;
            } else {
                var34 = -0.00002689414;
            }
        } else {
            if (input[2] < 1.0) {
                if (input[0] < -2147483600.0) {
                    var34 = -0.06279645;
                } else {
                    var34 = -0.049957026;
                }
            } else {
                if (input[0] < -2147483600.0) {
                    var34 = -0.012559784;
                } else {
                    var34 = -0.0010641882;
                }
            }
        }
    } else {
        if (input[2] < 1.0) {
            if (input[0] < -2147483600.0) {
                if (input[0] < -2147483600.0) {
                    var34 = 0.00004547261;
                } else {
                    var34 = -0.01819118;
                }
            } else {
                var34 = 0.0017304233;
            }
        } else {
            if (input[0] < -2147483600.0) {
                var34 = 0.024567604;
            } else {
                if (input[0] < -2147483600.0) {
                    var34 = 0.07417186;
                } else {
                    var34 = 0.02992695;
                }
            }
        }
    }
    double var35;
    if (input[3] < 1.0) {
        if (input[0] < -2147483600.0) {
            if (input[2] < 1.0) {
                var35 = -0.003345911;
            } else {
                var35 = -0.000024211824;
            }
        } else {
            if (input[2] < 1.0) {
                if (input[0] < -2147483600.0) {
                    var35 = -0.060193628;
                } else {
                    var35 = -0.04724267;
                }
            } else {
                if (input[0] < -2147483600.0) {
                    var35 = -0.011457025;
                } else {
                    var35 = -0.00095804216;
                }
            }
        }
    } else {
        if (input[2] < 1.0) {
            if (input[0] < -2147483600.0) {
                if (input[0] < -2147483600.0) {
                    var35 = 0.000040918556;
                } else {
                    var35 = -0.016702654;
                }
            } else {
                var35 = 0.0015583189;
            }
        } else {
            if (input[0] < -2147483600.0) {
                var35 = 0.022622732;
            } else {
                if (input[0] < -2147483600.0) {
                    var35 = 0.07196527;
                } else {
                    var35 = 0.027713036;
                }
            }
        }
    }
    double var36;
    if (input[3] < 1.0) {
        if (input[0] < -2147483600.0) {
            if (input[2] < 1.0) {
                var36 = -0.0030165205;
            } else {
                var36 = -0.000021791886;
            }
        } else {
            if (input[2] < 1.0) {
                if (input[0] < -2147483600.0) {
                    var36 = -0.0575593;
                } else {
                    var36 = -0.044562243;
                }
            } else {
                if (input[0] < -2147483600.0) {
                    var36 = -0.010442513;
                } else {
                    var36 = -0.00086244347;
                }
            }
        }
    } else {
        if (input[2] < 1.0) {
            if (input[0] < -2147483600.0) {
                if (input[0] < -2147483600.0) {
                    var36 = 0.000036817517;
                } else {
                    var36 = -0.015318112;
                }
            } else {
                var36 = 0.0014032413;
            }
        } else {
            if (input[0] < -2147483600.0) {
                var36 = 0.020795256;
            } else {
                if (input[0] < -2147483600.0) {
                    var36 = 0.069686696;
                } else {
                    var36 = 0.025610972;
                }
            }
        }
    }
    double var37;
    if (input[3] < 1.0) {
        if (input[0] < -2147483600.0) {
            if (input[2] < 1.0) {
                var37 = -0.002719111;
            } else {
                var37 = -0.000019616247;
            }
        } else {
            if (input[2] < 1.0) {
                if (input[0] < -2147483600.0) {
                    var37 = -0.054903787;
                } else {
                    var37 = -0.04192723;
                }
            } else {
                if (input[0] < -2147483600.0) {
                    var37 = -0.009510596;
                } else {
                    var37 = -0.00077639;
                }
            }
        }
    } else {
        if (input[2] < 1.0) {
            if (input[0] < -2147483600.0) {
                if (input[0] < -2147483600.0) {
                    var37 = 0.000033145654;
                } else {
                    var37 = -0.014033078;
                }
            } else {
                var37 = 0.0012635345;
            }
        } else {
            if (input[0] < -2147483600.0) {
                var37 = 0.019083839;
            } else {
                if (input[0] < -2147483600.0) {
                    var37 = 0.06734038;
                } else {
                    var37 = 0.023622204;
                }
            }
        }
    }
    double var38;
    if (input[3] < 1.0) {
        if (input[0] < -2147483600.0) {
            if (input[2] < 1.0) {
                var38 = -0.0024506634;
            } else {
                var38 = -0.000017637334;
            }
        } else {
            if (input[2] < 1.0) {
                if (input[0] < -2147483600.0) {
                    var38 = -0.052238345;
                } else {
                    var38 = -0.03934874;
                }
            } else {
                if (input[0] < -2147483600.0) {
                    var38 = -0.008655782;
                } else {
                    var38 = -0.0006989036;
                }
            }
        }
    } else {
        if (input[2] < 1.0) {
            if (input[0] < -2147483600.0) {
                if (input[0] < -2147483600.0) {
                    var38 = 0.000029831439;
                } else {
                    var38 = -0.012842809;
                }
            } else {
                var38 = 0.0011376877;
            }
        } else {
            if (input[0] < -2147483600.0) {
                var38 = 0.017485939;
            } else {
                if (input[0] < -2147483600.0) {
                    var38 = 0.064931825;
                } else {
                    var38 = 0.021747949;
                }
            }
        }
    }
    double var39;
    if (input[3] < 1.0) {
        if (input[0] < -2147483600.0) {
            if (input[2] < 1.0) {
                var39 = -0.0022084024;
            } else {
                var39 = -0.000015878992;
            }
        } else {
            if (input[2] < 1.0) {
                if (input[0] < -2147483600.0) {
                    var39 = -0.049574874;
                } else {
                    var39 = -0.036837142;
                }
            } else {
                if (input[0] < -2147483600.0) {
                    var39 = -0.007872677;
                } else {
                    var39 = -0.0006291546;
                }
            }
        }
    } else {
        if (input[2] < 1.0) {
            if (input[0] < -2147483600.0) {
                if (input[0] < -2147483600.0) {
                    var39 = 0.000026851028;
                } else {
                    var39 = -0.011742408;
                }
            } else {
                var39 = 0.0010243631;
            }
        } else {
            if (input[0] < -2147483600.0) {
                var39 = 0.015998473;
            } else {
                if (input[0] < -2147483600.0) {
                    var39 = 0.06246843;
                } else {
                    var39 = 0.019987267;
                }
            }
        }
    }
    double var40;
    if (input[3] < 1.0) {
        if (input[0] < -2147483600.0) {
            if (input[2] < 1.0) {
                var40 = -0.001989852;
            } else {
                var40 = -0.000014293421;
            }
        } else {
            if (input[2] < 1.0) {
                if (input[0] < -2147483600.0) {
                    var40 = -0.046925604;
                } else {
                    var40 = -0.03440189;
                }
            } else {
                if (input[0] < -2147483600.0) {
                    var40 = -0.007156182;
                } else {
                    var40 = -0.00056634675;
                }
            }
        }
    } else {
        if (input[2] < 1.0) {
            if (input[0] < -2147483600.0) {
                if (input[0] < -2147483600.0) {
                    var40 = 0.000024156738;
                } else {
                    var40 = -0.010726898;
                }
            } else {
                var40 = 0.0009222682;
            }
        } else {
            if (input[0] < -2147483600.0) {
                var40 = 0.014617433;
            } else {
                if (input[0] < -2147483600.0) {
                    var40 = 0.05995807;
                } else {
                    var40 = 0.018338835;
                }
            }
        }
    }
    double var41;
    if (input[3] < 1.0) {
        if (input[0] < -2147483600.0) {
            if (input[2] < 1.0) {
                var41 = -0.0017927267;
            } else {
                var41 = -0.00001286887;
            }
        } else {
            if (input[2] < 1.0) {
                if (input[0] < -2147483600.0) {
                    var41 = -0.04430292;
                } else {
                    var41 = -0.032051306;
                }
            } else {
                if (input[0] < -2147483600.0) {
                    var41 = -0.006501327;
                } else {
                    var41 = -0.0005098199;
                }
            }
        }
    } else {
        if (input[2] < 1.0) {
            if (input[0] < -2147483600.0) {
                if (input[0] < -2147483600.0) {
                    var41 = 0.000021748563;
                } else {
                    var41 = -0.009791263;
                }
            } else {
                var41 = 0.00083033816;
            }
        } else {
            if (input[0] < -2147483600.0) {
                var41 = 0.013338456;
            } else {
                if (input[0] < -2147483600.0) {
                    var41 = 0.057410985;
                } else {
                    var41 = 0.016800031;
                }
            }
        }
    }
    double var42;
    if (input[3] < 1.0) {
        if (input[0] < -2147483600.0) {
            if (input[2] < 1.0) {
                var42 = -0.0016149785;
            } else {
                var42 = -0.000011587373;
            }
        } else {
            if (input[2] < 1.0) {
                if (input[0] < -2147483600.0) {
                    var42 = -0.04171892;
                } else {
                    var42 = -0.029792521;
                }
            } else {
                if (input[0] < -2147483600.0) {
                    var42 = -0.005903431;
                } else {
                    var42 = -0.00045890297;
                }
            }
        }
    } else {
        if (input[2] < 1.0) {
            if (input[0] < -2147483600.0) {
                if (input[0] < -2147483600.0) {
                    var42 = 0.000019554978;
                } else {
                    var42 = -0.008930527;
                }
            } else {
                var42 = 0.0007475296;
            }
        } else {
            if (input[0] < -2147483600.0) {
                var42 = 0.012157134;
            } else {
                if (input[0] < -2147483600.0) {
                    var42 = 0.054837715;
                } else {
                    var42 = 0.015368074;
                }
            }
        }
    }
    double var43;
    if (input[3] < 1.0) {
        if (input[0] < -2147483600.0) {
            if (input[2] < 1.0) {
                var43 = -0.0014547056;
            } else {
                var43 = -0.0000104131095;
            }
        } else {
            if (input[2] < 1.0) {
                if (input[0] < -2147483600.0) {
                    var43 = -0.03918524;
                } else {
                    var43 = -0.027631307;
                }
            } else {
                if (input[0] < -2147483600.0) {
                    var43 = -0.005358053;
                } else {
                    var43 = -0.00041309194;
                }
            }
        }
    } else {
        if (input[2] < 1.0) {
            if (input[0] < -2147483600.0) {
                if (input[0] < -2147483600.0) {
                    var43 = 0.00001762367;
                } else {
                    var43 = -0.0081398375;
                }
            } else {
                var43 = 0.00067300256;
            }
        } else {
            if (input[0] < -2147483600.0) {
                var43 = 0.011068078;
            } else {
                if (input[0] < -2147483600.0) {
                    var43 = 0.052248746;
                } else {
                    var43 = 0.014038964;
                }
            }
        }
    }
    double var44;
    if (input[3] < 1.0) {
        if (input[0] < -2147483600.0) {
            if (input[2] < 1.0) {
                var44 = -0.0013102278;
            } else {
                var44 = -0.0000093819;
            }
        } else {
            if (input[2] < 1.0) {
                if (input[0] < -2147483600.0) {
                    var44 = -0.03671281;
                } else {
                    var44 = -0.02557211;
                }
            } else {
                if (input[0] < -2147483600.0) {
                    var44 = -0.004861035;
                } else {
                    var44 = -0.0003718274;
                }
            }
        }
    } else {
        if (input[2] < 1.0) {
            if (input[0] < -2147483600.0) {
                if (input[0] < -2147483600.0) {
                    var44 = 0.000015859263;
                } else {
                    var44 = -0.0074144267;
                }
            } else {
                var44 = 0.00060586276;
            }
        } else {
            if (input[0] < -2147483600.0) {
                var44 = 0.010066443;
            } else {
                if (input[0] < -2147483600.0) {
                    var44 = 0.04965733;
                } else {
                    var44 = 0.012808645;
                }
            }
        }
    }
    double var45;
    if (input[3] < 1.0) {
        if (input[0] < -2147483600.0) {
            if (input[2] < 1.0) {
                var45 = -0.00118002;
            } else {
                var45 = -0.0000084282065;
            }
        } else {
            if (input[2] < 1.0) {
                if (input[0] < -2147483600.0) {
                    var45 = -0.03431155;
                } else {
                    var45 = -0.02361802;
                }
            } else {
                if (input[0] < -2147483600.0) {
                    var45 = -0.0044084056;
                } else {
                    var45 = -0.00033471544;
                }
            }
        }
    } else {
        if (input[2] < 1.0) {
            if (input[0] < -2147483600.0) {
                if (input[0] < -2147483600.0) {
                    var45 = 0.000014261757;
                } else {
                    var45 = -0.0067497143;
                }
            } else {
                var45 = 0.00054542033;
            }
        } else {
            if (input[0] < -2147483600.0) {
                var45 = 0.009146716;
            } else {
                if (input[0] < -2147483600.0) {
                    var45 = 0.047075;
                } else {
                    var45 = 0.0116723515;
                }
            }
        }
    }
    double var46;
    if (input[3] < 1.0) {
        if (input[0] < -2147483600.0) {
            if (input[2] < 1.0) {
                var46 = -0.001062669;
            } else {
                var46 = -0.0000075997136;
            }
        } else {
            if (input[2] < 1.0) {
                if (input[0] < -2147483600.0) {
                    var46 = -0.03199024;
                } else {
                    var46 = -0.021770822;
                }
            } else {
                if (input[0] < -2147483600.0) {
                    var46 = -0.0039965454;
                } else {
                    var46 = -0.00030127403;
                }
            }
        }
    } else {
        if (input[2] < 1.0) {
            if (input[0] < -2147483600.0) {
                if (input[0] < -2147483600.0) {
                    var46 = 0.000012831158;
                } else {
                    var46 = -0.0061412877;
                }
            } else {
                var46 = 0.00049098383;
            }
        } else {
            if (input[0] < -2147483600.0) {
                var46 = 0.008304032;
            } else {
                if (input[0] < -2147483600.0) {
                    var46 = 0.044513654;
                } else {
                    var46 = 0.010625403;
                }
            }
        }
    }
    double var47;
    if (input[3] < 1.0) {
        if (input[0] < -2147483600.0) {
            if (input[2] < 1.0) {
                var47 = -0.00095695426;
            } else {
                var47 = -0.000006854612;
            }
        } else {
            if (input[2] < 1.0) {
                if (input[0] < -2147483600.0) {
                    var47 = -0.02975649;
                } else {
                    var47 = -0.020031102;
                }
            } else {
                if (input[0] < -2147483600.0) {
                    var47 = -0.0036219803;
                } else {
                    var47 = -0.0002711998;
                }
            }
        }
    } else {
        if (input[2] < 1.0) {
            if (input[0] < -2147483600.0) {
                if (input[0] < -2147483600.0) {
                    var47 = 0.00001156746;
                } else {
                    var47 = -0.005584953;
                }
            } else {
                var47 = 0.00044198963;
            }
        } else {
            if (input[0] < -2147483600.0) {
                var47 = 0.0075328387;
            } else {
                if (input[0] < -2147483600.0) {
                    var47 = 0.041986614;
                } else {
                    var47 = 0.009662311;
                }
            }
        }
    }
    double var48;
    if (input[3] < 1.0) {
        if (input[0] < -2147483600.0) {
            if (input[2] < 1.0) {
                var48 = -0.00086167344;
            } else {
                var48 = -0.0000061513197;
            }
        } else {
            if (input[2] < 1.0) {
                if (input[0] < -2147483600.0) {
                    var48 = -0.02761646;
                } else {
                    var48 = -0.018398313;
                }
            } else {
                if (input[0] < -2147483600.0) {
                    var48 = -0.0032815859;
                } else {
                    var48 = -0.00024410126;
                }
            }
        }
    } else {
        if (input[2] < 1.0) {
            if (input[0] < -2147483600.0) {
                if (input[0] < -2147483600.0) {
                    var48 = 0.000010399136;
                } else {
                    var48 = -0.005076721;
                }
            } else {
                var48 = 0.00039787288;
            }
        } else {
            if (input[0] < -2147483600.0) {
                var48 = 0.006828332;
            } else {
                if (input[0] < -2147483600.0) {
                    var48 = 0.039504103;
                } else {
                    var48 = 0.008778677;
                }
            }
        }
    }
    double var49;
    if (input[3] < 1.0) {
        if (input[0] < -2147483600.0) {
            if (input[2] < 1.0) {
                var49 = -0.0007758689;
            } else {
                var49 = -0.0000055492724;
            }
        } else {
            if (input[2] < 1.0) {
                if (input[0] < -2147483600.0) {
                    var49 = -0.025574977;
                } else {
                    var49 = -0.016870959;
                }
            } else {
                if (input[0] < -2147483600.0) {
                    var49 = -0.0029723875;
                } else {
                    var49 = -0.00021970372;
                }
            }
        }
    } else {
        if (input[2] < 1.0) {
            if (input[0] < -2147483600.0) {
                if (input[0] < -2147483600.0) {
                    var49 = 0.000009373872;
                } else {
                    var49 = -0.004612835;
                }
            } else {
                var49 = 0.00035817132;
            }
        } else {
            if (input[0] < -2147483600.0) {
                var49 = 0.006185649;
            } else {
                if (input[0] < -2147483600.0) {
                    var49 = 0.037077058;
                } else {
                    var49 = 0.00796882;
                }
            }
        }
    }
    double var50;
    if (input[3] < 1.0) {
        if (input[0] < -2147483600.0) {
            if (input[2] < 1.0) {
                var50 = -0.00069856894;
            } else {
                var50 = -0.0000049770556;
            }
        } else {
            if (input[2] < 1.0) {
                if (input[0] < -2147483600.0) {
                    var50 = -0.023635516;
                } else {
                    var50 = -0.015446669;
                }
            } else {
                if (input[0] < -2147483600.0) {
                    var50 = -0.0026916717;
                } else {
                    var50 = -0.00019776872;
                }
            }
        }
    } else {
        if (input[2] < 1.0) {
            if (input[0] < -2147483600.0) {
                if (input[0] < -2147483600.0) {
                    var50 = 0.000008420137;
                } else {
                    var50 = -0.0041897395;
                }
            } else {
                var50 = 0.00032242198;
            }
        } else {
            if (input[0] < -2147483600.0) {
                var50 = 0.005599964;
            } else {
                if (input[0] < -2147483600.0) {
                    var50 = 0.0347166;
                } else {
                    var50 = 0.0072282325;
                }
            }
        }
    }
    double var51;
    if (input[3] < 1.0) {
        if (input[0] < -2147483600.0) {
            if (input[2] < 1.0) {
                var51 = -0.00062893477;
            } else {
                var51 = -0.0000044823555;
            }
        } else {
            if (input[2] < 1.0) {
                if (input[0] < -2147483600.0) {
                    var51 = -0.021800235;
                } else {
                    var51 = -0.014122349;
                }
            } else {
                if (input[0] < -2147483600.0) {
                    var51 = -0.0024369347;
                } else {
                    var51 = -0.00017800838;
                }
            }
        }
    } else {
        if (input[2] < 1.0) {
            if (input[0] < -2147483600.0) {
                if (input[0] < -2147483600.0) {
                    var51 = 0.0000075856196;
                } else {
                    var51 = -0.0038041428;
                }
            } else {
                var51 = 0.00029023874;
            }
        } else {
            if (input[0] < -2147483600.0) {
                var51 = 0.0050669606;
            } else {
                if (input[0] < -2147483600.0) {
                    var51 = 0.032429878;
                } else {
                    var51 = 0.006551524;
                }
            }
        }
    }
    double var52;
    if (input[3] < 1.0) {
        if (input[0] < -2147483600.0) {
            if (input[2] < 1.0) {
                var52 = -0.00056623464;
            } else {
                var52 = -0.000004041215;
            }
        } else {
            if (input[2] < 1.0) {
                if (input[0] < -2147483600.0) {
                    var52 = -0.020070031;
                } else {
                    var52 = -0.0128943445;
                }
            } else {
                if (input[0] < -2147483600.0) {
                    var52 = -0.0022058778;
                } else {
                    var52 = -0.00016021133;
                }
            }
        }
    } else {
        if (input[2] < 1.0) {
            if (input[0] < -2147483600.0) {
                if (input[0] < -2147483600.0) {
                    var52 = 0.0000068226323;
                } else {
                    var52 = -0.0034529455;
                }
            } else {
                var52 = 0.00026123514;
            }
        } else {
            if (input[0] < -2147483600.0) {
                var52 = 0.0045824205;
            } else {
                if (input[0] < -2147483600.0) {
                    var52 = 0.03022561;
                } else {
                    var52 = 0.0059344904;
                }
            }
        }
    }
    double var53;
    if (input[3] < 1.0) {
        if (input[0] < -2147483600.0) {
            if (input[2] < 1.0) {
                var53 = -0.0005097526;
            } else {
                var53 = -0.0000036240308;
            }
        } else {
            if (input[2] < 1.0) {
                if (input[0] < -2147483600.0) {
                    var53 = -0.018444646;
                } else {
                    var53 = -0.011758528;
                }
            } else {
                if (input[0] < -2147483600.0) {
                    var53 = -0.0019963526;
                } else {
                    var53 = -0.0001442228;
                }
            }
        }
    } else {
        if (input[2] < 1.0) {
            if (input[0] < -2147483600.0) {
                if (input[0] < -2147483600.0) {
                    var53 = 0.0000061311744;
                } else {
                    var53 = -0.003133266;
                }
            } else {
                var53 = 0.00023515371;
            }
        } else {
            if (input[0] < -2147483600.0) {
                var53 = 0.0041422932;
            } else {
                if (input[0] < -2147483600.0) {
                    var53 = 0.028110037;
                } else {
                    var53 = 0.0053724037;
                }
            }
        }
    }
    double var54;
    if (input[3] < 1.0) {
        if (input[0] < -2147483600.0) {
            if (input[2] < 1.0) {
                var54 = -0.00045890894;
            } else {
                var54 = -0.0000032842488;
            }
        } else {
            if (input[2] < 1.0) {
                if (input[0] < -2147483600.0) {
                    var54 = -0.016922882;
                } else {
                    var54 = -0.010710472;
                }
            } else {
                if (input[0] < -2147483600.0) {
                    var54 = -0.001806451;
                } else {
                    var54 = -0.00012980837;
                }
            }
        }
    } else {
        if (input[2] < 1.0) {
            if (input[0] < -2147483600.0) {
                if (input[0] < -2147483600.0) {
                    var54 = 0.0000055350897;
                } else {
                    var54 = -0.002842454;
                }
            } else {
                var54 = 0.00021168492;
            }
        } else {
            if (input[0] < -2147483600.0) {
                var54 = 0.0037428797;
            } else {
                if (input[0] < -2147483600.0) {
                    var54 = 0.026088357;
                } else {
                    var54 = 0.004860701;
                }
            }
        }
    }
    double var55;
    if (input[3] < 1.0) {
        if (input[0] < -2147483600.0) {
            if (input[2] < 1.0) {
                var55 = -0.00041311365;
            } else {
                var55 = -0.0000029504558;
            }
        } else {
            if (input[2] < 1.0) {
                if (input[0] < -2147483600.0) {
                    var55 = -0.015502592;
                } else {
                    var55 = -0.009745497;
                }
            } else {
                if (input[0] < -2147483600.0) {
                    var55 = -0.0016343661;
                } else {
                    var55 = -0.0001168231;
                }
            }
        }
    } else {
        if (input[2] < 1.0) {
            if (input[0] < -2147483600.0) {
                if (input[0] < -2147483600.0) {
                    var55 = 0.0000049866926;
                } else {
                    var55 = -0.0025780152;
                }
            } else {
                var55 = 0.00019051887;
            }
        } else {
            if (input[0] < -2147483600.0) {
                var55 = 0.0033806318;
            } else {
                if (input[0] < -2147483600.0) {
                    var55 = 0.024163311;
                } else {
                    var55 = 0.004395702;
                }
            }
        }
    }
    double var56;
    if (input[3] < 1.0) {
        if (input[0] < -2147483600.0) {
            if (input[2] < 1.0) {
                var56 = -0.00037188988;
            } else {
                var56 = -0.0000026643477;
            }
        } else {
            if (input[2] < 1.0) {
                if (input[0] < -2147483600.0) {
                    var56 = -0.014180957;
                } else {
                    var56 = -0.0088587785;
                }
            } else {
                if (input[0] < -2147483600.0) {
                    var56 = -0.00147846;
                } else {
                    var56 = -0.000105178704;
                }
            }
        }
    } else {
        if (input[2] < 1.0) {
            if (input[0] < -2147483600.0) {
                if (input[0] < -2147483600.0) {
                    var56 = 0.0000044621383;
                } else {
                    var56 = -0.0023376746;
                }
            } else {
                var56 = 0.00017150094;
            }
        } else {
            if (input[0] < -2147483600.0) {
                var56 = 0.0030524505;
            } else {
                if (input[0] < -2147483600.0) {
                    var56 = 0.022336414;
                } else {
                    var56 = 0.003973256;
                }
            }
        }
    }
    double var57;
    if (input[3] < 1.0) {
        if (input[0] < -2147483600.0) {
            if (input[2] < 1.0) {
                var57 = -0.00033476323;
            } else {
                var57 = -0.0000023782393;
            }
        } else {
            if (input[2] < 1.0) {
                if (input[0] < -2147483600.0) {
                    var57 = -0.012954476;
                } else {
                    var57 = -0.008045525;
                }
            } else {
                if (input[0] < -2147483600.0) {
                    var57 = -0.0013372756;
                } else {
                    var57 = -0.000094668;
                }
            }
        }
    } else {
        if (input[2] < 1.0) {
            if (input[0] < -2147483600.0) {
                if (input[0] < -2147483600.0) {
                    var57 = 0.0000040329573;
                } else {
                    var57 = -0.0021193202;
                }
            } else {
                var57 = 0.00015439857;
            }
        } else {
            if (input[0] < -2147483600.0) {
                var57 = 0.0027550773;
            } else {
                if (input[0] < -2147483600.0) {
                    var57 = 0.02061211;
                } else {
                    var57 = 0.0035900702;
                }
            }
        }
    }
    double var58;
    if (input[3] < 1.0) {
        if (input[0] < -2147483600.0) {
            if (input[2] < 1.0) {
                var58 = -0.0003013573;
            } else {
                var58 = -0.000002139816;
            }
        } else {
            if (input[2] < 1.0) {
                if (input[0] < -2147483600.0) {
                    var58 = -0.011819247;
                } else {
                    var58 = -0.007300885;
                }
            } else {
                if (input[0] < -2147483600.0) {
                    var58 = -0.0012094426;
                } else {
                    var58 = -0.00008520708;
                }
            }
        }
    } else {
        if (input[2] < 1.0) {
            if (input[0] < -2147483600.0) {
                if (input[0] < -2147483600.0) {
                    var58 = 0.0000036276201;
                } else {
                    var58 = -0.0019210248;
                }
            } else {
                var58 = 0.0001389532;
            }
        } else {
            if (input[0] < -2147483600.0) {
                var58 = 0.0024862918;
            } else {
                if (input[0] < -2147483600.0) {
                    var58 = 0.018986383;
                } else {
                    var58 = 0.0032424727;
                }
            }
        }
    }
    double var59;
    if (input[3] < 1.0) {
        if (input[0] < -2147483600.0) {
            if (input[2] < 1.0) {
                var59 = -0.000271255;
            } else {
                var59 = -0.000001943088;
            }
        } else {
            if (input[2] < 1.0) {
                if (input[0] < -2147483600.0) {
                    var59 = -0.010771013;
                } else {
                    var59 = -0.006620166;
                }
            } else {
                if (input[0] < -2147483600.0) {
                    var59 = -0.0010937006;
                } else {
                    var59 = -0.000076682845;
                }
            }
        }
    } else {
        if (input[2] < 1.0) {
            if (input[0] < -2147483600.0) {
                if (input[0] < -2147483600.0) {
                    var59 = 0.0000032461255;
                } else {
                    var59 = -0.0017410044;
                }
            } else {
                var59 = 0.00012508749;
            }
        } else {
            if (input[0] < -2147483600.0) {
                var59 = 0.002242854;
            } else {
                if (input[0] < -2147483600.0) {
                    var59 = 0.017462695;
                } else {
                    var59 = 0.0029275862;
                }
            }
        }
    }
    double var60;
    if (input[3] < 1.0) {
        if (input[0] < -2147483600.0) {
            if (input[2] < 1.0) {
                var60 = -0.00024415363;
            } else {
                var60 = -0.0000017166427;
            }
        } else {
            if (input[2] < 1.0) {
                if (input[0] < -2147483600.0) {
                    var60 = -0.009805242;
                } else {
                    var60 = -0.0059987805;
                }
            } else {
                if (input[0] < -2147483600.0) {
                    var60 = -0.0009889692;
                } else {
                    var60 = -0.000069031455;
                }
            }
        }
    } else {
        if (input[2] < 1.0) {
            if (input[0] < -2147483600.0) {
                if (input[0] < -2147483600.0) {
                    var60 = 0.0000029361618;
                } else {
                    var60 = -0.0015776101;
                }
            } else {
                var60 = 0.00011259445;
            }
        } else {
            if (input[0] < -2147483600.0) {
                var60 = 0.0020230038;
            } else {
                if (input[0] < -2147483600.0) {
                    var60 = 0.016035456;
                } else {
                    var60 = 0.0026427142;
                }
            }
        }
    }
    double var61;
    if (input[3] < 1.0) {
        if (input[0] < -2147483600.0) {
            if (input[2] < 1.0) {
                var61 = -0.00021977354;
            } else {
                var61 = -0.0000015735886;
            }
        } else {
            if (input[2] < 1.0) {
                if (input[0] < -2147483600.0) {
                    var61 = -0.008917239;
                } else {
                    var61 = -0.0054322993;
                }
            } else {
                if (input[0] < -2147483600.0) {
                    var61 = -0.0008941903;
                } else {
                    var61 = -0.000062134226;
                }
            }
        }
    } else {
        if (input[2] < 1.0) {
            if (input[0] < -2147483600.0) {
                if (input[0] < -2147483600.0) {
                    var61 = 0.000002650041;
                } else {
                    var61 = -0.0014293605;
                }
            } else {
                var61 = 0.00010134477;
            }
        } else {
            if (input[0] < -2147483600.0) {
                var61 = 0.0018241209;
            } else {
                if (input[0] < -2147483600.0) {
                    var61 = 0.014704979;
                } else {
                    var61 = 0.0023845402;
                }
            }
        }
    }
    double var62;
    if (input[3] < 1.0) {
        if (input[0] < -2147483600.0) {
            if (input[2] < 1.0) {
                var62 = -0.0001978268;
            } else {
                var62 = -0.0000013828497;
            }
        } else {
            if (input[2] < 1.0) {
                if (input[0] < -2147483600.0) {
                    var62 = -0.00810227;
                } else {
                    var62 = -0.0049164756;
                }
            } else {
                if (input[0] < -2147483600.0) {
                    var62 = -0.00080840214;
                } else {
                    var62 = -0.00005592001;
                }
            }
        }
    } else {
        if (input[2] < 1.0) {
            if (input[0] < -2147483600.0) {
                if (input[0] < -2147483600.0) {
                    var62 = 0.000002387764;
                } else {
                    var62 = -0.0012948912;
                }
            } else {
                var62 = 0.00009120907;
            }
        } else {
            if (input[0] < -2147483600.0) {
                var62 = 0.0016445806;
            } else {
                if (input[0] < -2147483600.0) {
                    var62 = 0.013467557;
                } else {
                    var62 = 0.002151466;
                }
            }
        }
    }
    double var63;
    if (input[3] < 1.0) {
        if (input[0] < -2147483600.0) {
            if (input[2] < 1.0) {
                var63 = -0.00017807655;
            } else {
                var63 = -0.0000012755016;
            }
        } else {
            if (input[2] < 1.0) {
                if (input[0] < -2147483600.0) {
                    var63 = -0.0073556374;
                } else {
                    var63 = -0.0044472734;
                }
            } else {
                if (input[0] < -2147483600.0) {
                    var63 = -0.0007308104;
                } else {
                    var63 = -0.000050339524;
                }
            }
        }
    } else {
        if (input[2] < 1.0) {
            if (input[0] < -2147483600.0) {
                if (input[0] < -2147483600.0) {
                    var63 = 0.0000021493302;
                } else {
                    var63 = -0.001172939;
                }
            } else {
                var63 = 0.00008210978;
            }
        } else {
            if (input[0] < -2147483600.0) {
                var63 = 0.0014825787;
            } else {
                if (input[0] < -2147483600.0) {
                    var63 = 0.012317503;
                } else {
                    var63 = 0.0019403145;
                }
            }
        }
    }
    double var64;
    if (input[3] < 1.0) {
        if (input[0] < -2147483600.0) {
            if (input[2] < 1.0) {
                var64 = -0.00016027373;
            } else {
                var64 = -0.0000011444262;
            }
        } else {
            if (input[2] < 1.0) {
                if (input[0] < -2147483600.0) {
                    var64 = -0.006672709;
                } else {
                    var64 = -0.004020919;
                }
            } else {
                if (input[0] < -2147483600.0) {
                    var64 = -0.00066064403;
                } else {
                    var64 = -0.00004530145;
                }
            }
        }
    } else {
        if (input[2] < 1.0) {
            if (input[0] < -2147483600.0) {
                if (input[0] < -2147483600.0) {
                    var64 = 0.0000019347397;
                } else {
                    var64 = -0.0010623563;
                }
            } else {
                var64 = 0.000073917414;
            }
        } else {
            if (input[0] < -2147483600.0) {
                var64 = 0.001336136;
            } else {
                if (input[0] < -2147483600.0) {
                    var64 = 0.011254379;
                } else {
                    var64 = 0.0017498418;
                }
            }
        }
    }
    double var65;
    if (input[3] < 1.0) {
        if (input[0] < -2147483600.0) {
            if (input[2] < 1.0) {
                var65 = -0.00014425446;
            } else {
                var65 = -0.0000010013721;
            }
        } else {
            if (input[2] < 1.0) {
                if (input[0] < -2147483600.0) {
                    var65 = -0.0060489317;
                } else {
                    var65 = -0.0036338952;
                }
            } else {
                if (input[0] < -2147483600.0) {
                    var65 = -0.000597167;
                } else {
                    var65 = -0.000040771116;
                }
            }
        }
    } else {
        if (input[2] < 1.0) {
            if (input[0] < -2147483600.0) {
                if (input[0] < -2147483600.0) {
                    var65 = 0.0000017201492;
                } else {
                    var65 = -0.0009621225;
                }
            } else {
                var65 = 0.00006650248;
            }
        } else {
            if (input[0] < -2147483600.0) {
                var65 = 0.0012041744;
            } else {
                if (input[0] < -2147483600.0) {
                    var65 = 0.010270943;
                } else {
                    var65 = 0.0015774083;
                }
            }
        }
    }
    double var66;
    if (input[3] < 1.0) {
        if (input[0] < -2147483600.0) {
            if (input[2] < 1.0) {
                var66 = -0.00012984865;
            } else {
                var66 = -0.0000009060027;
            }
        } else {
            if (input[2] < 1.0) {
                if (input[0] < -2147483600.0) {
                    var66 = -0.0054799654;
                } else {
                    var66 = -0.0032828168;
                }
            } else {
                if (input[0] < -2147483600.0) {
                    var66 = -0.0005397679;
                } else {
                    var66 = -0.00003670198;
                }
            }
        }
    } else {
        if (input[2] < 1.0) {
            if (input[0] < -2147483600.0) {
                if (input[0] < -2147483600.0) {
                    var66 = 0.0000015532454;
                } else {
                    var66 = -0.0008712751;
                }
            } else {
                var66 = 0.000059865073;
            }
        } else {
            if (input[0] < -2147483600.0) {
                var66 = 0.0010850545;
            } else {
                if (input[0] < -2147483600.0) {
                    var66 = 0.009365834;
                } else {
                    var66 = 0.0014220086;
                }
            }
        }
    }
    double var67;
    if (input[3] < 1.0) {
        if (input[0] < -2147483600.0) {
            if (input[2] < 1.0) {
                var67 = -0.00011687207;
            } else {
                var67 = -0.0000008284863;
            }
        } else {
            if (input[2] < 1.0) {
                if (input[0] < -2147483600.0) {
                    var67 = -0.0049616573;
                } else {
                    var67 = -0.0029645807;
                }
            } else {
                if (input[0] < -2147483600.0) {
                    var67 = -0.00048785305;
                } else {
                    var67 = -0.00003303467;
                }
            }
        }
    } else {
        if (input[2] < 1.0) {
            if (input[0] < -2147483600.0) {
                if (input[0] < -2147483600.0) {
                    var67 = 0.0000014101851;
                } else {
                    var67 = -0.000788958;
                }
            } else {
                var67 = 0.000053901556;
            }
        } else {
            if (input[0] < -2147483600.0) {
                var67 = 0.0009773815;
            } else {
                if (input[0] < -2147483600.0) {
                    var67 = 0.008531768;
                } else {
                    var67 = 0.0012815902;
                }
            }
        }
    }
    double var68;
    if (input[3] < 1.0) {
        if (input[0] < -2147483600.0) {
            if (input[2] < 1.0) {
                var68 = -0.000105192106;
            } else {
                var68 = -0.0000007569592;
            }
        } else {
            if (input[2] < 1.0) {
                if (input[0] < -2147483600.0) {
                    var68 = -0.004489982;
                } else {
                    var68 = -0.0026763498;
                }
            } else {
                if (input[0] < -2147483600.0) {
                    var68 = -0.00044091727;
                } else {
                    var68 = -0.000029729945;
                }
            }
        }
    } else {
        if (input[2] < 1.0) {
            if (input[0] < -2147483600.0) {
                if (input[0] < -2147483600.0) {
                    var68 = 0.0000012671247;
                } else {
                    var68 = -0.0007143529;
                }
            } else {
                var68 = 0.000048534224;
            }
        } else {
            if (input[0] < -2147483600.0) {
                var68 = 0.00088055007;
            } else {
                if (input[0] < -2147483600.0) {
                    var68 = 0.007766275;
                } else {
                    var68 = 0.0011550834;
                }
            }
        }
    }
    double var69;
    if (input[3] < 1.0) {
        if (input[0] < -2147483600.0) {
            if (input[2] < 1.0) {
                var69 = -0.00009468792;
            } else {
                var69 = -0.00000068543216;
            }
        } else {
            if (input[2] < 1.0) {
                if (input[0] < -2147483600.0) {
                    var69 = -0.0040611667;
                } else {
                    var69 = -0.0024154081;
                }
            } else {
                if (input[0] < -2147483600.0) {
                    var69 = -0.0003984973;
                } else {
                    var69 = -0.000026755855;
                }
            }
        }
    } else {
        if (input[2] < 1.0) {
            if (input[0] < -2147483600.0) {
                if (input[0] < -2147483600.0) {
                    var69 = 0.0000011240644;
                } else {
                    var69 = -0.0006467709;
                }
            } else {
                var69 = 0.0000436594;
            }
        } else {
            if (input[0] < -2147483600.0) {
                var69 = 0.00079313334;
            } else {
                if (input[0] < -2147483600.0) {
                    var69 = 0.007062722;
                } else {
                    var69 = 0.0010408849;
                }
            }
        }
    }
    double var70;
    if (input[3] < 1.0) {
        if (input[0] < -2147483600.0) {
            if (input[2] < 1.0) {
                var70 = -0.00008523261;
            } else {
                var70 = -0.000000613905;
            }
        } else {
            if (input[2] < 1.0) {
                if (input[0] < -2147483600.0) {
                    var70 = -0.0036716748;
                } else {
                    var70 = -0.002179372;
                }
            } else {
                if (input[0] < -2147483600.0) {
                    var70 = -0.00036014753;
                } else {
                    var70 = -0.000024099589;
                }
            }
        }
    } else {
        if (input[2] < 1.0) {
            if (input[0] < -2147483600.0) {
                if (input[0] < -2147483600.0) {
                    var70 = 0.0000010286908;
                } else {
                    var70 = -0.0005855506;
                }
            } else {
                var70 = 0.000039328992;
            }
        } else {
            if (input[0] < -2147483600.0) {
                var70 = 0.00071436574;
            } else {
                if (input[0] < -2147483600.0) {
                    var70 = 0.0064206794;
                } else {
                    var70 = 0.00093753834;
                }
            }
        }
    }
    double var71;
    if (input[3] < 1.0) {
        if (input[0] < -2147483600.0) {
            if (input[2] < 1.0) {
                var71 = -0.00007670517;
            } else {
                var71 = -0.00000054237796;
            }
        } else {
            if (input[2] < 1.0) {
                if (input[0] < -2147483600.0) {
                    var71 = -0.0033182285;
                } else {
                    var71 = -0.001965922;
                }
            } else {
                if (input[0] < -2147483600.0) {
                    var71 = -0.00032546616;
                } else {
                    var71 = -0.000021682625;
                }
            }
        }
    } else {
        if (input[2] < 1.0) {
            if (input[0] < -2147483600.0) {
                if (input[0] < -2147483600.0) {
                    var71 = 0.00000093331727;
                } else {
                    var71 = -0.00053008494;
                }
            } else {
                var71 = 0.000035387446;
            }
        } else {
            if (input[0] < -2147483600.0) {
                var71 = 0.0006434725;
            } else {
                if (input[0] < -2147483600.0) {
                    var71 = 0.005831308;
                } else {
                    var71 = 0.00084476563;
                }
            }
        }
    }
    double var72;
    if (input[3] < 1.0) {
        if (input[0] < -2147483600.0) {
            if (input[2] < 1.0) {
                var72 = -0.00006902826;
            } else {
                var72 = -0.0000004946932;
            }
        } else {
            if (input[2] < 1.0) {
                if (input[0] < -2147483600.0) {
                    var72 = -0.002997711;
                } else {
                    var72 = -0.0017729605;
                }
            } else {
                if (input[0] < -2147483600.0) {
                    var72 = -0.0002941192;
                } else {
                    var72 = -0.00001950497;
                }
            }
        }
    } else {
        if (input[2] < 1.0) {
            if (input[0] < -2147483600.0) {
                if (input[0] < -2147483600.0) {
                    var72 = 0.0000008379438;
                } else {
                    var72 = -0.00047986806;
                }
            } else {
                var72 = 0.000031808868;
            }
        } else {
            if (input[0] < -2147483600.0) {
                var72 = 0.00057926466;
            } else {
                if (input[0] < -2147483600.0) {
                    var72 = 0.0052940375;
                } else {
                    var72 = 0.0007607384;
                }
            }
        }
    }
    double var73;
    if (input[3] < 1.0) {
        if (input[0] < -2147483600.0) {
            if (input[2] < 1.0) {
                var73 = -0.0000621424;
            } else {
                var73 = -0.00000044700852;
            }
        } else {
            if (input[2] < 1.0) {
                if (input[0] < -2147483600.0) {
                    var73 = -0.0027072388;
                } else {
                    var73 = -0.001598649;
                }
            } else {
                if (input[0] < -2147483600.0) {
                    var73 = -0.00026577973;
                } else {
                    var73 = -0.000017563872;
                }
            }
        }
    } else {
        if (input[2] < 1.0) {
            if (input[0] < -2147483600.0) {
                if (input[0] < -2147483600.0) {
                    var73 = 0.0000007425702;
                } else {
                    var73 = -0.00043438157;
                }
            } else {
                var73 = 0.00002864513;
            }
        } else {
            if (input[0] < -2147483600.0) {
                var73 = 0.0005217661;
            } else {
                if (input[0] < -2147483600.0) {
                    var73 = 0.0048025674;
                } else {
                    var73 = 0.00068515516;
                }
            }
        }
    }
    double var74;
    if (input[3] < 1.0) {
        if (input[0] < -2147483600.0) {
            if (input[2] < 1.0) {
                var74 = -0.00005594233;
            } else {
                var74 = -0.0000003993238;
            }
        } else {
            if (input[2] < 1.0) {
                if (input[0] < -2147483600.0) {
                    var74 = -0.0024442316;
                } else {
                    var74 = -0.0014411991;
                }
            } else {
                if (input[0] < -2147483600.0) {
                    var74 = -0.00024015715;
                } else {
