{"learner":{"attributes":{"best_iteration":"99","best_ntree_limit":"100","scikit_learn":"{\"use_label_encoder\": null, \"n_estimators\": 100, \"objective\": \"binary:logistic\", \"max_depth\": 6, \"max_leaves\": null, \"max_bin\": null, \"grow_policy\": null, \"learning_rate\": 0.1, \"verbosity\": null, \"booster\": null, \"tree_method\": null, \"gamma\": null, \"min_child_weight\": null, \"max_delta_step\": null, \"subsample\": null, \"sampling_method\": null, \"colsample_bytree\": null, \"colsample_bylevel\": null, \"colsample_bynode\": null, \"reg_alpha\": null, \"reg_lambda\": null, \"scale_pos_weight\": null, \"base_score\": null, \"missing\": NaN, \"num_parallel_tree\": null, \"random_state\": 42, \"n_jobs\": -1, \"monotone_constraints\": null, \"interaction_constraints\": null, \"importance_type\": null, \"gpu_id\": null, \"validate_parameters\": null, \"predictor\": null, \"enable_categorical\": false, \"feature_types\": null, \"max_cat_to_onehot\": null, \"max_cat_threshold\": null, \"eval_metric\": null, \"early_stopping_rounds\": null, \"callbacks\": null, \"classes_\": [0, 1], \"n_classes_\": 2, \"_estimator_type\": \"classifier\"}"},"feature_names":["PC_int","Target_int","History_1","History_2"],"feature_types":["int","int","int","int"],"gradient_booster":{"model":{"gbtree_model_param":{"num_parallel_tree":"1","num_trees":"100","size_leaf_vector":"0"},"tree_info":[0,0,0,0,0,0,0,0,0,0,0,0,0,0,0,0,0,0,0,0,0,0,0,0,0,0,0,0,0,0,0,0,0,0,0,0,0,0,0,0,0,0,0,0,0,0,0,0,0,0,0,0,0,0,0,0,0,0,0,0,0,0,0,0,0,0,0,0,0,0,0,0,0,0,0,0,0,0,0,0,0,0,0,0,0,0,0,0,0,0,0,0,0,0,0,0,0,0,0,0],"trees":[{"base_weights":[1.1790943E0,-7.097901E-1,1.6668929E0,-1.0461394E0,-1.1247245E-2,1.7998274E-2,1.8178387E0,-1.00261286E-1,-1.9404281E0,-9.6711284E-4,-4.305949E-1,1.602072E-2,5.703422E-2,1.8176271E-1,1.8675622E0,-1.9606753E-1,-1.9356498E-1,-1.588785E-1,-3.687262E-2,1.6345736E-3,-1.7106919E-1,1.9754864E-1,1.8576464E-1],"categories":[],"categories_nodes":[],"categories_segments":[],"categories_sizes":[],"default_left":[0,0,0,0,0,0,0,0,0,0,0,0,0,0,0,0,0,0,0,0,0,0,0],"id":0,"left_children":[1,3,5,7,9,11,13,-1,15,-1,17,19,-1,-1,21,-1,-1,-1,-1,-1,-1,-1,-1],"loss_changes":[5.859882E6,3.0668738E5,1.258031E6,3.4293938E4,2.8039142E2,4.6301456E2,4.3E1,0E0,1.71875E-1,0E0,1.1323932E2,2.3707648E2,0E0,0E0,1.7296875E1,0E0,0E0,0E0,0E0,0E0,0E0,0E0,0E0],"parents":[2147483647,0,0,1,1,2,2,3,3,4,4,5,5,6,6,8,8,10,10,11,11,14,14],"right_children":[2,4,6,8,10,12,14,-1,16,-1,18,20,-1,-1,22,-1,-1,-1,-1,-1,-1,-1,-1],"split_conditions":[1E0,1E0,1E0,1.3029276E14,1.3029276E14,1.3029309E14,1.3029276E14,-1.00261286E-1,1.3029309E14,-9.6711284E-4,1.3029309E14,1.3029276E14,5.703422E-2,1.8176271E-1,1.3029309E14,-1.9606753E-1,-1.9356498E-1,-1.588785E-1,-3.687262E-2,1.6345736E-3,-1.7106919E-1,1.9754864E-1,1.8576464E-1],"split_indices":[3,2,2,0,0,0,0,0,0,0,0,0,0,0,0,0,0,0,0,0,0,0,0],"split_type":[0,0,0,0,0,0,0,0,0,0,0,0,0,0,0,0,0,0,0,0,0,0,0],"sum_hessian":[6.359792E6,1.3053052E6,5.0544865E6,8.81069E5,4.2423625E5,4.2390075E5,4.630586E6,8.4017825E5,4.089075E4,4.2264875E5,1.5875E3,4.223895E5,1.51125E3,4.611008E6,1.9578E4,7.7295E3,3.316125E4,7.925E1,1.50825E3,4.22311E5,7.85E1,1.63075E3,1.794725E4],"tree_param":{"num_deleted":"0","num_feature":"4","num_nodes":"23","size_leaf_vector":"0"}},{"base_weights":[1.068343E0,-6.4010656E-1,1.5120426E0,-9.4430333E-1,-1.0123174E-2,1.6198214E-2,1.6501113E0,-9.0470545E-2,-1.763497E0,-8.7041076E-4,-3.879259E-1,1.44181745E-2,5.1377844E-2,1.649916E-1,1.6960721E0,-1.7822763E-1,-1.7590669E-1,-1.4411592E-1,-3.3199478E-2,1.4711152E-3,-1.5533523E-1,1.7960978E-1,1.6868933E-1],"categories":[],"categories_nodes":[],"categories_segments":[],"categories_sizes":[],"default_left":[0,0,0,0,0,0,0,0,0,0,0,0,0,0,0,0,0,0,0,0,0,0,0],"id":1,"left_children":[1,3,5,7,9,11,13,-1,15,-1,17,19,-1,-1,21,-1,-1,-1,-1,-1,-1,-1,-1],"loss_changes":[4.7902365E6,2.4967006E5,1.036042E6,2.8498E4,2.2744115E2,3.7544604E2,3.9E1,0E0,2.5E-1,0E0,9.303819E1,1.9403464E2,0E0,0E0,1.47890625E1,0E0,0E0,0E0,0E0,0E0,0E0,0E0,0E0],"parents":[2147483647,0,0,1,1,2,2,3,3,4,4,5,5,6,6,8,8,10,10,11,11,14,14],"right_children":[2,4,6,8,10,12,14,-1,16,-1,18,20,-1,-1,22,-1,-1,-1,-1,-1,-1,-1,-1],"split_conditions":[1E0,1E0,1E0,1.3029276E14,1.3029276E14,1.3029309E14,1.3029276E14,-9.0470545E-2,1.3029309E14,-8.7041076E-4,1.3029309E14,1.3029276E14,5.1377844E-2,1.649916E-1,1.3029309E14,-1.7822763E-1,-1.7590669E-1,-1.4411592E-1,-3.3199478E-2,1.4711152E-3,-1.5533523E-1,1.7960978E-1,1.6868933E-1],"split_indices":[3,2,2,0,0,0,0,0,0,0,0,0,0,0,0,0,0,0,0,0,0,0,0],"split_type":[0,0,0,0,0,0,0,0,0,0,0,0,0,0,0,0,0,0,0,0,0,0,0],"sum_hessian":[6.3192525E6,1.3028136E6,5.016439E6,8.7857856E5,4.2423512E5,4.238987E5,4.5925405E6,8.380703E5,4.050825E4,4.2264866E5,1.5864895E3,4.2238866E5,1.5100217E3,4.573132E6,1.9408246E4,7.655688E3,3.2852562E4,7.875198E1,1.5077374E3,4.2231072E5,7.7928474E1,1.6149427E3,1.7793303E4],"tree_param":{"num_deleted":"0","num_feature":"4","num_nodes":"23","size_leaf_vector":"0"}},{"base_weights":[9.788712E-1,-5.7920796E-1,1.3895656E0,-8.5652953E-1,-9.111527E-3,1.4578339E-2,1.5192572E0,-8.198688E-2,-1.6288406E0,-7.8336475E-4,-3.498902E-1,1.2975886E-2,4.6346616E-2,1.5190691E-1,1.5635777E0,-1.6470979E-1,-1.6245376E-1,-1.3213308E-1,-2.9909564E-2,1.3240133E-3,-1.4281271E-1,1.6606118E-1,1.5547019E-1],"categories":[],"categories_nodes":[],"categories_segments":[],"categories_sizes":[],"default_left":[0,0,0,0,0,0,0,0,0,0,0,0,0,0,0,0,0,0,0,0,0,0,0],"id":2,"left_children":[1,3,5,7,9,11,13,-1,15,-1,17,19,-1,-1,21,-1,-1,-1,-1,-1,-1,-1,-1],"loss_changes":[3.9765165E6,2.0495078E5,8.76998E5,2.4691062E4,1.8473988E2,3.049102E2,3.5E1,0E0,4.296875E-1,0E0,7.780791E1,1.6086687E2,0E0,0E0,1.3761719E1,0E0,0E0,0E0,0E0,0E0,0E0,0E0,0E0],"parents":[2147483647,0,0,1,1,2,2,3,3,4,4,5,5,6,6,8,8,10,10,11,11,14,14],"right_children":[2,4,6,8,10,12,14,-1,16,-1,18,20,-1,-1,22,-1,-1,-1,-1,-1,-1,-1,-1],"split_conditions":[1E0,1E0,1E0,1.3029276E14,1.3029276E14,1.3029309E14,1.3029276E14,-8.198688E-2,1.3029309E14,-7.8336475E-4,1.3029309E14,1.3029276E14,4.6346616E-2,1.5190691E-1,1.3029309E14,-1.6470979E-1,-1.6245376E-1,-1.3213308E-1,-2.9909564E-2,1.3240133E-3,-1.4281271E-1,1.6606118E-1,1.5547019E-1],"split_indices":[3,2,2,0,0,0,0,0,0,0,0,0,0,0,0,0,0,0,0,0,0,0,0],"split_type":[0,0,0,0,0,0,0,0,0,0,0,0,0,0,0,0,0,0,0,0,0,0,0],"sum_hessian":[6.2143315E6,1.2963352E6,4.917996E6,8.72103E5,4.2423225E5,4.2389325E5,4.494103E6,8.325832E5,3.951978E4,4.226484E5,1.5838586E3,4.2238644E5,1.5068182E3,4.4751335E6,1.896924E4,7.4649775E3,3.2054805E4,7.745857E1,1.5064E3,4.2231E5,7.644573E1,1.5741047E3,1.7395135E4],"tree_param":{"num_deleted":"0","num_feature":"4","num_nodes":"23","size_leaf_vector":"0"}},{"base_weights":[9.042438E-1,-5.253509E-1,1.289341E0,-7.7960795E-1,-8.201273E-3,1.3120253E-2,1.4135828E0,-7.452595E-2,-1.522793E0,-7.0503907E-4,-3.1584215E-1,1.1677546E-2,4.184878E-2,1.4133963E-1,1.4576025E0,-1.5411358E-1,-1.5184759E-1,-1.22105695E-1,-2.6956609E-2,1.1915987E-3,-1.325152E-1,1.5547858E-1,1.4487557E-1],"categories":[],"categories_nodes":[],"categories_segments":[],"categories_sizes":[],"default_left":[0,0,0,0,0,0,0,0,0,0,0,0,0,0,0,0,0,0,0,0,0,0,0],"id":3,"left_children":[1,3,5,7,9,11,13,-1,15,-1,17,19,-1,-1,21,-1,-1,-1,-1,-1,-1,-1,-1],"loss_changes":[3.339071E6,1.6923844E5,7.576105E5,2.20255E4,1.5019974E2,2.478952E2,3.3E1,0E0,6.875E-1,0E0,6.590283E1,1.3465251E2,0E0,0E0,1.3519531E1,0E0,0E0,0E0,0E0,0E0,0E0,0E0,0E0],"parents":[2147483647,0,0,1,1,2,2,3,3,4,4,5,5,6,6,8,8,10,10,11,11,14,14],"right_children":[2,4,6,8,10,12,14,-1,16,-1,18,20,-1,-1,22,-1,-1,-1,-1,-1,-1,-1,-1],"split_conditions":[1E0,1E0,1E0,1.3029276E14,1.3029276E14,1.3029309E14,1.3029276E14,-7.452595E-2,1.3029309E14,-7.0503907E-4,1.3029309E14,1.3029276E14,4.184878E-2,1.4133963E-1,1.3029309E14,-1.5411358E-1,-1.5184759E-1,-1.22105695E-1,-2.6956609E-2,1.1915987E-3,-1.325152E-1,1.5547858E-1,1.4487557E-1],"split_indices":[3,2,2,0,0,0,0,0,0,0,0,0,0,0,0,0,0,0,0,0,0,0,0],"split_type":[0,0,0,0,0,0,0,0,0,0,0,0,0,0,0,0,0,0,0,0,0,0,0],"sum_hessian":[6.0651585E6,1.2870919E6,4.7780665E6,8.628638E5,4.242281E5,4.238855E5,4.354181E6,8.247477E5,3.811609E4,4.22648E5,1.580101E3,4.2238328E5,1.5022373E3,4.3358355E6,1.834546E4,7.1942E3,3.0921889E4,7.561406E1,1.5044869E3,4.2230894E5,7.433301E1,1.516125E3,1.6829336E4],"tree_param":{"num_deleted":"0","num_feature":"4","num_nodes":"23","size_leaf_vector":"0"}},{"base_weights":[8.403428E-1,-4.772821E-1,1.2049905E0,-7.1130943E-1,-7.3818173E-3,1.1808369E-2,1.3257867E0,-6.788763E-2,-1.436988E0,-6.345214E-4,-2.8526667E-1,1.0509407E-2,3.7812352E-2,1.325598E-1,1.370417E0,-1.4558479E-1,-1.4325565E-1,-1.13500275E-1,-2.4301775E-2,1.0724639E-3,-1.23814665E-1,1.4699526E-1,1.361411E-1],"categories":[],"categories_nodes":[],"categories_segments":[],"categories_sizes":[],"default_left":[0,0,0,0,0,0,0,0,0,0,0,0,0,0,0,0,0,0,0,0,0,0,0],"id":4,"left_children":[1,3,5,7,9,11,13,-1,15,-1,17,19,-1,-1,21,-1,-1,-1,-1,-1,-1,-1,-1],"loss_changes":[2.8284198E6,1.4032278E5,6.64559E5,2.0046844E4,1.2219862E2,2.016894E2,3.4E1,0E0,9.609375E-1,0E0,5.6324524E1,1.13528046E2,0E0,0E0,1.3777344E1,0E0,0E0,0E0,0E0,0E0,0E0,0E0,0E0],"parents":[2147483647,0,0,1,1,2,2,3,3,4,4,5,5,6,6,8,8,10,10,11,11,14,14],"right_children":[2,4,6,8,10,12,14,-1,16,-1,18,20,-1,-1,22,-1,-1,-1,-1,-1,-1,-1,-1],"split_conditions":[1E0,1E0,1E0,1.3029276E14,1.3029276E14,1.3029309E14,1.3029276E14,-6.788763E-2,1.3029309E14,-6.345214E-4,1.3029309E14,1.3029276E14,3.7812352E-2,1.325598E-1,1.3029309E14,-1.4558479E-1,-1.4325565E-1,-1.13500275E-1,-2.4301775E-2,1.0724639E-3,-1.23814665E-1,1.4699526E-1,1.361411E-1],"split_indices":[3,2,2,0,0,0,0,0,0,0,0,0,0,0,0,0,0,0,0,0,0,0,0],"split_type":[0,0,0,0,0,0,0,0,0,0,0,0,0,0,0,0,0,0,0,0,0,0,0],"sum_hessian":[5.8867875E6,1.276014E6,4.6107735E6,8.517908E5,4.242232E5,4.238762E5,4.1868975E6,8.1535175E5,3.643907E4,4.226476E5,1.5755935E3,4.2237947E5,1.4967394E3,4.1692975E6,1.7599902E4,6.870732E3,2.9568338E4,7.340296E1,1.5021906E3,4.2230766E5,7.1801956E1,1.4468661E3,1.6153037E4],"tree_param":{"num_deleted":"0","num_feature":"4","num_nodes":"23","size_leaf_vector":"0"}},{"base_weights":[7.844098E-1,-4.3407673E-1,1.1322831E0,-6.5004414E-1,-6.6445246E-3,1.0627264E-2,1.2510567E0,-6.1927445E-2,-1.3659941E0,-5.710789E-4,-2.577448E-1,9.457679E-3,3.417942E-2,1.2508632E-1,1.296955E0,-1.3857037E-1,-1.3613719E-1,-1.05956614E-1,-2.191213E-2,9.652019E-4,-1.16291486E-1,1.4005148E-1,1.2876527E-1],"categories":[],"categories_nodes":[],"categories_segments":[],"categories_sizes":[],"default_left":[0,0,0,0,0,0,0,0,0,0,0,0,0,0,0,0,0,0,0,0,0,0,0],"id":5,"left_children":[1,3,5,7,9,11,13,-1,15,-1,17,19,-1,-1,21,-1,-1,-1,-1,-1,-1,-1,-1],"loss_changes":[2.4120895E6,1.1666397E5,5.897395E5,1.8495E4,9.946137E1,1.6417218E2,3.45E1,0E0,1.2695312E0,0E0,4.843962E1,9.624465E1,0E0,0E0,1.4365234E1,0E0,0E0,0E0,0E0,0E0,0E0,0E0,0E0],"parents":[2147483647,0,0,1,1,2,2,3,3,4,4,5,5,6,6,8,8,10,10,11,11,14,14],"right_children":[2,4,6,8,10,12,14,-1,16,-1,18,20,-1,-1,22,-1,-1,-1,-1,-1,-1,-1,-1],"split_conditions":[1E0,1E0,1E0,1.3029276E14,1.3029276E14,1.3029309E14,1.3029276E14,-6.1927445E-2,1.3029309E14,-5.710789E-4,1.3029309E14,1.3029276E14,3.417942E-2,1.2508632E-1,1.3029309E14,-1.3857037E-1,-1.3613719E-1,-1.05956614E-1,-2.191213E-2,9.652019E-4,-1.16291486E-1,1.4005148E-1,1.2876527E-1],"split_indices":[3,2,2,0,0,0,0,0,0,0,0,0,0,0,0,0,0,0,0,0,0,0,0],"split_type":[0,0,0,0,0,0,0,0,0,0,0,0,0,0,0,0,0,0,0,0,0,0,0],"sum_hessian":[5.6905135E6,1.2638076E6,4.426706E6,8.3958994E5,4.2421772E5,4.2386597E5,4.00284E6,8.049951E5,3.4594816E4,4.226471E5,1.5706228E3,4.2237528E5,1.4906769E3,3.9860602E6,1.677975E4,6.515038E3,2.807978E4,7.0964775E1,1.4996581E3,4.2230628E5,6.901219E1,1.3707086E3,1.5409041E4],"tree_param":{"num_deleted":"0","num_feature":"4","num_nodes":"23","size_leaf_vector":"0"}},{"base_weights":[7.3453283E-1,-3.9503497E-1,1.068299E0,-5.946509E-1,-5.980663E-3,9.564516E-3,1.1860833E0,-5.653867E-2,-1.3061175E0,-5.139544E-4,-2.3292772E-1,8.511403E-3,3.090266E-2,1.1858829E-1,1.2337445E0,-1.3269533E-1,-1.301242E-1,-9.922347E-2,-1.9759243E-2,8.686922E-4,-1.0965456E-1,1.3426849E-1,1.2240403E-1],"categories":[],"categories_nodes":[],"categories_segments":[],"categories_sizes":[],"default_left":[0,0,0,0,0,0,0,0,0,0,0,0,0,0,0,0,0,0,0,0,0,0,0],"id":6,"left_children":[1,3,5,7,9,11,13,-1,15,-1,17,19,-1,-1,21,-1,-1,-1,-1,-1,-1,-1,-1],"loss_changes":[2.0678322E6,9.715503E4,5.279635E5,1.7213562E4,8.097667E1,1.3366791E2,3.5E1,0E0,1.59375E0,0E0,4.1831154E1,8.193232E1,0E0,0E0,1.51875E1,0E0,0E0,0E0,0E0,0E0,0E0,0E0,0E0],"parents":[2147483647,0,0,1,1,2,2,3,3,4,4,5,5,6,6,8,8,10,10,11,11,14,14],"right_children":[2,4,6,8,10,12,14,-1,16,-1,18,20,-1,-1,22,-1,-1,-1,-1,-1,-1,-1,-1],"split_conditions":[1E0,1E0,1E0,1.3029276E14,1.3029276E14,1.3029309E14,1.3029276E14,-5.653867E-2,1.3029309E14,-5.139544E-4,1.3029309E14,1.3029276E14,3.090266E-2,1.1858829E-1,1.3029309E14,-1.3269533E-1,-1.301242E-1,-9.922347E-2,-1.9759243E-2,8.686922E-4,-1.0965456E-1,1.3426849E-1,1.2240403E-1],"split_indices":[3,2,2,0,0,0,0,0,0,0,0,0,0,0,0,0,0,0,0,0,0,0,0],"split_type":[0,0,0,0,0,0,0,0,0,0,0,0,0,0,0,0,0,0,0,0,0,0,0],"sum_hessian":[5.484796E6,1.2510061E6,4.23379E6,8.2679406E5,4.24212E5,4.2385522E5,3.8099345E6,7.941315E5,3.2662594E4,4.226466E5,1.5654059E3,4.223709E5,1.4843169E3,3.7940142E6,1.5920274E4,6.142399E3,2.6520195E4,6.8404625E1,1.4970012E3,4.223048E5,6.608375E1,1.2909243E3,1.4629351E4],"tree_param":{"num_deleted":"0","num_feature":"4","num_nodes":"23","size_leaf_vector":"0"}},{"base_weights":[6.893507E-1,-3.5961542E-1,1.0109591E0,-5.442638E-1,-5.383416E-3,8.608073E-3,1.1285108E0,-5.164078E-2,-1.2547504E0,-4.6256962E-4,-2.1052177E-1,7.6598236E-3,2.7942548E-2,1.1283024E-1,1.1783202E0,-1.2769549E-1,-1.2495668E-1,-9.312126E-2,-1.7818492E-2,7.81838E-4,-1.03696E-1,1.2937997E-1,1.1681302E-1],"categories":[],"categories_nodes":[],"categories_segments":[],"categories_sizes":[],"default_left":[0,0,0,0,0,0,0,0,0,0,0,0,0,0,0,0,0,0,0,0,0,0,0],"id":7,"left_children":[1,3,5,7,9,11,13,-1,15,-1,17,19,-1,-1,21,-1,-1,-1,-1,-1,-1,-1,-1],"loss_changes":[1.7798675E6,8.097614E4,4.75781E5,1.61055625E4,6.593666E1,1.0884236E2,3.6E1,0E0,1.9375E0,0E0,3.621546E1,6.9965225E1,0E0,0E0,1.6197266E1,0E0,0E0,0E0,0E0,0E0,0E0,0E0,0E0],"parents":[2147483647,0,0,1,1,2,2,3,3,4,4,5,5,6,6,8,8,10,10,11,11,14,14],"right_children":[2,4,6,8,10,12,14,-1,16,-1,18,20,-1,-1,22,-1,-1,-1,-1,-1,-1,-1,-1],"split_conditions":[1E0,1E0,1E0,1.3029276E14,1.3029276E14,1.3029309E14,1.3029276E14,-5.164078E-2,1.3029309E14,-4.6256962E-4,1.3029309E14,1.3029276E14,2.7942548E-2,1.1283024E-1,1.3029309E14,-1.2769549E-1,-1.2495668E-1,-9.312126E-2,-1.7818492E-2,7.81838E-4,-1.03696E-1,1.2937997E-1,1.1681302E-1],"split_indices":[3,2,2,0,0,0,0,0,0,0,0,0,0,0,0,0,0,0,0,0,0,0,0],"split_type":[0,0,0,0,0,0,0,0,0,0,0,0,0,0,0,0,0,0,0,0,0,0,0],"sum_hessian":[5.2759255E6,1.2380079E6,4.0379178E6,8.1380175E5,4.2420612E5,4.2384428E5,3.6140732E6,7.831005E5,3.0701238E4,4.2264603E5,1.5601053E3,4.2236644E5,1.47786E3,3.5990258E6,1.5047711E4,5.764161E3,2.4937078E4,6.5801094E1,1.4943042E3,4.223033E5,6.310623E1,1.2099413E3,1.383777E4],"tree_param":{"num_deleted":"0","num_feature":"4","num_nodes":"23","size_leaf_vector":"0"}},{"base_weights":[6.478764E-1,-3.273898E-1,9.5874655E-1,-4.98225E-1,-4.845833E-3,7.7469475E-3,1.076616E0,-4.7171824E-2,-1.2099912E0,-4.163227E-4,-1.9027372E-1,6.8931202E-3,2.5265595E-2,1.0763981E-1,1.128877E0,-1.2337883E-1,-1.20445035E-1,-8.751928E-2,-1.606813E-2,7.0363795E-4,-9.826376E-2,1.2519285E-1,1.1181327E-1],"categories":[],"categories_nodes":[],"categories_segments":[],"categories_sizes":[],"default_left":[0,0,0,0,0,0,0,0,0,0,0,0,0,0,0,0,0,0,0,0,0,0,0],"id":8,"left_children":[1,3,5,7,9,11,13,-1,15,-1,17,19,-1,-1,21,-1,-1,-1,-1,-1,-1,-1,-1],"loss_changes":[1.5366835E6,6.750575E4,4.3082425E5,1.5109859E4,5.369217E1,8.862627E1,3.75E1,0E0,2.3085938E0,0E0,3.1393791E1,5.988084E1,0E0,0E0,1.7351562E1,0E0,0E0,0E0,0E0,0E0,0E0,0E0,0E0],"parents":[2147483647,0,0,1,1,2,2,3,3,4,4,5,5,6,6,8,8,10,10,11,11,14,14],"right_children":[2,4,6,8,10,12,14,-1,16,-1,18,20,-1,-1,22,-1,-1,-1,-1,-1,-1,-1,-1],"split_conditions":[1E0,1E0,1E0,1.3029276E14,1.3029276E14,1.3029309E14,1.3029276E14,-4.7171824E-2,1.3029309E14,-4.163227E-4,1.3029309E14,1.3029276E14,2.5265595E-2,1.0763981E-1,1.3029309E14,-1.2337883E-1,-1.20445035E-1,-8.751928E-2,-1.606813E-2,7.0363795E-4,-9.826376E-2,1.2519285E-1,1.1181327E-1],"split_indices":[3,2,2,0,0,0,0,0,0,0,0,0,0,0,0,0,0,0,0,0,0,0,0],"split_type":[0,0,0,0,0,0,0,0,0,0,0,0,0,0,0,0,0,0,0,0,0,0,0],"sum_hessian":[5.06853E6,1.2251072E6,3.843423E6,8.009069E5,4.242004E5,4.2383344E5,3.4195895E6,7.7215294E5,2.8753973E4,4.2264556E5,1.5548412E3,4.2236197E5,1.4714541E3,3.4054082E6,1.4181318E4,5.3886514E3,2.336532E4,6.321227E1,1.4916289E3,4.2230184E5,6.0145832E1,1.1295425E3,1.3051775E4],"tree_param":{"num_deleted":"0","num_feature":"4","num_nodes":"23","size_leaf_vector":"0"}},{"base_weights":[6.093846E-1,-2.980112E-1,9.1053474E-1,-4.5602313E-1,-4.3619024E-3,6.9721546E-3,1.0291094E0,-4.3082975E-2,-1.170416E0,-3.7469502E-4,-1.7196535E-1,6.203355E-3,2.2842968E-2,1.0288812E-1,1.0840616E0,-1.1960181E-1,-1.1644719E-1,-8.232119E-2,-1.4489116E-2,6.332814E-4,-9.324496E-2,1.2156321E-1,1.0727065E-1],"categories":[],"categories_nodes":[],"categories_segments":[],"categories_sizes":[],"default_left":[0,0,0,0,0,0,0,0,0,0,0,0,0,0,0,0,0,0,0,0,0,0,0],"id":9,"left_children":[1,3,5,7,9,11,13,-1,15,-1,17,19,-1,-1,21,-1,-1,-1,-1,-1,-1,-1,-1],"loss_changes":[1.3296822E6,5.6260945E4,3.91428E5,1.4187734E4,4.37204E1,7.2157364E1,3.925E1,0E0,2.6953125E0,0E0,2.7222641E1,5.1329838E1,0E0,0E0,1.8620117E1,0E0,0E0,0E0,0E0,0E0,0E0,0E0,0E0],"parents":[2147483647,0,0,1,1,2,2,3,3,4,4,5,5,6,6,8,8,10,10,11,11,14,14],"right_children":[2,4,6,8,10,12,14,-1,16,-1,18,20,-1,-1,22,-1,-1,-1,-1,-1,-1,-1,-1],"split_conditions":[1E0,1E0,1E0,1.3029276E14,1.3029276E14,1.3029309E14,1.3029276E14,-4.3082975E-2,1.3029309E14,-3.7469502E-4,1.3029309E14,1.3029276E14,2.2842968E-2,1.0288812E-1,1.3029309E14,-1.1960181E-1,-1.1644719E-1,-8.232119E-2,-1.4489116E-2,6.332814E-4,-9.324496E-2,1.2156321E-1,1.0727065E-1],"split_indices":[3,2,2,0,0,0,0,0,0,0,0,0,0,0,0,0,0,0,0,0,0,0,0],"split_type":[0,0,0,0,0,0,0,0,0,0,0,0,0,0,0,0,0,0,0,0,0,0,0],"sum_hessian":[4.865954E6,1.2125171E6,3.653437E6,7.883224E5,4.2419475E5,4.2382284E5,3.229614E6,7.614704E5,2.6852E4,4.2264503E5,1.5497003E3,4.2235766E5,1.465206E3,3.216279E6,1.3335026E4,5.021884E3,2.1830115E4,6.0680378E1,1.4890199E3,4.223004E5,5.7250572E1,1.0510143E3,1.2284012E4],"tree_param":{"num_deleted":"0","num_feature":"4","num_nodes":"23","size_leaf_vector":"0"}},{"base_weights":[5.7333916E-1,-2.7119356E-1,8.654767E-1,-4.172541E-1,-3.926109E-3,6.274805E-3,9.8500997E-1,-3.933511E-2,-1.1349331E0,-3.372098E-4,-1.5540418E-1,5.5825724E-3,2.064959E-2,9.84771E-2,1.0428374E0,-1.1625471E-1,-1.1285416E-1,-7.7455536E-2,-1.3064398E-2,5.6995783E-4,-8.855469E-2,1.18381344E-1,1.0308253E-1],"categories":[],"categories_nodes":[],"categories_segments":[],"categories_sizes":[],"default_left":[0,0,0,0,0,0,0,0,0,0,0,0,0,0,0,0,0,0,0,0,0,0,0],"id":10,"left_children":[1,3,5,7,9,11,13,-1,15,-1,17,19,-1,-1,21,-1,-1,-1,-1,-1,-1,-1,-1],"loss_changes":[1.1523182E6,4.6859812E4,3.563975E5,1.3314984E4,3.559774E1,5.8739212E1,4.125E1,0E0,3.1054688E0,0E0,2.3595543E1,4.4042774E1,0E0,0E0,1.9981445E1,0E0,0E0,0E0,0E0,0E0,0E0,0E0,0E0],"parents":[2147483647,0,0,1,1,2,2,3,3,4,4,5,5,6,6,8,8,10,10,11,11,14,14],"right_children":[2,4,6,8,10,12,14,-1,16,-1,18,20,-1,-1,22,-1,-1,-1,-1,-1,-1,-1,-1],"split_conditions":[1E0,1E0,1E0,1.3029276E14,1.3029276E14,1.3029309E14,1.3029276E14,-3.933511E-2,1.3029309E14,-3.372098E-4,1.3029309E14,1.3029276E14,2.064959E-2,9.84771E-2,1.3029309E14,-1.1625471E-1,-1.1285416E-1,-7.7455536E-2,-1.3064398E-2,5.6995783E-4,-8.855469E-2,1.18381344E-1,1.0308253E-1],"split_indices":[3,2,2,0,0,0,0,0,0,0,0,0,0,0,0,0,0,0,0,0,0,0,0],"split_type":[0,0,0,0,0,0,0,0,0,0,0,0,0,0,0,0,0,0,0,0,0,0,0],"sum_hessian":[4.670554E6,1.200387E6,3.470167E6,7.7619775E5,4.2418928E5,4.238127E5,3.0463542E6,7.511805E5,2.5017258E4,4.2264453E5,1.5447443E3,4.223535E5,1.4591913E3,3.0338355E6,1.2518633E4,4.668085E3,2.0349172E4,5.8235313E1,1.4865089E3,4.2229903E5,5.4454445E1,9.752626E2,1.154337E4],"tree_param":{"num_deleted":"0","num_feature":"4","num_nodes":"23","size_leaf_vector":"0"}},{"base_weights":[5.393424E-1,-2.46695E-1,8.2293135E-1,-3.8158935E-1,-3.534087E-3,5.6472756E-3,9.4356203E-1,-3.5895944E-2,-1.1026877E0,-3.034975E-4,-1.4042035E-1,5.023996E-3,1.8663323E-2,9.43312E-2,1.0043979E0,-1.1325177E-1,-1.09580636E-1,-7.2869234E-2,-1.17788045E-2,5.129759E-4,-8.412873E-2,1.15561746E-1,9.91692E-2],"categories":[],"categories_nodes":[],"categories_segments":[],"categories_sizes":[],"default_left":[0,0,0,0,0,0,0,0,0,0,0,0,0,0,0,0,0,0,0,0,0,0,0],"id":11,"left_children":[1,3,5,7,9,11,13,-1,15,-1,17,19,-1,-1,21,-1,-1,-1,-1,-1,-1,-1,-1],"loss_changes":[9.995191E5,3.89945E4,3.2486275E5,1.2477227E4,2.8980564E1,4.7806213E1,4.3E1,0E0,3.53125E0,0E0,2.0431143E1,3.7808426E1,0E0,0E0,2.1410156E1,0E0,0E0,0E0,0E0,0E0,0E0,0E0,0E0],"parents":[2147483647,0,0,1,1,2,2,3,3,4,4,5,5,6,6,8,8,10,10,11,11,14,14],"right_children":[2,4,6,8,10,12,14,-1,16,-1,18,20,-1,-1,22,-1,-1,-1,-1,-1,-1,-1,-1],"split_conditions":[1E0,1E0,1E0,1.3029276E14,1.3029276E14,1.3029309E14,1.3029276E14,-3.5895944E-2,1.3029309E14,-3.034975E-4,1.3029309E14,1.3029276E14,1.8663323E-2,9.43312E-2,1.3029309E14,-1.1325177E-1,-1.09580636E-1,-7.2869234E-2,-1.17788045E-2,5.129759E-4,-8.412873E-2,1.15561746E-1,9.91692E-2],"split_indices":[3,2,2,0,0,0,0,0,0,0,0,0,0,0,0,0,0,0,0,0,0,0,0],"split_type":[0,0,0,0,0,0,0,0,0,0,0,0,0,0,0,0,0,0,0,0,0,0,0],"sum_hessian":[4.4839245E6,1.1888184E6,3.2951058E6,7.646344E5,4.241841E5,4.2380294E5,2.871303E6,7.4136975E5,2.3264592E4,4.2264406E5,1.5400143E3,4.223495E5,1.4534602E3,2.8595642E6,1.17387705E4,4.3301157E3,1.8934477E4,5.5897465E1,1.4841168E3,4.2229772E5,5.1780598E1,9.028983E2,1.0835872E4],"tree_param":{"num_deleted":"0","num_feature":"4","num_nodes":"23","size_leaf_vector":"0"}},{"base_weights":[5.071005E-1,-2.2430737E-1,7.824125E-1,-3.4875694E-1,-3.181006E-3,5.082254E-3,9.041788E-1,-3.2738376E-2,-1.072998E0,-2.7313494E-4,-1.2686291E-1,4.5210687E-3,1.68645E-2,9.039175E-2,9.6810734E-1,-1.1052469E-1,-1.0655858E-1,-6.852289E-2,-1.0618776E-2,4.616681E-4,-7.991856E-2,1.1303665E-1,9.546803E-2],"categories":[],"categories_nodes":[],"categories_segments":[],"categories_sizes":[],"default_left":[0,0,0,0,0,0,0,0,0,0,0,0,0,0,0,0,0,0,0,0,0,0,0],"id":12,"left_children":[1,3,5,7,9,11,13,-1,15,-1,17,19,-1,-1,21,-1,-1,-1,-1,-1,-1,-1,-1],"loss_changes":[8.672966E5,3.2414059E4,2.9618725E5,1.1666359E4,2.3590172E1,3.8898922E1,4.45E1,0E0,3.9863281E0,0E0,1.7665476E1,3.2458607E1,0E0,0E0,2.2888672E1,0E0,0E0,0E0,0E0,0E0,0E0,0E0,0E0],"parents":[2147483647,0,0,1,1,2,2,3,3,4,4,5,5,6,6,8,8,10,10,11,11,14,14],"right_children":[2,4,6,8,10,12,14,-1,16,-1,18,20,-1,-1,22,-1,-1,-1,-1,-1,-1,-1,-1],"split_conditions":[1E0,1E0,1E0,1.3029276E14,1.3029276E14,1.3029309E14,1.3029276E14,-3.2738376E-2,1.3029309E14,-2.7313494E-4,1.3029309E14,1.3029276E14,1.68645E-2,9.039175E-2,1.3029309E14,-1.1052469E-1,-1.0655858E-1,-6.852289E-2,-1.0618776E-2,4.616681E-4,-7.991856E-2,1.1303665E-1,9.546803E-2],"split_indices":[3,2,2,0,0,0,0,0,0,0,0,0,0,0,0,0,0,0,0,0,0,0,0],"split_type":[0,0,0,0,0,0,0,0,0,0,0,0,0,0,0,0,0,0,0,0,0,0,0],"sum_hessian":[4.3070775E6,1.1778749E6,3.1292025E6,7.536956E5,4.2417922E5,4.2379375E5,2.7054088E6,7.320922E5,2.1603404E4,4.226437E5,1.5355365E3,4.2234572E5,1.4480441E3,2.694409E6,1.0999647E4,4.0097847E3,1.7593621E4,5.3679928E1,1.4818566E3,4.2229647E5,4.92439E1,8.343093E2,1.0165338E4],"tree_param":{"num_deleted":"0","num_feature":"4","num_nodes":"23","size_leaf_vector":"0"}},{"base_weights":[4.7639894E-1,-2.0384914E-1,7.435547E-1,-3.185262E-1,-2.8635794E-3,4.573923E-3,8.6640435E-1,-2.9839143E-2,-1.0453119E0,-2.4584788E-4,-1.1459609E-1,4.068655E-3,1.52356345E-2,8.6613186E-2,9.3346155E-1,-1.08018175E-1,-1.0373288E-1,-6.438759E-2,-9.572065E-3,4.1550995E-4,-7.588773E-2,1.10751346E-1,9.1929495E-2],"categories":[],"categories_nodes":[],"categories_segments":[],"categories_sizes":[],"default_left":[0,0,0,0,0,0,0,0,0,0,0,0,0,0,0,0,0,0,0,0,0,0,0],"id":13,"left_children":[1,3,5,7,9,11,13,-1,15,-1,17,19,-1,-1,21,-1,-1,-1,-1,-1,-1,-1,-1],"loss_changes":[7.5247725E5,2.6911168E4,2.6989875E5,1.0878633E4,1.9199139E1,3.1643383E1,4.5625E1,0E0,4.4570312E0,0E0,1.5246897E1,2.7857618E1,0E0,0E0,2.4389648E1,0E0,0E0,0E0,0E0,0E0,0E0,0E0,0E0],"parents":[2147483647,0,0,1,1,2,2,3,3,4,4,5,5,6,6,8,8,10,10,11,11,14,14],"right_children":[2,4,6,8,10,12,14,-1,16,-1,18,20,-1,-1,22,-1,-1,-1,-1,-1,-1,-1,-1],"split_conditions":[1E0,1E0,1E0,1.3029276E14,1.3029276E14,1.3029309E14,1.3029276E14,-2.9839143E-2,1.3029309E14,-2.4584788E-4,1.3029309E14,1.3029276E14,1.52356345E-2,8.6613186E-2,1.3029309E14,-1.08018175E-1,-1.0373288E-1,-6.438759E-2,-9.572065E-3,4.1550995E-4,-7.588773E-2,1.10751346E-1,9.1929495E-2],"split_indices":[3,2,2,0,0,0,0,0,0,0,0,0,0,0,0,0,0,0,0,0,0,0,0],"split_type":[0,0,0,0,0,0,0,0,0,0,0,0,0,0,0,0,0,0,0,0,0,0,0],"sum_hessian":[4.1405815E6,1.1675912E6,2.9729905E6,7.434167E5,4.2417456E5,4.2378512E5,2.5492052E6,7.233777E5,2.003896E4,4.2264322E5,1.5313257E3,4.2234216E5,1.4429603E3,2.5389018E6,1.0303633E4,3.7081052E3,1.6330856E4,5.1590202E1,1.4797355E3,4.222953E5,4.6852818E1,7.6971265E2,9.53392E3],"tree_param":{"num_deleted":"0","num_feature":"4","num_nodes":"23","size_leaf_vector":"0"}},{"base_weights":[4.4708288E-1,-1.85158E-1,7.060866E-1,-2.9069638E-1,-2.5772133E-3,4.116282E-3,8.2988584E-1,-2.7177772E-2,-1.0191752E0,-2.2122516E-4,-1.0349816E-1,3.661369E-3,1.3760827E-2,8.296025E-2,9.000575E-1,-1.05686665E-1,-1.0105826E-1,-6.0442355E-2,-8.627684E-3,3.739531E-4,-7.2009176E-2,1.086609E-1,8.851429E-2],"categories":[],"categories_nodes":[],"categories_segments":[],"categories_sizes":[],"default_left":[0,0,0,0,0,0,0,0,0,0,0,0,0,0,0,0,0,0,0,0,0,0,0],"id":14,"left_children":[1,3,5,7,9,11,13,-1,15,-1,17,19,-1,-1,21,-1,-1,-1,-1,-1,-1,-1,-1],"loss_changes":[6.525011E5,2.2313488E4,2.4564888E5,1.0113004E4,1.56229725E1,2.5734348E1,4.7E1,0E0,4.9453125E0,0E0,1.3132633E1,2.3894476E1,0E0,0E0,2.5895508E1,0E0,0E0,0E0,0E0,0E0,0E0,0E0,0E0],"parents":[2147483647,0,0,1,1,2,2,3,3,4,4,5,5,6,6,8,8,10,10,11,11,14,14],"right_children":[2,4,6,8,10,12,14,-1,16,-1,18,20,-1,-1,22,-1,-1,-1,-1,-1,-1,-1,-1],"split_conditions":[1E0,1E0,1E0,1.3029276E14,1.3029276E14,1.3029309E14,1.3029276E14,-2.7177772E-2,1.3029309E14,-2.2122516E-4,1.3029309E14,1.3029276E14,1.3760827E-2,8.296025E-2,1.3029309E14,-1.05686665E-1,-1.0105826E-1,-6.0442355E-2,-8.627684E-3,3.739531E-4,-7.2009176E-2,1.086609E-1,8.851429E-2],"split_indices":[3,2,2,0,0,0,0,0,0,0,0,0,0,0,0,0,0,0,0,0,0,0,0],"split_type":[0,0,0,0,0,0,0,0,0,0,0,0,0,0,0,0,0,0,0,0,0,0,0],"sum_hessian":[3.984671E6,1.1579814E6,2.8266895E6,7.338111E5,4.2417028E5,4.2377703E5,2.4029125E6,7.152377E5,1.857341E4,4.2264288E5,1.5273875E3,4.223388E5,1.438215E3,2.3932608E6,9.651695E3,3.4254905E3,1.514792E4,4.9631557E1,1.4777559E3,4.2229422E5,4.4611042E1,7.091961E2,8.942499E3],"tree_param":{"num_deleted":"0","num_feature":"4","num_nodes":"23","size_leaf_vector":"0"}},{"base_weights":[4.190428E-1,-1.6808926E-1,6.698116E-1,-2.6509005E-1,-2.3200335E-3,3.704574E-3,7.9435325E-1,-2.4736056E-2,-9.942098E-1,-1.9912366E-4,-9.345902E-2,3.2950055E-3,1.2425885E-2,7.9405956E-2,8.675753E-1,-1.034922E-1,-9.849712E-2,-5.667221E-2,-7.7756965E-3,3.3656848E-4,-6.826334E-2,1.0672804E-1,8.519145E-2],"categories":[],"categories_nodes":[],"categories_segments":[],"categories_sizes":[],"default_left":[0,0,0,0,0,0,0,0,0,0,0,0,0,0,0,0,0,0,0,0,0,0,0],"id":15,"left_children":[1,3,5,7,9,11,13,-1,15,-1,17,19,-1,-1,21,-1,-1,-1,-1,-1,-1,-1,-1],"loss_changes":[5.6528156E5,1.8476332E4,2.2318112E5,9.3701875E3,1.27105E1,2.092335E1,4.8125E1,0E0,5.455078E0,0E0,1.1286444E1,2.047753E1,0E0,0E0,2.7378418E1,0E0,0E0,0E0,0E0,0E0,0E0,0E0,0E0],"parents":[2147483647,0,0,1,1,2,2,3,3,4,4,5,5,6,6,8,8,10,10,11,11,14,14],"right_children":[2,4,6,8,10,12,14,-1,16,-1,18,20,-1,-1,22,-1,-1,-1,-1,-1,-1,-1,-1],"split_conditions":[1E0,1E0,1E0,1.3029276E14,1.3029276E14,1.3029309E14,1.3029276E14,-2.4736056E-2,1.3029309E14,-1.9912366E-4,1.3029309E14,1.3029276E14,1.2425885E-2,7.9405956E-2,1.3029309E14,-1.034922E-1,-9.849712E-2,-5.667221E-2,-7.7756965E-3,3.3656848E-4,-6.826334E-2,1.0672804E-1,8.519145E-2],"split_indices":[3,2,2,0,0,0,0,0,0,0,0,0,0,0,0,0,0,0,0,0,0,0,0],"split_type":[0,0,0,0,0,0,0,0,0,0,0,0,0,0,0,0,0,0,0,0,0,0,0],"sum_hessian":[3.8393288E6,1.1490429E6,2.690286E6,7.248766E5,4.2416625E5,4.2376953E5,2.2665162E6,7.0767E5,1.720658E4,4.2264253E5,1.5237214E3,4.2233572E5,1.4338063E3,2.2574725E6,9.043773E3,3.1619053E3,1.4044674E4,4.780409E1,1.4759174E3,4.2229322E5,4.2518665E1,6.5275287E2,8.3910205E3],"tree_param":{"num_deleted":"0","num_feature":"4","num_nodes":"23","size_leaf_vector":"0"}},{"base_weights":[3.9220473E-1,-1.5251042E-1,6.345945E-1,-2.4154682E-1,-2.088193E-3,3.3338494E-3,7.5960624E-1,-2.2497451E-2,-9.7009873E-1,-1.7919774E-4,-8.437944E-2,2.9651138E-3,1.1217796E-2,7.593029E-2,8.3576196E-1,-1.0140262E-1,-9.601799E-2,-5.306676E-2,-7.0071677E-3,3.029031E-4,-6.463661E-2,1.04921214E-1,8.193675E-2],"categories":[],"categories_nodes":[],"categories_segments":[],"categories_sizes":[],"default_left":[0,0,0,0,0,0,0,0,0,0,0,0,0,0,0,0,0,0,0,0,0,0,0],"id":16,"left_children":[1,3,5,7,9,11,13,-1,15,-1,17,19,-1,-1,21,-1,-1,-1,-1,-1,-1,-1,-1],"loss_changes":[4.8909938E5,1.5278289E4,2.0230638E5,8.651859E3,1.033924E1,1.7007288E1,4.875E1,0E0,5.970703E0,0E0,9.67704E0,1.7530237E1,0E0,0E0,2.881543E1,0E0,0E0,0E0,0E0,0E0,0E0,0E0,0E0],"parents":[2147483647,0,0,1,1,2,2,3,3,4,4,5,5,6,6,8,8,10,10,11,11,14,14],"right_children":[2,4,6,8,10,12,14,-1,16,-1,18,20,-1,-1,22,-1,-1,-1,-1,-1,-1,-1,-1],"split_conditions":[1E0,1E0,1E0,1.3029276E14,1.3029276E14,1.3029309E14,1.3029276E14,-2.2497451E-2,1.3029309E14,-1.7919774E-4,1.3029309E14,1.3029276E14,1.1217796E-2,7.593029E-2,1.3029309E14,-1.0140262E-1,-9.601799E-2,-5.306676E-2,-7.0071677E-3,3.029031E-4,-6.463661E-2,1.04921214E-1,8.193675E-2],"split_indices":[3,2,2,0,0,0,0,0,0,0,0,0,0,0,0,0,0,0,0,0,0,0,0],"split_type":[0,0,0,0,0,0,0,0,0,0,0,0,0,0,0,0,0,0,0,0,0,0,0],"sum_hessian":[3.7043592E6,1.1407614E6,2.5635978E6,7.165989E5,4.2416256E5,4.2376256E5,2.1398352E6,7.0066225E5,1.5936598E4,4.2264222E5,1.5203217E3,4.2233284E5,1.4297266E3,2.1313562E6,8.479038E3,2.916988E3,1.3019609E4,4.6105576E1,1.4742161E3,4.2229228E5,4.0573128E1,6.003047E2,7.8787334E3],"tree_param":{"num_deleted":"0","num_feature":"4","num_nodes":"23","size_leaf_vector":"0"}},{"base_weights":[3.6651894E-1,-1.3830085E-1,6.0034746E-1,-2.1991988E-1,-1.8795469E-3,3.0003935E-3,7.255004E-1,-2.0446802E-2,-9.465734E-1,-1.6126854E-4,-7.6169334E-2,2.6684266E-3,1.0124883E-2,7.251883E-2,8.0442166E-1,-9.939044E-2,-9.3594305E-2,-4.961895E-2,-6.3140052E-3,2.7262323E-4,-6.112008E-2,1.03213444E-1,7.873171E-2],"categories":[],"categories_nodes":[],"categories_segments":[],"categories_sizes":[],"default_left":[0,0,0,0,0,0,0,0,0,0,0,0,0,0,0,0,0,0,0,0,0,0,0],"id":17,"left_children":[1,3,5,7,9,11,13,-1,15,-1,17,19,-1,-1,21,-1,-1,-1,-1,-1,-1,-1,-1],"loss_changes":[4.2252078E5,1.2616762E4,1.8288612E5,7.960078E3,8.408887E0,1.38206625E1,4.925E1,0E0,6.4960938E0,0E0,8.277003E0,1.4988138E1,0E0,0E0,3.0179688E1,0E0,0E0,0E0,0E0,0E0,0E0,0E0,0E0],"parents":[2147483647,0,0,1,1,2,2,3,3,4,4,5,5,6,6,8,8,10,10,11,11,14,14],"right_children":[2,4,6,8,10,12,14,-1,16,-1,18,20,-1,-1,22,-1,-1,-1,-1,-1,-1,-1,-1],"split_conditions":[1E0,1E0,1E0,1.3029276E14,1.3029276E14,1.3029309E14,1.3029276E14,-2.0446802E-2,1.3029309E14,-1.6126854E-4,1.3029309E14,1.3029276E14,1.0124883E-2,7.251883E-2,1.3029309E14,-9.939044E-2,-9.3594305E-2,-4.961895E-2,-6.3140052E-3,2.7262323E-4,-6.112008E-2,1.03213444E-1,7.873171E-2],"split_indices":[3,2,2,0,0,0,0,0,0,0,0,0,0,0,0,0,0,0,0,0,0,0,0],"split_type":[0,0,0,0,0,0,0,0,0,0,0,0,0,0,0,0,0,0,0,0,0,0,0],"sum_hessian":[3.579431E6,1.1331146E6,2.4463165E6,7.089555E5,4.241591E5,4.2375616E5,2.0225604E6,6.941951E5,1.4760378E4,4.2264194E5,1.5171796E3,4.223302E5,1.4259637E3,2.0146042E6,7.95612E3,2.6901428E3,1.2070235E4,4.4532112E1,1.4726475E3,4.222914E5,3.8769974E1,5.517243E2,7.404396E3],"tree_param":{"num_deleted":"0","num_feature":"4","num_nodes":"23","size_leaf_vector":"0"}},{"base_weights":[3.4195468E-1,-1.253493E-1,5.6702197E-1,-2.0007299E-1,-1.6919274E-3,2.7000534E-3,6.919403E-1,-1.8570054E-2,-9.234061E-1,-1.4515132E-4,-6.874708E-2,2.4011924E-3,9.136501E-3,6.916206E-2,7.7340794E-1,-9.743192E-2,-9.1203704E-2,-4.6324175E-2,-5.6889006E-3,2.453474E-4,-5.770856E-2,1.01581395E-1,7.556282E-2],"categories":[],"categories_nodes":[],"categories_segments":[],"categories_sizes":[],"default_left":[0,0,0,0,0,0,0,0,0,0,0,0,0,0,0,0,0,0,0,0,0,0,0],"id":18,"left_children":[1,3,5,7,9,11,13,-1,15,-1,17,19,-1,-1,21,-1,-1,-1,-1,-1,-1,-1,-1],"loss_changes":[3.6433906E5,1.040509E4,1.64819E5,7.297035E3,6.8377385E0,1.1228553E1,4.93125E1,0E0,7.0273438E0,0E0,7.062067E0,1.2796473E1,0E0,0E0,3.144629E1,0E0,0E0,0E0,0E0,0E0,0E0,0E0,0E0],"parents":[2147483647,0,0,1,1,2,2,3,3,4,4,5,5,6,6,8,8,10,10,11,11,14,14],"right_children":[2,4,6,8,10,12,14,-1,16,-1,18,20,-1,-1,22,-1,-1,-1,-1,-1,-1,-1,-1],"split_conditions":[1E0,1E0,1E0,1.3029276E14,1.3029276E14,1.3029309E14,1.3029276E14,-1.8570054E-2,1.3029309E14,-1.4515132E-4,1.3029309E14,1.3029276E14,9.136501E-3,6.916206E-2,1.3029309E14,-9.743192E-2,-9.1203704E-2,-4.6324175E-2,-5.6889006E-3,2.453474E-4,-5.770856E-2,1.01581395E-1,7.556282E-2],"split_indices":[3,2,2,0,0,0,0,0,0,0,0,0,0,0,0,0,0,0,0,0,0,0,0],"split_type":[0,0,0,0,0,0,0,0,0,0,0,0,0,0,0,0,0,0,0,0,0,0,0],"sum_hessian":[3.4641262E6,1.1260744E6,2.3380518E6,7.019184E5,4.2415594E5,4.2375025E5,1.9143016E6,6.8824444E5,1.3673996E4,4.2264166E5,1.514284E3,4.2232775E5,1.4225038E3,1.9068284E6,7.4732886E3,2.4806118E3,1.1193384E4,4.3078617E1,1.4712054E3,4.2229062E5,3.710344E1,5.0684985E2,6.9664385E3],"tree_param":{"num_deleted":"0","num_feature":"4","num_nodes":"23","size_leaf_vector":"0"}},{"base_weights":[3.184931E-1,-1.135531E-1,5.345993E-1,-1.8187925E-1,-1.5230209E-3,2.429897E-3,6.5887046E-1,-1.6854158E-2,-9.004035E-1,-1.3064338E-4,-6.2038735E-2,2.1608463E-3,8.242881E-3,6.5854445E-2,7.4261594E-1,-9.5506415E-2,-8.8827305E-2,-4.3179434E-2,-5.1252614E-3,2.2081337E-4,-5.4399736E-2,1.00004666E-1,7.242077E-2],"categories":[],"categories_nodes":[],"categories_segments":[],"categories_sizes":[],"default_left":[0,0,0,0,0,0,0,0,0,0,0,0,0,0,0,0,0,0,0,0,0,0,0],"id":19,"left_children":[1,3,5,7,9,11,13,-1,15,-1,17,19,-1,-1,21,-1,-1,-1,-1,-1,-1,-1,-1],"loss_changes":[3.1352612E5,8.5701455E3,1.4803E5,6.6647207E3,5.5592747E0,9.120428E0,4.9E1,0E0,7.5546875E0,0E0,6.0105505E0,1.0908426E1,0E0,0E0,3.2587646E1,0E0,0E0,0E0,0E0,0E0,0E0,0E0,0E0],"parents":[2147483647,0,0,1,1,2,2,3,3,4,4,5,5,6,6,8,8,10,10,11,11,14,14],"right_children":[2,4,6,8,10,12,14,-1,16,-1,18,20,-1,-1,22,-1,-1,-1,-1,-1,-1,-1,-1],"split_conditions":[1E0,1E0,1E0,1.3029276E14,1.3029276E14,1.3029309E14,1.3029276E14,-1.6854158E-2,1.3029309E14,-1.3064338E-4,1.3029309E14,1.3029276E14,8.242881E-3,6.5854445E-2,1.3029309E14,-9.5506415E-2,-8.8827305E-2,-4.3179434E-2,-5.1252614E-3,2.2081337E-4,-5.4399736E-2,1.00004666E-1,7.242077E-2],"split_indices":[3,2,2,0,0,0,0,0,0,0,0,0,0,0,0,0,0,0,0,0,0,0,0],"split_type":[0,0,0,0,0,0,0,0,0,0,0,0,0,0,0,0,0,0,0,0,0,0,0],"sum_hessian":[3.3579648E6,1.1196088E6,2.238356E6,6.954558E5,4.2415297E5,4.237448E5,1.8146112E6,6.827828E5,1.2672988E4,4.2264134E5,1.511622E3,4.2232547E5,1.41933E3,1.8075828E6,7.0285474E3,2.2875332E3,1.0385455E4,4.1739254E1,1.4698827E3,4.222899E5,3.5566868E1,4.6549667E2,6.563051E3],"tree_param":{"num_deleted":"0","num_feature":"4","num_nodes":"23","size_leaf_vector":"0"}},{"base_weights":[2.9612347E-1,-1.0281709E-1,5.0308454E-1,-1.6521919E-1,-1.3709596E-3,2.1867875E-3,6.2627023E-1,-1.5286882E-2,-8.7740266E-1,-1.1758389E-4,-5.597694E-2,1.9445783E-3,7.435199E-3,6.259393E-2,7.1197873E-1,-9.3595855E-2,-8.644938E-2,-4.0182766E-2,-4.617105E-3,1.9873508E-4,-5.1193397E-2,9.846514E-2,6.929996E-2],"categories":[],"categories_nodes":[],"categories_segments":[],"categories_sizes":[],"default_left":[0,0,0,0,0,0,0,0,0,0,0,0,0,0,0,0,0,0,0,0,0,0,0],"id":20,"left_children":[1,3,5,7,9,11,13,-1,15,-1,17,19,-1,-1,21,-1,-1,-1,-1,-1,-1,-1,-1],"loss_changes":[2.6919834E5,7.050126E3,1.3246194E5,6.0648223E3,4.519163E0,7.406461E0,4.84375E1,0E0,8.075195E0,0E0,5.1030335E0,9.283687E0,0E0,0E0,3.3580566E1,0E0,0E0,0E0,0E0,0E0,0E0,0E0,0E0],"parents":[2147483647,0,0,1,1,2,2,3,3,4,4,5,5,6,6,8,8,10,10,11,11,14,14],"right_children":[2,4,6,8,10,12,14,-1,16,-1,18,20,-1,-1,22,-1,-1,-1,-1,-1,-1,-1,-1],"split_conditions":[1E0,1E0,1E0,1.3029276E14,1.3029276E14,1.3029309E14,1.3029276E14,-1.5286882E-2,1.3029309E14,-1.1758389E-4,1.3029309E14,1.3029276E14,7.435199E-3,6.259393E-2,1.3029309E14,-9.3595855E-2,-8.644938E-2,-4.0182766E-2,-4.617105E-3,1.9873508E-4,-5.1193397E-2,9.846514E-2,6.929996E-2],"split_indices":[3,2,2,0,0,0,0,0,0,0,0,0,0,0,0,0,0,0,0,0,0,0,0],"split_type":[0,0,0,0,0,0,0,0,0,0,0,0,0,0,0,0,0,0,0,0,0,0,0],"sum_hessian":[3.2604335E6,1.113684E6,2.1467495E6,6.895337E5,4.2415028E5,4.237398E5,1.7230098E6,6.777811E5,1.1752556E4,4.2264112E5,1.5091799E3,4.2232338E5,1.4164248E3,1.71639E6,6.619767E3,2.1099827E3,9.642573E3,4.0507706E1,1.4686722E3,4.2228922E5,3.4153088E1,4.2746704E2,6.1923003E3],"tree_param":{"num_deleted":"0","num_feature":"4","num_nodes":"23","size_leaf_vector":"0"}},{"base_weights":[2.7483937E-1,-9.3053296E-2,4.7250015E-1,-1.4998063E-1,-1.2338402E-3,1.968094E-3,5.941478E-1,-1.3856809E-2,-8.542671E-1,-1.05805884E-4,-5.050051E-2,1.7500507E-3,6.705463E-3,5.9381347E-2,6.814619E-1,-9.168442E-2,-8.405695E-2,-3.7332736E-2,-4.159018E-3,1.788741E-4,-4.8090905E-2,9.6946664E-2,6.619807E-2],"categories":[],"categories_nodes":[],"categories_segments":[],"categories_sizes":[],"default_left":[0,0,0,0,0,0,0,0,0,0,0,0,0,0,0,0,0,0,0,0,0,0,0],"id":21,"left_children":[1,3,5,7,9,11,13,-1,15,-1,17,19,-1,-1,21,-1,-1,-1,-1,-1,-1,-1,-1],"loss_changes":[2.3058894E5,5.7929463E3,1.18069375E5,5.498617E3,3.6731462E0,6.0134087E0,4.74375E1,0E0,8.580078E0,0E0,4.3220663E0,7.887406E0,0E0,0E0,3.440088E1,0E0,0E0,0E0,0E0,0E0,0E0,0E0,0E0],"parents":[2147483647,0,0,1,1,2,2,3,3,4,4,5,5,6,6,8,8,10,10,11,11,14,14],"right_children":[2,4,6,8,10,12,14,-1,16,-1,18,20,-1,-1,22,-1,-1,-1,-1,-1,-1,-1,-1],"split_conditions":[1E0,1E0,1E0,1.3029276E14,1.3029276E14,1.3029309E14,1.3029276E14,-1.3856809E-2,1.3029309E14,-1.05805884E-4,1.3029309E14,1.3029276E14,6.705463E-3,5.9381347E-2,1.3029309E14,-9.168442E-2,-8.405695E-2,-3.7332736E-2,-4.159018E-3,1.788741E-4,-4.8090905E-2,9.6946664E-2,6.619807E-2],"split_indices":[3,2,2,0,0,0,0,0,0,0,0,0,0,0,0,0,0,0,0,0,0,0,0],"split_type":[0,0,0,0,0,0,0,0,0,0,0,0,0,0,0,0,0,0,0,0,0,0,0],"sum_hessian":[3.1710032E6,1.108265E6,2.0627382E6,6.841172E5,4.2414788E5,4.2373525E5,1.639003E6,6.7320944E5,1.0907759E4,4.226409E5,1.5069441E3,4.2232147E5,1.413771E3,1.6327582E6,6.244742E3,1.9470056E3,8.960753E3,3.9377426E1,1.4675667E3,4.2228862E5,3.2854664E1,3.925555E2,5.8521865E3],"tree_param":{"num_deleted":"0","num_feature":"4","num_nodes":"23","size_leaf_vector":"0"}},{"base_weights":[2.546345E-1,-8.418027E-2,4.4287905E-1,-7.730135E-2,-7.293526E-1,1.7709697E-3,5.625335E-1,-1.25531955E-2,-9.524381E-5,-8.308861E-1,-4.555374E-2,1.5746829E-3,6.0463366E-3,5.6219738E-2,6.510601E-1,-8.9758314E-2,-8.163971E-2,-3.4628067E-2,-3.746092E-3,1.6096816E-4,-4.5094613E-2,9.5434755E-2,6.311552E-2],"categories":[],"categories_nodes":[],"categories_segments":[],"categories_sizes":[],"default_left":[0,0,0,0,0,0,0,0,0,0,0,0,0,0,0,0,0,0,0,0,0,0,0],"id":22,"left_children":[1,3,5,7,9,11,13,-1,-1,15,17,19,-1,-1,21,-1,-1,-1,-1,-1,-1,-1,-1],"loss_changes":[1.9702548E5,4.8965693E3,1.0481278E5,4.0199517E3,8.0807666E2,4.88153E0,4.615625E1,0E0,0E0,9.061035E0,3.6519816E0,6.689307E0,0E0,0E0,3.5029053E1,0E0,0E0,0E0,0E0,0E0,0E0,0E0,0E0],"parents":[2147483647,0,0,1,1,2,2,3,3,4,4,5,5,6,6,9,9,10,10,11,11,14,14],"right_children":[2,4,6,8,10,12,14,-1,-1,16,18,20,-1,-1,22,-1,-1,-1,-1,-1,-1,-1,-1],"split_conditions":[1E0,1.3029276E14,1E0,1E0,1E0,1.3029309E14,1.3029276E14,-1.25531955E-2,-9.524381E-5,1.3029309E14,1.3029309E14,1.3029276E14,6.0463366E-3,5.6219738E-2,1.3029309E14,-8.9758314E-2,-8.163971E-2,-3.4628067E-2,-3.746092E-3,1.6096816E-4,-4.5094613E-2,9.5434755E-2,6.311552E-2],"split_indices":[3,0,2,2,2,0,0,0,0,0,0,0,0,0,0,0,0,0,0,0,0,0,0],"split_type":[0,0,0,0,0,0,0,0,0,0,0,0,0,0,0,0,0,0,0,0,0,0,0],"sum_hessian":[3.0891388E6,1.1033172E6,1.9858216E6,1.0916788E6,1.163852E4,4.237311E5,1.5620905E6,6.69038E5,4.2264072E5,1.0133619E4,1.5049001E3,4.2231972E5,1.4113507E3,1.5561892E6,5.9012515E3,1.7976428E3,8.335977E3,3.8341793E1,1.4665583E3,4.2228806E5,3.1664093E1,3.605575E2,5.5406943E3],"tree_param":{"num_deleted":"0","num_feature":"4","num_nodes":"23","size_leaf_vector":"0"}},{"base_weights":[2.3550172E-1,-7.612231E-2,4.142609E-1,-6.983622E-2,-7.0182025E-1,1.593779E-3,5.314754E-1,-1.1366008E-2,-8.57248E-5,-8.0717134E-1,-4.108678E-2,1.417082E-3,5.4510925E-3,5.311392E-2,6.2079483E-1,-8.78055E-2,-7.918967E-2,-3.20674E-2,-3.3739624E-3,1.4487426E-4,-4.2207383E-2,9.391635E-2,6.0055356E-2],"categories":[],"categories_nodes":[],"categories_segments":[],"categories_sizes":[],"default_left":[0,0,0,0,0,0,0,0,0,0,0,0,0,0,0,0,0,0,0,0,0,0,0],"id":23,"left_children":[1,3,5,7,9,11,13,-1,-1,15,17,19,-1,-1,21,-1,-1,-1,-1,-1,-1,-1,-1],"loss_changes":[1.6791431E5,4.321767E3,9.265422E4,3.2885757E3,7.607422E2,3.9619093E0,4.45E1,0E0,0E0,9.510742E0,3.0787246E0,5.663038E0,0E0,0E0,3.544702E1,0E0,0E0,0E0,0E0,0E0,0E0,0E0,0E0],"parents":[2147483647,0,0,1,1,2,2,3,3,4,4,5,5,6,6,9,9,10,10,11,11,14,14],"right_children":[2,4,6,8,10,12,14,-1,-1,16,18,20,-1,-1,22,-1,-1,-1,-1,-1,-1,-1,-1],"split_conditions":[1E0,1.3029276E14,1E0,1E0,1E0,1.3029309E14,1.3029276E14,-1.1366008E-2,-8.57248E-5,1.3029309E14,1.3029309E14,1.3029276E14,5.4510925E-3,5.311392E-2,1.3029309E14,-8.78055E-2,-7.918967E-2,-3.20674E-2,-3.3739624E-3,1.4487426E-4,-4.2207383E-2,9.391635E-2,6.0055356E-2],"split_indices":[3,0,2,2,2,0,0,0,0,0,0,0,0,0,0,0,0,0,0,0,0,0,0],"split_type":[0,0,0,0,0,0,0,0,0,0,0,0,0,0,0,0,0,0,0,0,0,0,0],"sum_hessian":[3.0143125E6,1.0988061E6,1.9155064E6,1.0878779E6,1.0928268E4,4.2372728E5,1.491779E6,6.652374E5,4.226405E5,9.425232E3,1.5030344E3,4.2231812E5,1.4091462E3,1.4861919E6,5.587123E3,1.6609482E3,7.7642847E3,3.739427E1,1.4656401E3,4.2228756E5,3.0573957E1,3.312709E2,5.255852E3],"tree_param":{"num_deleted":"0","num_feature":"4","num_nodes":"23","size_leaf_vector":"0"}},{"base_weights":[2.174325E-1,-6.8809435E-2,3.8668972E-1,-6.307117E-2,-6.7411363E-1,1.4344356E-3,5.010373E-1,-1.0285835E-2,-7.7147604E-5,-7.8305775E-1,-3.705399E-2,1.2753747E-3,4.9137603E-3,5.0070275E-2,5.907065E-1,-8.581566E-2,-7.670129E-2,-2.9648993E-2,-3.0386467E-3,1.3040162E-4,-3.9432254E-2,9.237953E-2,5.702234E-2],"categories":[],"categories_nodes":[],"categories_segments":[],"categories_sizes":[],"default_left":[0,0,0,0,0,0,0,0,0,0,0,0,0,0,0,0,0,0,0,0,0,0,0],"id":24,"left_children":[1,3,5,7,9,11,13,-1,-1,15,17,19,-1,-1,21,-1,-1,-1,-1,-1,-1,-1,-1],"loss_changes":[1.4273011E5,3.8022847E3,8.155609E4,2.6879854E3,7.134546E2,3.2150383E0,4.25625E1,0E0,0E0,9.919922E0,2.5897212E0,4.785578E0,0E0,0E0,3.564209E1,0E0,0E0,0E0,0E0,0E0,0E0,0E0,0E0],"parents":[2147483647,0,0,1,1,2,2,3,3,4,4,5,5,6,6,9,9,10,10,11,11,14,14],"right_children":[2,4,6,8,10,12,14,-1,-1,16,18,20,-1,-1,22,-1,-1,-1,-1,-1,-1,-1,-1],"split_conditions":[1E0,1.3029276E14,1E0,1E0,1E0,1.3029309E14,1.3029276E14,-1.0285835E-2,-7.7147604E-5,1.3029309E14,1.3029309E14,1.3029276E14,4.9137603E-3,5.0070275E-2,1.3029309E14,-8.581566E-2,-7.670129E-2,-2.9648993E-2,-3.0386467E-3,1.3040162E-4,-3.9432254E-2,9.237953E-2,5.702234E-2],"split_indices":[3,0,2,2,2,0,0,0,0,0,0,0,0,0,0,0,0,0,0,0,0,0,0],"split_type":[0,0,0,0,0,0,0,0,0,0,0,0,0,0,0,0,0,0,0,0,0,0,0],"sum_hessian":[2.9460148E6,1.0946988E6,1.8513161E6,1.0844196E6,1.0279166E4,4.2372384E5,1.4275922E6,6.617792E5,4.2264038E5,8.777832E3,1.5013337E3,4.223167E5,1.4071414E3,1.422292E6,5.300214E3,1.5360027E3,7.241829E3,3.6528492E1,1.4648053E3,4.2228712E5,2.957702E1,3.044977E2,4.995716E3],"tree_param":{"num_deleted":"0","num_feature":"4","num_nodes":"23","size_leaf_vector":"0"}},{"base_weights":[2.0041172E-1,-6.217714E-2,3.6020488E-1,-5.6944124E-2,-6.4625067E-1,1.2908668E-3,4.712875E-1,-9.30389E-3,-6.944657E-5,-7.585015E-1,-3.341323E-2,1.1476844E-3,4.4287443E-3,4.7095623E-2,5.608553E-1,-8.378016E-2,-7.41712E-2,-2.7370675E-2,-2.7364695E-3,1.1735953E-4,-3.6772124E-2,9.081362E-2,5.4023024E-2],"categories":[],"categories_nodes":[],"categories_segments":[],"categories_sizes":[],"default_left":[0,0,0,0,0,0,0,0,0,0,0,0,0,0,0,0,0,0,0,0,0,0,0],"id":25,"left_children":[1,3,5,7,9,11,13,-1,-1,15,17,19,-1,-1,21,-1,-1,-1,-1,-1,-1,-1,-1],"loss_changes":[1.2100183E5,3.334457E3,7.147675E4,2.1953384E3,6.6640063E2,2.6085277E0,4.0375E1,0E0,0E0,1.0279785E1,2.1737876E0,4.0368094E0,0E0,0E0,3.5605835E1,0E0,0E0,0E0,0E0,0E0,0E0,0E0,0E0],"parents":[2147483647,0,0,1,1,2,2,3,3,4,4,5,5,6,6,9,9,10,10,11,11,14,14],"right_children":[2,4,6,8,10,12,14,-1,-1,16,18,20,-1,-1,22,-1,-1,-1,-1,-1,-1,-1,-1],"split_conditions":[1E0,1.3029276E14,1E0,1E0,1E0,1.3029309E14,1.3029276E14,-9.30389E-3,-6.944657E-5,1.3029309E14,1.3029309E14,1.3029276E14,4.4287443E-3,4.7095623E-2,1.3029309E14,-8.378016E-2,-7.41712E-2,-2.7370675E-2,-2.7364695E-3,1.1735953E-4,-3.6772124E-2,9.081362E-2,5.4023024E-2],"split_indices":[3,0,2,2,2,0,0,0,0,0,0,0,0,0,0,0,0,0,0,0,0,0,0],"split_type":[0,0,0,0,0,0,0,0,0,0,0,0,0,0,0,0,0,0,0,0,0,0,0],"sum_hessian":[2.8837475E6,1.0909631E6,1.7927844E6,1.0812766E6,9.686615E3,4.2372066E5,1.3690638E6,6.586363E5,4.2264025E5,8.18683E3,1.4997849E3,4.2231534E5,1.4053197E3,1.3640252E6,5.0384814E3,1.4219221E3,6.764908E3,3.5738316E1,1.4640466E3,4.222867E5,2.8666327E1,2.8004932E2,4.758432E3],"tree_param":{"num_deleted":"0","num_feature":"4","num_nodes":"23","size_leaf_vector":"0"}},{"base_weights":[1.8442325E-1,-5.6165386E-2,3.34846E-1,-5.1397543E-2,-6.1826956E-1,1.1614984E-3,4.4230342E-1,-8.411946E-3,-6.2502506E-5,-7.334799E-1,-3.0127598E-2,1.0326082E-3,3.99117E-3,4.4197712E-2,5.3131413E-1,-8.169198E-2,-7.15982E-2,-2.5229758E-2,-2.4642455E-3,1.0560494E-4,-3.4229502E-2,8.9209E-2,5.1065028E-2],"categories":[],"categories_nodes":[],"categories_segments":[],"categories_sizes":[],"default_left":[0,0,0,0,0,0,0,0,0,0,0,0,0,0,0,0,0,0,0,0,0,0,0],"id":26,"left_children":[1,3,5,7,9,11,13,-1,-1,15,17,19,-1,-1,21,-1,-1,-1,-1,-1,-1,-1,-1],"loss_changes":[1.0231081E5,2.9146821E3,6.2372203E4,1.7916653E3,6.197949E2,2.116231E0,3.796875E1,0E0,0E0,1.0583008E1,1.8209739E0,3.3991508E0,0E0,0E0,3.5335693E1,0E0,0E0,0E0,0E0,0E0,0E0,0E0,0E0],"parents":[2147483647,0,0,1,1,2,2,3,3,4,4,5,5,6,6,9,9,10,10,11,11,14,14],"right_children":[2,4,6,8,10,12,14,-1,-1,16,18,20,-1,-1,22,-1,-1,-1,-1,-1,-1,-1,-1],"split_conditions":[1E0,1.3029276E14,1E0,1E0,1E0,1.3029309E14,1.3029276E14,-8.411946E-3,-6.2502506E-5,1.3029309E14,1.3029309E14,1.3029276E14,3.99117E-3,4.4197712E-2,1.3029309E14,-8.169198E-2,-7.15982E-2,-2.5229758E-2,-2.4642455E-3,1.0560494E-4,-3.4229502E-2,8.9209E-2,5.1065028E-2],"split_indices":[3,0,2,2,2,0,0,0,0,0,0,0,0,0,0,0,0,0,0,0,0,0,0],"split_type":[0,0,0,0,0,0,0,0,0,0,0,0,0,0,0,0,0,0,0,0,0,0,0],"sum_hessian":[2.8270448E6,1.0875691E6,1.7394756E6,1.078423E6,9.146235E3,4.237178E5,1.3157579E6,6.557829E5,4.226401E5,7.6478594E3,1.4983762E3,4.2231416E5,1.4036666E3,1.3109579E6,4.7999663E3,1.3178638E3,6.329995E3,3.5017868E1,1.4633584E3,4.222863E5,2.7835228E1,2.5774573E2,4.5422207E3],"tree_param":{"num_deleted":"0","num_feature":"4","num_nodes":"23","size_leaf_vector":"0"}},{"base_weights":[1.694442E-1,-5.071944E-2,3.1064406E-1,-4.6379168E-2,-5.902265E-1,1.0454765E-3,4.1416025E-1,-7.6024206E-3,-5.623798E-5,-7.0799106E-1,-2.7162556E-2,9.294559E-4,3.596367E-3,4.1384045E-2,5.021684E-1,-7.954573E-2,-6.898321E-2,-2.3222994E-2,-2.218988E-3,9.5066316E-5,-3.180627E-2,8.755697E-2,4.815706E-2],"categories":[],"categories_nodes":[],"categories_segments":[],"categories_sizes":[],"default_left":[0,0,0,0,0,0,0,0,0,0,0,0,0,0,0,0,0,0,0,0,0,0,0],"id":27,"left_children":[1,3,5,7,9,11,13,-1,-1,15,17,19,-1,-1,21,-1,-1,-1,-1,-1,-1,-1,-1],"loss_changes":[8.628096E4,2.5394211E3,5.419308E4,1.4612434E3,5.7387695E2,1.7165381E0,3.546875E1,0E0,0E0,1.0820068E1,1.5225053E0,2.8572366E0,0E0,0E0,3.483374E1,0E0,0E0,0E0,0E0,0E0,0E0,0E0,0E0],"parents":[2147483647,0,0,1,1,2,2,3,3,4,4,5,5,6,6,9,9,10,10,11,11,14,14],"right_children":[2,4,6,8,10,12,14,-1,-1,16,18,20,-1,-1,22,-1,-1,-1,-1,-1,-1,-1,-1],"split_conditions":[1E0,1.3029276E14,1E0,1E0,1E0,1.3029309E14,1.3029276E14,-7.6024206E-3,-5.623798E-5,1.3029309E14,1.3029309E14,1.3029276E14,3.596367E-3,4.1384045E-2,1.3029309E14,-7.954573E-2,-6.898321E-2,-2.3222994E-2,-2.218988E-3,9.5066316E-5,-3.180627E-2,8.755697E-2,4.815706E-2],"split_indices":[3,0,2,2,2,0,0,0,0,0,0,0,0,0,0,0,0,0,0,0,0,0,0],"split_type":[0,0,0,0,0,0,0,0,0,0,0,0,0,0,0,0,0,0,0,0,0,0,0],"sum_hessian":[2.7754595E6,1.0844885E6,1.690971E6,1.0758346E6,8.653879E3,4.2371522E5,1.2672558E6,6.531946E5,4.2263997E5,7.156783E3,1.4970958E3,4.2231306E5,1.4021675E3,1.2626729E6,4.5828296E3,1.2230308E3,5.9337524E3,3.4361607E1,1.4627343E3,4.2228597E5,2.707743E1,2.3741519E2,4.3454146E3],"tree_param":{"num_deleted":"0","num_feature":"4","num_nodes":"23","size_leaf_vector":"0"}},{"base_weights":[1.5544721E-1,-4.5788605E-2,2.8762203E-1,-4.184074E-2,-5.621926E-1,9.407791E-4,3.8693047E-1,-6.8682055E-3,-5.0611212E-5,-6.8205273E-1,-2.4487225E-2,8.363428E-4,3.2402896E-3,3.8661856E-2,4.7350857E-1,-7.733767E-2,-6.63291E-2,-2.134659E-2,-1.9980434E-3,8.555294E-5,-2.9503668E-2,8.585003E-2,4.530805E-2],"categories":[],"categories_nodes":[],"categories_segments":[],"categories_sizes":[],"default_left":[0,0,0,0,0,0,0,0,0,0,0,0,0,0,0,0,0,0,0,0,0,0,0],"id":28,"left_children":[1,3,5,7,9,11,13,-1,-1,15,17,19,-1,-1,21,-1,-1,-1,-1,-1,-1,-1,-1],"loss_changes":[7.25754E4,2.2052212E3,4.6886375E4,1.1910106E3,5.28897E2,1.3922069E0,3.2828125E1,0E0,0E0,1.0985107E1,1.2706543E0,2.3976355E0,0E0,0E0,3.410791E1,0E0,0E0,0E0,0E0,0E0,0E0,0E0,0E0],"parents":[2147483647,0,0,1,1,2,2,3,3,4,4,5,5,6,6,9,9,10,10,11,11,14,14],"right_children":[2,4,6,8,10,12,14,-1,-1,16,18,20,-1,-1,22,-1,-1,-1,-1,-1,-1,-1,-1],"split_conditions":[1E0,1.3029276E14,1E0,1E0,1E0,1.3029309E14,1.3029276E14,-6.8682055E-3,-5.0611212E-5,1.3029309E14,1.3029309E14,1.3029276E14,3.2402896E-3,3.8661856E-2,1.3029309E14,-7.733767E-2,-6.63291E-2,-2.134659E-2,-1.9980434E-3,8.555294E-5,-2.9503668E-2,8.585003E-2,4.530805E-2],"split_indices":[3,0,2,2,2,0,0,0,0,0,0,0,0,0,0,0,0,0,0,0,0,0,0],"split_type":[0,0,0,0,0,0,0,0,0,0,0,0,0,0,0,0,0,0,0,0,0,0,0],"sum_hessian":[2.7285705E6,1.0816944E6,1.6468762E6,1.0734888E6,8.205646E3,4.2371288E5,1.2231634E6,6.508488E5,4.2263988E5,6.709714E3,1.495933E3,4.2231206E5,1.4008091E3,1.2187781E6,4.385329E3,1.1366735E3,5.5730405E3,3.3764294E1,1.4621687E3,4.222857E5,2.6386995E1,2.1889815E2,4.1664307E3],"tree_param":{"num_deleted":"0","num_feature":"4","num_nodes":"23","size_leaf_vector":"0"}},{"base_weights":[1.424026E-1,-4.132637E-2,2.6579687E-1,-3.7738133E-2,-5.3425187E-1,8.4658223E-4,3.6068374E-1,-6.2027453E-3,-4.5556655E-5,-6.5570164E-1,-2.207403E-2,7.52574E-4,2.919196E-3,3.60381E-2,4.4542786E-1,-7.506574E-2,-6.364062E-2,-1.9596254E-2,-1.7990556E-3,7.6993274E-5,-2.7322127E-2,8.408164E-2,4.252703E-2],"categories":[],"categories_nodes":[],"categories_segments":[],"categories_sizes":[],"default_left":[0,0,0,0,0,0,0,0,0,0,0,0,0,0,0,0,0,0,0,0,0,0,0],"id":29,"left_children":[1,3,5,7,9,11,13,-1,-1,15,17,19,-1,-1,21,-1,-1,-1,-1,-1,-1,-1,-1],"loss_changes":[6.089437E4,1.908732E3,4.0396117E4,9.701941E2,4.8510718E2,1.1290413E0,3.0203125E1,0E0,0E0,1.1072266E1,1.0586514E0,2.0086548E0,0E0,0E0,3.3171204E1,0E0,0E0,0E0,0E0,0E0,0E0,0E0,0E0],"parents":[2147483647,0,0,1,1,2,2,3,3,4,4,5,5,6,6,9,9,10,10,11,11,14,14],"right_children":[2,4,6,8,10,12,14,-1,-1,16,18,20,-1,-1,22,-1,-1,-1,-1,-1,-1,-1,-1],"split_conditions":[1E0,1.3029276E14,1E0,1E0,1E0,1.3029309E14,1.3029276E14,-6.2027453E-3,-4.5556655E-5,1.3029309E14,1.3029309E14,1.3029276E14,2.919196E-3,3.60381E-2,1.3029309E14,-7.506574E-2,-6.364062E-2,-1.9596254E-2,-1.7990556E-3,7.6993274E-5,-2.7322127E-2,8.408164E-2,4.252703E-2],"split_indices":[3,0,2,2,2,0,0,0,0,0,0,0,0,0,0,0,0,0,0,0,0,0,0],"split_type":[0,0,0,0,0,0,0,0,0,0,0,0,0,0,0,0,0,0,0,0,0,0,0],"sum_hessian":[2.685989E6,1.079162E6,1.606827E6,1.0713641E6,7.79789E3,4.2371072E5,1.1831162E6,6.487243E5,4.2263978E5,6.303012E3,1.4948777E3,4.2231112E5,1.3995792E3,1.1789104E6,4.2058306E3,1.0580907E3,5.244922E3,3.322104E1,1.4616566E3,4.2228538E5,2.5758377E1,2.0204411E2,4.0037866E3],"tree_param":{"num_deleted":"0","num_feature":"4","num_nodes":"23","size_leaf_vector":"0"}},{"base_weights":[1.3027517E-1,-3.7290048E-2,2.4517371E-1,-3.4030963E-2,-5.0649726E-1,7.618355E-4,3.35479E-1,-5.59999E-3,-4.0996798E-5,-6.2899256E-1,-1.989706E-2,6.772143E-4,2.6297094E-3,3.3518665E-2,4.1801807E-1,-7.272964E-2,-6.0924243E-2,-1.7967287E-2,-1.619803E-3,6.929195E-5,-2.5261296E-2,8.224633E-2,3.9822664E-2],"categories":[],"categories_nodes":[],"categories_segments":[],"categories_sizes":[],"default_left":[0,0,0,0,0,0,0,0,0,0,0,0,0,0,0,0,0,0,0,0,0,0,0],"id":30,"left_children":[1,3,5,7,9,11,13,-1,-1,15,17,19,-1,-1,21,-1,-1,-1,-1,-1,-1,-1,-1],"loss_changes":[5.0969387E4,1.6467174E3,3.4663133E4,7.899088E2,4.4275476E2,9.1554457E-1,2.7515625E1,0E0,0E0,1.1078613E1,8.806114E-1,1.6801157E0,0E0,0E0,3.204132E1,0E0,0E0,0E0,0E0,0E0,0E0,0E0,0E0],"parents":[2147483647,0,0,1,1,2,2,3,3,4,4,5,5,6,6,9,9,10,10,11,11,14,14],"right_children":[2,4,6,8,10,12,14,-1,-1,16,18,20,-1,-1,22,-1,-1,-1,-1,-1,-1,-1,-1],"split_conditions":[1E0,1.3029276E14,1E0,1E0,1E0,1.3029309E14,1.3029276E14,-5.59999E-3,-4.0996798E-5,1.3029309E14,1.3029309E14,1.3029276E14,2.6297094E-3,3.3518665E-2,1.3029309E14,-7.272964E-2,-6.0924243E-2,-1.7967287E-2,-1.619803E-3,6.929195E-5,-2.5261296E-2,8.224633E-2,3.9822664E-2],"split_indices":[3,0,2,2,2,0,0,0,0,0,0,0,0,0,0,0,0,0,0,0,0,0,0],"split_type":[0,0,0,0,0,0,0,0,0,0,0,0,0,0,0,0,0,0,0,0,0,0,0],"sum_hessian":[2.6473468E6,1.0768684E6,1.5704782E6,1.0694412E6,7.4272065E3,4.2370878E5,1.1467695E6,6.4680156E5,4.2263966E5,5.933286E3,1.4939207E3,4.223103E5,1.3984663E3,1.1427268E6,4.042807E3,9.866288E2,4.946657E3,3.2727276E1,1.4611934E3,4.2228512E5,2.5186394E1,1.867124E2,3.8560945E3],"tree_param":{"num_deleted":"0","num_feature":"4","num_nodes":"23","size_leaf_vector":"0"}},{"base_weights":[1.1902673E-1,-3.3640623E-2,2.2574839E-1,-3.0682428E-2,-4.7902822E-1,6.857341E-4,3.1136546E-1,-5.0543463E-3,-3.69079E-5,-6.0199594E-1,-1.7933868E-2,6.09565E-4,2.3686986E-3,3.1108437E-2,3.9137214E-1,-7.033073E-2,-5.818792E-2,-1.6454617E-2,-1.4583825E-3,6.237743E-5,-2.3320004E-2,8.0340065E-2,3.7203565E-2],"categories":[],"categories_nodes":[],"categories_segments":[],"categories_sizes":[],"default_left":[0,0,0,0,0,0,0,0,0,0,0,0,0,0,0,0,0,0,0,0,0,0,0],"id":31,"left_children":[1,3,5,7,9,11,13,-1,-1,15,17,19,-1,-1,21,-1,-1,-1,-1,-1,-1,-1,-1],"loss_changes":[4.2562047E4,1.4160717E3,2.9626617E4,6.428151E2,4.0207153E2,7.4231523E-1,2.4921875E1,0E0,0E0,1.100061E1,7.31416E-1,1.4031788E0,0E0,0E0,3.0740173E1,0E0,0E0,0E0,0E0,0E0,0E0,0E0,0E0],"parents":[2147483647,0,0,1,1,2,2,3,3,4,4,5,5,6,6,9,9,10,10,11,11,14,14],"right_children":[2,4,6,8,10,12,14,-1,-1,16,18,20,-1,-1,22,-1,-1,-1,-1,-1,-1,-1,-1],"split_conditions":[1E0,1.3029276E14,1E0,1E0,1E0,1.3029309E14,1.3029276E14,-5.0543463E-3,-3.69079E-5,1.3029309E14,1.3029309E14,1.3029276E14,2.3686986E-3,3.1108437E-2,1.3029309E14,-7.033073E-2,-5.818792E-2,-1.6454617E-2,-1.4583825E-3,6.237743E-5,-2.3320004E-2,8.0340065E-2,3.7203565E-2],"split_indices":[3,0,2,2,2,0,0,0,0,0,0,0,0,0,0,0,0,0,0,0,0,0,0],"split_type":[0,0,0,0,0,0,0,0,0,0,0,0,0,0,0,0,0,0,0,0,0,0,0],"sum_hessian":[2.6123025E6,1.0747924E6,1.53751E6,1.0677019E6,7.0904365E3,4.2370703E5,1.113803E6,6.450623E5,4.2263962E5,5.5973833E3,1.4930532E3,4.2230956E5,1.3974597E3,1.1099081E6,3.8948633E3,9.216812E2,4.675702E3,3.227876E1,1.4607745E3,4.222849E5,2.4666224E1,1.7277452E2,3.7220886E3],"tree_param":{"num_deleted":"0","num_feature":"4","num_nodes":"23","size_leaf_vector":"0"}},{"base_weights":[1.0861858E-1,-3.0342108E-2,2.0751072E-1,-2.7658666E-2,-4.519477E-1,6.170114E-4,2.8838524E-1,-4.5606396E-3,-3.32302E-5,-5.747973E-1,-1.6163474E-2,5.484491E-4,2.1334626E-3,2.8811619E-2,3.655716E-1,-6.7872114E-2,-5.5440944E-2,-1.5052865E-2,-1.3130102E-3,5.613052E-5,-2.1496395E-2,7.8359745E-2,3.467705E-2],"categories":[],"categories_nodes":[],"categories_segments":[],"categories_sizes":[],"default_left":[0,0,0,0,0,0,0,0,0,0,0,0,0,0,0,0,0,0,0,0,0,0,0],"id":32,"left_children":[1,3,5,7,9,11,13,-1,-1,15,17,19,-1,-1,21,-1,-1,-1,-1,-1,-1,-1,-1],"loss_changes":[3.546217E4,1.213835E3,2.522634E4,5.228795E2,3.6326697E2,6.0184056E-1,2.240625E1,0E0,0E0,1.0839233E1,6.066487E-1,1.1701928E0,0E0,0E0,2.9292572E1,0E0,0E0,0E0,0E0,0E0,0E0,0E0,0E0],"parents":[2147483647,0,0,1,1,2,2,3,3,4,4,5,5,6,6,9,9,10,10,11,11,14,14],"right_children":[2,4,6,8,10,12,14,-1,-1,16,18,20,-1,-1,22,-1,-1,-1,-1,-1,-1,-1,-1],"split_conditions":[1E0,1.3029276E14,1E0,1E0,1E0,1.3029309E14,1.3029276E14,-4.5606396E-3,-3.32302E-5,1.3029309E14,1.3029309E14,1.3029276E14,2.1334626E-3,2.8811619E-2,1.3029309E14,-6.7872114E-2,-5.5440944E-2,-1.5052865E-2,-1.3130102E-3,5.613052E-5,-2.1496395E-2,7.8359745E-2,3.467705E-2],"split_indices":[3,0,2,2,2,0,0,0,0,0,0,0,0,0,0,0,0,0,0,0,0,0,0],"split_type":[0,0,0,0,0,0,0,0,0,0,0,0,0,0,0,0,0,0,0,0,0,0,0],"sum_hessian":[2.5805445E6,1.0729141E6,1.5076305E6,1.0661294E6,6.7846543E3,4.2370544E5,1.083925E6,6.434899E5,4.2263953E5,5.292387E3,1.4922675E3,4.2230888E5,1.3965499E3,1.0801644E6,3.7606792E3,8.62686E2,4.429701E3,3.187156E1,1.4603959E3,4.222847E5,2.4193422E1,1.6010918E2,3.60057E3],"tree_param":{"num_deleted":"0","num_feature":"4","num_nodes":"23","size_leaf_vector":"0"}},{"base_weights":[9.90077E-2,-2.7361754E-2,1.9043835E-1,-2.4928927E-2,-4.2535856E-1,5.553567E-4,2.66564E-1,-4.114167E-3,-2.9868437E-5,-5.4749376E-1,-1.4566997E-2,4.936418E-4,1.9214824E-3,2.6630757E-2,3.4069258E-1,-6.535857E-2,-5.269363E-2,-1.3756483E-2,-1.1820864E-3,5.052737E-5,-1.9787854E-2,7.630383E-2,3.2249782E-2],"categories":[],"categories_nodes":[],"categories_segments":[],"categories_sizes":[],"default_left":[0,0,0,0,0,0,0,0,0,0,0,0,0,0,0,0,0,0,0,0,0,0,0],"id":33,"left_children":[1,3,5,7,9,11,13,-1,-1,15,17,19,-1,-1,21,-1,-1,-1,-1,-1,-1,-1,-1],"loss_changes":[2.948338E4,1.0372029E3,2.1401516E4,4.2516376E2,3.2652026E2,4.8791486E-1,1.9992188E1,0E0,0E0,1.059668E1,5.025121E-1,9.7455233E-1,0E0,0E0,2.772586E1,0E0,0E0,0E0,0E0,0E0,0E0,0E0,0E0],"parents":[2147483647,0,0,1,1,2,2,3,3,4,4,5,5,6,6,9,9,10,10,11,11,14,14],"right_children":[2,4,6,8,10,12,14,-1,-1,16,18,20,-1,-1,22,-1,-1,-1,-1,-1,-1,-1,-1],"split_conditions":[1E0,1.3029276E14,1E0,1E0,1E0,1.3029309E14,1.3029276E14,-4.114167E-3,-2.9868437E-5,1.3029309E14,1.3029309E14,1.3029276E14,1.9214824E-3,2.6630757E-2,1.3029309E14,-6.535857E-2,-5.269363E-2,-1.3756483E-2,-1.1820864E-3,5.052737E-5,-1.9787854E-2,7.630383E-2,3.2249782E-2],"split_indices":[3,0,2,2,2,0,0,0,0,0,0,0,0,0,0,0,0,0,0,0,0,0,0],"split_type":[0,0,0,0,0,0,0,0,0,0,0,0,0,0,0,0,0,0,0,0,0,0,0],"sum_hessian":[2.551779E6,1.0712156E6,1.4805632E6,1.0647084E6,6.507159E3,4.23704E5,1.0568592E6,6.4206894E5,4.2263947E5,5.0156035E3,1.4915558E3,4.2230828E5,1.3957279E3,1.0532202E6,3.639052E3,8.091244E2,4.206479E3,3.1502048E1,1.4600537E3,4.2228453E5,2.3763857E1,1.4860582E2,3.4904463E3],"tree_param":{"num_deleted":"0","num_feature":"4","num_nodes":"23","size_leaf_vector":"0"}},{"base_weights":[9.0151526E-2,-2.4670094E-2,1.7450413E-1,-2.2465652E-2,-3.9936087E-1,4.9975194E-4,2.4591947E-1,-3.7105796E-3,-2.689414E-5,-5.20192E-1,-1.31275635E-2,4.442018E-4,1.7304233E-3,2.4567604E-2,3.167974E-1,-6.279645E-2,-4.9957026E-2,-1.2559784E-2,-1.0641882E-3,4.547261E-5,-1.819118E-2,7.417186E-2,2.992695E-2],"categories":[],"categories_nodes":[],"categories_segments":[],"categories_sizes":[],"default_left":[0,0,0,0,0,0,0,0,0,0,0,0,0,0,0,0,0,0,0,0,0,0,0],"id":34,"left_children":[1,3,5,7,9,11,13,-1,-1,15,17,19,-1,-1,21,-1,-1,-1,-1,-1,-1,-1,-1],"loss_changes":[2.446307E4,8.8353143E2,1.809384E4,3.4557404E2,2.91976E2,3.9551595E-1,1.7734375E1,0E0,0E0,1.0277466E1,4.1574994E-1,8.105636E-1,0E0,0E0,2.6068298E1,0E0,0E0,0E0,0E0,0E0,0E0,0E0,0E0],"parents":[2147483647,0,0,1,1,2,2,3,3,4,4,5,5,6,6,9,9,10,10,11,11,14,14],"right_children":[2,4,6,8,10,12,14,-1,-1,16,18,20,-1,-1,22,-1,-1,-1,-1,-1,-1,-1,-1],"split_conditions":[1E0,1.3029276E14,1E0,1E0,1E0,1.3029309E14,1.3029276E14,-3.7105796E-3,-2.689414E-5,1.3029309E14,1.3029309E14,1.3029276E14,1.7304233E-3,2.4567604E-2,1.3029309E14,-6.279645E-2,-4.9957026E-2,-1.2559784E-2,-1.0641882E-3,4.547261E-5,-1.819118E-2,7.417186E-2,2.992695E-2],"split_indices":[3,0,2,2,2,0,0,0,0,0,0,0,0,0,0,0,0,0,0,0,0,0,0],"split_type":[0,0,0,0,0,0,0,0,0,0,0,0,0,0,0,0,0,0,0,0,0,0,0],"sum_hessian":[2.5257392E6,1.0696804E6,1.4560589E6,1.0634249E6,6.2554585E3,4.237027E5,1.0323562E6,6.4078544E5,4.2263944E5,4.764547E3,1.4909116E3,4.2230772E5,1.3949854E3,1.0288273E6,3.5288547E3,7.60518E2,4.0040288E3,3.1166878E1,1.4597448E3,4.2228434E5,2.3373735E1,1.3816112E2,3.3906936E3],"tree_param":{"num_deleted":"0","num_feature":"4","num_nodes":"23","size_leaf_vector":"0"}},{"base_weights":[8.200693E-2,-2.2239722E-2,1.596741E-1,-2.0243214E-2,-3.740497E-1,4.4966582E-4,2.2645746E-1,-3.345911E-3,-2.4211824E-5,-4.9300572E-1,-1.1830005E-2,3.996633E-4,1.5583189E-3,2.2622732E-2,2.939418E-1,-6.0193628E-2,-4.724267E-2,-1.1457025E-2,-9.5804216E-4,4.0918556E-5,-1.6702654E-2,7.196527E-2,2.7713036E-2],"categories":[],"categories_nodes":[],"categories_segments":[],"categories_sizes":[],"default_left":[0,0,0,0,0,0,0,0,0,0,0,0,0,0,0,0,0,0,0,0,0,0,0],"id":35,"left_children":[1,3,5,7,9,11,13,-1,-1,15,17,19,-1,-1,21,-1,-1,-1,-1,-1,-1,-1,-1],"loss_changes":[2.0259018E4,7.503535E2,1.5247305E4,2.807914E2,2.5974127E2,3.206156E-1,1.5625E1,0E0,0E0,9.888184E0,3.4358245E-1,6.733433E-1,0E0,0E0,2.4348907E1,0E0,0E0,0E0,0E0,0E0,0E0,0E0,0E0],"parents":[2147483647,0,0,1,1,2,2,3,3,4,4,5,5,6,6,9,9,10,10,11,11,14,14],"right_children":[2,4,6,8,10,12,14,-1,-1,16,18,20,-1,-1,22,-1,-1,-1,-1,-1,-1,-1,-1],"split_conditions":[1E0,1.3029276E14,1E0,1E0,1E0,1.3029309E14,1.3029276E14,-3.345911E-3,-2.4211824E-5,1.3029309E14,1.3029309E14,1.3029276E14,1.5583189E-3,2.2622732E-2,1.3029309E14,-6.0193628E-2,-4.724267E-2,-1.1457025E-2,-9.5804216E-4,4.0918556E-5,-1.6702654E-2,7.196527E-2,2.7713036E-2],"split_indices":[3,0,2,2,2,0,0,0,0,0,0,0,0,0,0,0,0,0,0,0,0,0,0],"split_type":[0,0,0,0,0,0,0,0,0,0,0,0,0,0,0,0,0,0,0,0,0,0,0],"sum_hessian":[2.5021798E6,1.0682931E6,1.4338866E6,1.0622658E6,6.0272627E3,4.2370153E5,1.0101851E6,6.396265E5,4.2263934E5,4.536934E3,1.4903289E3,4.2230722E5,1.3943151E3,1.00675606E6,3.4290728E3,7.164279E2,3.820506E3,3.0862978E1,1.4594658E3,4.222842E5,2.301956E1,1.2868217E2,3.3003906E3],"tree_param":{"num_deleted":"0","num_feature":"4","num_nodes":"23","size_leaf_vector":"0"}},{"base_weights":[7.452893E-2,-2.0045817E-2,1.4590593E-1,-1.8238466E-2,-3.495122E-1,4.0456766E-4,2.0816936E-1,-3.0165205E-3,-2.1791886E-5,-4.6605203E-1,-1.0660072E-2,3.595595E-4,1.4032413E-3,2.0795256E-2,2.7216595E-1,-5.75593E-2,-4.4562243E-2,-1.0442513E-2,-8.6244347E-4,3.6817517E-5,-1.5318112E-2,6.9686696E-2,2.5610972E-2],"categories":[],"categories_nodes":[],"categories_segments":[],"categories_sizes":[],"default_left":[0,0,0,0,0,0,0,0,0,0,0,0,0,0,0,0,0,0,0,0,0,0,0],"id":36,"left_children":[1,3,5,7,9,11,13,-1,-1,15,17,19,-1,-1,21,-1,-1,-1,-1,-1,-1,-1,-1],"loss_changes":[1.6747035E4,6.3537524E2,1.280849E4,2.2808426E2,2.2988348E2,2.5987834E-1,1.36796875E1,0E0,0E0,9.437317E0,2.8365108E-1,5.587083E-1,0E0,0E0,2.2595703E1,0E0,0E0,0E0,0E0,0E0,0E0,0E0,0E0],"parents":[2147483647,0,0,1,1,2,2,3,3,4,4,5,5,6,6,9,9,10,10,11,11,14,14],"right_children":[2,4,6,8,10,12,14,-1,-1,16,18,20,-1,-1,22,-1,-1,-1,-1,-1,-1,-1,-1],"split_conditions":[1E0,1.3029276E14,1E0,1E0,1E0,1.3029309E14,1.3029276E14,-3.0165205E-3,-2.1791886E-5,1.3029309E14,1.3029309E14,1.3029276E14,1.4032413E-3,2.0795256E-2,1.3029309E14,-5.75593E-2,-4.4562243E-2,-1.0442513E-2,-8.6244347E-4,3.6817517E-5,-1.5318112E-2,6.9686696E-2,2.5610972E-2],"split_indices":[3,0,2,2,2,0,0,0,0,0,0,0,0,0,0,0,0,0,0,0,0,0,0],"split_type":[0,0,0,0,0,0,0,0,0,0,0,0,0,0,0,0,0,0,0,0,0,0,0],"sum_hessian":[2.4808712E6,1.0670401E6,1.413831E6,1.0612196E6,5.820468E3,4.2370044E5,9.9013056E5,6.385803E5,4.2263934E5,4.3306665E3,1.4898015E3,4.2230675E5,1.39371E3,9.867918E5,3.3387615E3,6.764504E2,3.6542158E3,3.0587523E1,1.459214E3,4.2228403E5,2.2698122E1,1.2008231E2,3.2186792E3],"tree_param":{"num_deleted":"0","num_feature":"4","num_nodes":"23","size_leaf_vector":"0"}},{"base_weights":[6.7675464E-2,-1.8065998E-2,1.3315697E-1,-1.6430594E-2,-3.25826E-1,3.641728E-4,1.910419E-1,-2.719111E-3,-1.9616247E-5,-4.3944857E-1,-9.605702E-3,3.2366108E-4,1.2635345E-3,1.9083839E-2,2.514954E-1,-5.4903787E-2,-4.192723E-2,-9.510596E-3,-7.7639E-4,3.3145654E-5,-1.4033078E-2,6.734038E-2,2.3622204E-2],"categories":[],"categories_nodes":[],"categories_segments":[],"categories_sizes":[],"default_left":[0,0,0,0,0,0,0,0,0,0,0,0,0,0,0,0,0,0,0,0,0,0,0],"id":37,"left_children":[1,3,5,7,9,11,13,-1,-1,15,17,19,-1,-1,21,-1,-1,-1,-1,-1,-1,-1,-1],"loss_changes":[1.3820661E4,5.364802E2,1.0728334E4,1.8522061E2,2.0242932E2,2.1062852E-1,1.1910156E1,0E0,0E0,8.934387E0,2.3394988E-1,4.630917E-1,0E0,0E0,2.0835648E1,0E0,0E0,0E0,0E0,0E0,0E0,0E0,0E0],"parents":[2147483647,0,0,1,1,2,2,3,3,4,4,5,5,6,6,9,9,10,10,11,11,14,14],"right_children":[2,4,6,8,10,12,14,-1,-1,16,18,20,-1,-1,22,-1,-1,-1,-1,-1,-1,-1,-1],"split_conditions":[1E0,1.3029276E14,1E0,1E0,1E0,1.3029309E14,1.3029276E14,-2.719111E-3,-1.9616247E-5,1.3029309E14,1.3029309E14,1.3029276E14,1.2635345E-3,1.9083839E-2,1.3029309E14,-5.4903787E-2,-4.192723E-2,-9.510596E-3,-7.7639E-4,3.3145654E-5,-1.4033078E-2,6.734038E-2,2.3622204E-2],"split_indices":[3,0,2,2,2,0,0,0,0,0,0,0,0,0,0,0,0,0,0,0,0,0,0],"split_type":[0,0,0,0,0,0,0,0,0,0,0,0,0,0,0,0,0,0,0,0,0,0,0],"sum_hessian":[2.4616088E6,1.0659088E6,1.3956999E6,1.0602756E6,5.6331445E3,4.236995E5,9.7200044E5,6.376364E5,4.2263925E5,4.1438193E3,1.4893248E3,4.223063E5,1.3931641E3,9.687434E5,3.257045E3,6.4021564E2,3.503604E3,3.0337936E1,1.4589868E3,4.222839E5,2.2406483E1,1.1228266E2,3.1447622E3],"tree_param":{"num_deleted":"0","num_feature":"4","num_nodes":"23","size_leaf_vector":"0"}},{"base_weights":[6.1403777E-2,-1.627972E-2,1.2137861E-1,-1.4800498E-2,-3.0305806E-1,3.2772555E-4,1.750498E-1,-2.4506634E-3,-1.7637334E-5,-4.1331115E-1,-8.655276E-3,2.9126104E-4,1.1376877E-3,1.7485939E-2,2.3195213E-1,-5.2238345E-2,-3.934874E-2,-8.655782E-3,-6.989036E-4,2.9831439E-5,-1.2842809E-2,6.4931825E-2,2.1747949E-2],"categories":[],"categories_nodes":[],"categories_segments":[],"categories_sizes":[],"default_left":[0,0,0,0,0,0,0,0,0,0,0,0,0,0,0,0,0,0,0,0,0,0,0],"id":38,"left_children":[1,3,5,7,9,11,13,-1,-1,15,17,19,-1,-1,21,-1,-1,-1,-1,-1,-1,-1,-1],"loss_changes":[1.1387676E4,4.5173053E2,8.961338E3,1.5037872E2,1.773685E2,1.7070606E-1,1.03125E1,0E0,0E0,8.390564E0,1.927897E-1,3.834523E-1,0E0,0E0,1.909233E1,0E0,0E0,0E0,0E0,0E0,0E0,0E0,0E0],"parents":[2147483647,0,0,1,1,2,2,3,3,4,4,5,5,6,6,9,9,10,10,11,11,14,14],"right_children":[2,4,6,8,10,12,14,-1,-1,16,18,20,-1,-1,22,-1,-1,-1,-1,-1,-1,-1,-1],"split_conditions":[1E0,1.3029276E14,1E0,1E0,1E0,1.3029309E14,1.3029276E14,-2.4506634E-3,-1.7637334E-5,1.3029309E14,1.3029309E14,1.3029276E14,1.1376877E-3,1.7485939E-2,1.3029309E14,-5.2238345E-2,-3.934874E-2,-8.655782E-3,-6.989036E-4,2.9831439E-5,-1.2842809E-2,6.4931825E-2,2.1747949E-2],"split_indices":[3,0,2,2,2,0,0,0,0,0,0,0,0,0,0,0,0,0,0,0,0,0,0],"split_type":[0,0,0,0,0,0,0,0,0,0,0,0,0,0,0,0,0,0,0,0,0,0,0],"sum_hessian":[2.444202E6,1.0648876E6,1.3793144E6,1.059424E6,5.4635264E3,4.2369862E5,9.5561575E5,6.367848E5,4.2263922E5,3.9746328E3,1.4888937E3,4.2230597E5,1.3926716E3,9.5243256E5,3.1831548E3,6.0738495E2,3.3672478E3,3.0111847E1,1.4587819E3,4.222838E5,2.2141949E1,1.05210236E2,3.0779446E3],"tree_param":{"num_deleted":"0","num_feature":"4","num_nodes":"23","size_leaf_vector":"0"}},{"base_weights":[5.567332E-2,-1.4668436E-2,1.1052161E-1,-1.3330988E-2,-2.812633E-1,2.9495065E-4,1.6016233E-1,-2.2084024E-3,-1.5878992E-5,-3.8775012E-1,-7.7987947E-3,2.6212833E-4,1.0243631E-3,1.5998473E-2,2.135368E-1,-4.9574874E-2,-3.6837142E-2,-7.872677E-3,-6.291546E-4,2.6851028E-5,-1.1742408E-2,6.246843E-2,1.9987267E-2],"categories":[],"categories_nodes":[],"categories_segments":[],"categories_sizes":[],"default_left":[0,0,0,0,0,0,0,0,0,0,0,0,0,0,0,0,0,0,0,0,0,0,0],"id":39,"left_children":[1,3,5,7,9,11,13,-1,-1,15,17,19,-1,-1,21,-1,-1,-1,-1,-1,-1,-1,-1],"loss_changes":[9.369377E3,3.7936108E2,7.466254E3,1.2205968E2,1.5465521E2,1.3835128E-1,8.884766E0,0E0,0E0,7.817383E0,1.5874182E-1,3.1721157E-1,0E0,0E0,1.7388382E1,0E0,0E0,0E0,0E0,0E0,0E0,0E0,0E0],"parents":[2147483647,0,0,1,1,2,2,3,3,4,4,5,5,6,6,9,9,10,10,11,11,14,14],"right_children":[2,4,6,8,10,12,14,-1,-1,16,18,20,-1,-1,22,-1,-1,-1,-1,-1,-1,-1,-1],"split_conditions":[1E0,1.3029276E14,1E0,1E0,1E0,1.3029309E14,1.3029276E14,-2.2084024E-3,-1.5878992E-5,1.3029309E14,1.3029309E14,1.3029276E14,1.0243631E-3,1.5998473E-2,1.3029309E14,-4.9574874E-2,-3.6837142E-2,-7.872677E-3,-6.291546E-4,2.6851028E-5,-1.1742408E-2,6.246843E-2,1.9987267E-2],"split_indices":[3,0,2,2,2,0,0,0,0,0,0,0,0,0,0,0,0,0,0,0,0,0,0],"split_type":[0,0,0,0,0,0,0,0,0,0,0,0,0,0,0,0,0,0,0,0,0,0,0],"sum_hessian":[2.4284788E6,1.0639659E6,1.3645129E6,1.0586559E6,5.309998E3,4.2369784E5,9.4081506E5,6.360167E5,4.226392E5,3.821494E3,1.4885044E3,4.2230562E5,1.3922274E3,9.376987E5,3.1163525E3,5.77649E2,3.2438447E3,2.9907097E1,1.4585973E3,4.2228372E5,2.190205E1,9.879976E1,3.017553E3],"tree_param":{"num_deleted":"0","num_feature":"4","num_nodes":"23","size_leaf_vector":"0"}},{"base_weights":[5.0443675E-2,-1.321533E-2,1.0053307E-1,-1.2006492E-2,-2.6048422E-1,2.6533616E-4,1.4633952E-1,-1.989852E-3,-1.4293421E-5,-3.6286843E-1,-7.0267757E-3,2.357929E-4,9.222682E-4,1.4617433E-2,1.962445E-1,-4.6925604E-2,-3.440189E-2,-7.156182E-3,-5.6634675E-4,2.4156738E-5,-1.0726898E-2,5.995807E-2,1.8338835E-2],"categories":[],"categories_nodes":[],"categories_segments":[],"categories_sizes":[],"default_left":[0,0,0,0,0,0,0,0,0,0,0,0,0,0,0,0,0,0,0,0,0,0,0],"id":40,"left_children":[1,3,5,7,9,11,13,-1,-1,15,17,19,-1,-1,21,-1,-1,-1,-1,-1,-1,-1,-1],"loss_changes":[7.698274E3,3.177768E2,6.2056904E3,9.905458E1,1.3421317E2,1.1212065E-1,7.6191406E0,0E0,0E0,7.2261353E0,1.3061208E-1,2.6218566E-1,0E0,0E0,1.5741577E1,0E0,0E0,0E0,0E0,0E0,0E0,0E0,0E0],"parents":[2147483647,0,0,1,1,2,2,3,3,4,4,5,5,6,6,9,9,10,10,11,11,14,14],"right_children":[2,4,6,8,10,12,14,-1,-1,16,18,20,-1,-1,22,-1,-1,-1,-1,-1,-1,-1,-1],"split_conditions":[1E0,1.3029276E14,1E0,1E0,1E0,1.3029309E14,1.3029276E14,-1.989852E-3,-1.4293421E-5,1.3029309E14,1.3029309E14,1.3029276E14,9.222682E-4,1.4617433E-2,1.3029309E14,-4.6925604E-2,-3.440189E-2,-7.156182E-3,-5.6634675E-4,2.4156738E-5,-1.0726898E-2,5.995807E-2,1.8338835E-2],"split_indices":[3,0,2,2,2,0,0,0,0,0,0,0,0,0,0,0,0,0,0,0,0,0,0],"split_type":[0,0,0,0,0,0,0,0,0,0,0,0,0,0,0,0,0,0,0,0,0,0,0],"sum_hessian":[2.4142795E6,1.0631344E6,1.3511452E6,1.0579632E6,5.171082E3,4.2369712E5,9.2744806E5,6.353241E5,4.2263912E5,3.68293E3,1.4881522E3,4.223053E5,1.3918269E3,9.2439206E5,3.0559836E3,5.507245E2,3.1322056E3,2.9721716E1,1.4584305E3,4.2228362E5,2.1684553E1,9.298943E1,2.9629944E3],"tree_param":{"num_deleted":"0","num_feature":"4","num_nodes":"23","size_leaf_vector":"0"}},{"base_weights":[4.5676906E-2,-1.1905069E-2,9.1360755E-2,-1.0812831E-2,-2.4075086E-1,2.3885246E-4,1.335378E-1,-1.7927267E-3,-1.286887E-5,-3.3875895E-1,-6.331202E-3,2.122608E-4,8.3033816E-4,1.3338456E-2,1.8005729E-1,-4.430292E-2,-3.2051306E-2,-6.501327E-3,-5.098199E-4,2.1748563E-5,-9.791263E-3,5.7410985E-2,1.6800031E-2],"categories":[],"categories_nodes":[],"categories_segments":[],"categories_sizes":[],"default_left":[0,0,0,0,0,0,0,0,0,0,0,0,0,0,0,0,0,0,0,0,0,0,0],"id":41,"left_children":[1,3,5,7,9,11,13,-1,-1,15,17,19,-1,-1,21,-1,-1,-1,-1,-1,-1,-1,-1],"loss_changes":[6.317205E3,2.655449E2,5.146408E3,8.037015E1,1.159397E2,9.0859845E-2,6.501953E0,0E0,0E0,6.6282654E0,1.0739342E-1,2.1653122E-1,0E0,0E0,1.4168381E1,0E0,0E0,0E0,0E0,0E0,0E0,0E0,0E0],"parents":[2147483647,0,0,1,1,2,2,3,3,4,4,5,5,6,6,9,9,10,10,11,11,14,14],"right_children":[2,4,6,8,10,12,14,-1,-1,16,18,20,-1,-1,22,-1,-1,-1,-1,-1,-1,-1,-1],"split_conditions":[1E0,1.3029276E14,1E0,1E0,1E0,1.3029309E14,1.3029276E14,-1.7927267E-3,-1.286887E-5,1.3029309E14,1.3029309E14,1.3029276E14,8.3033816E-4,1.3338456E-2,1.3029309E14,-4.430292E-2,-3.2051306E-2,-6.501327E-3,-5.098199E-4,2.1748563E-5,-9.791263E-3,5.7410985E-2,1.6800031E-2],"split_indices":[3,0,2,2,2,0,0,0,0,0,0,0,0,0,0,0,0,0,0,0,0,0,0],"split_type":[0,0,0,0,0,0,0,0,0,0,0,0,0,0,0,0,0,0,0,0,0,0,0],"sum_hessian":[2.4014602E6,1.0623842E6,1.3390759E6,1.0573389E6,5.045431E3,4.236965E5,9.1537944E5,6.346997E5,4.2263912E5,3.5575972E3,1.4878341E3,4.2230503E5,1.3914658E3,9.12378E5,3.0014392E3,5.263535E2,3.0312437E3,2.9553905E1,1.4582803E3,4.2228353E5,2.1487394E1,8.772562E1,2.9137136E3],"tree_param":{"num_deleted":"0","num_feature":"4","num_nodes":"23","size_leaf_vector":"0"}},{"base_weights":[4.133808E-2,-1.0723889E-2,8.295471E-2,-9.737308E-3,-2.2208111E-1,2.147573E-4,1.2171312E-1,-1.6149785E-3,-1.1587373E-5,-3.1550354E-1,-5.7041007E-3,1.9082226E-4,7.475296E-4,1.2157134E-2,1.6495384E-1,-4.171892E-2,-2.9792521E-2,-5.903431E-3,-4.5890297E-4,1.9554978E-5,-8.930527E-3,5.4837715E-2,1.5368074E-2],"categories":[],"categories_nodes":[],"categories_segments":[],"categories_sizes":[],"default_left":[0,0,0,0,0,0,0,0,0,0,0,0,0,0,0,0,0,0,0,0,0,0,0],"id":42,"left_children":[1,3,5,7,9,11,13,-1,-1,15,17,19,-1,-1,21,-1,-1,-1,-1,-1,-1,-1,-1],"loss_changes":[5.178049E3,2.2138655E2,4.2593174E3,6.52002E1,9.97124E1,7.362915E-2,5.524414E0,0E0,0E0,6.033966E0,8.824849E-2,1.7869206E-1,0E0,0E0,1.2680466E1,0E0,0E0,0E0,0E0,0E0,0E0,0E0,0E0],"parents":[2147483647,0,0,1,1,2,2,3,3,4,4,5,5,6,6,9,9,10,10,11,11,14,14],"right_children":[2,4,6,8,10,12,14,-1,-1,16,18,20,-1,-1,22,-1,-1,-1,-1,-1,-1,-1,-1],"split_conditions":[1E0,1.3029276E14,1E0,1E0,1E0,1.3029309E14,1.3029276E14,-1.6149785E-3,-1.1587373E-5,1.3029309E14,1.3029309E14,1.3029276E14,7.475296E-4,1.2157134E-2,1.3029309E14,-4.171892E-2,-2.9792521E-2,-5.903431E-3,-4.5890297E-4,1.9554978E-5,-8.930527E-3,5.4837715E-2,1.5368074E-2],"split_indices":[3,0,2,2,2,0,0,0,0,0,0,0,0,0,0,0,0,0,0,0,0,0,0],"split_type":[0,0,0,0,0,0,0,0,0,0,0,0,0,0,0,0,0,0,0,0,0,0,0],"sum_hessian":[2.3898925E6,1.0617078E6,1.3281846E6,1.056776E6,4.9318145E3,4.236959E5,9.044887E5,6.341369E5,4.2263912E5,3.4442676E3,1.4875469E3,4.2230478E5,1.3911403E3,9.0153656E5,2.9521812E3,5.0430048E2,2.939967E3,2.9402027E1,1.4581449E3,4.2228347E5,2.1308702E1,8.295776E1,2.8692234E3],"tree_param":{"num_deleted":"0","num_feature":"4","num_nodes":"23","size_leaf_vector":"0"}},{"base_weights":[3.7391655E-2,-9.658985E-3,7.5261034E-2,-8.768092E-3,-2.0448141E-1,1.9350284E-4,1.1081166E-1,-1.4547056E-3,-1.04131095E-5,-2.931711E-1,-5.139262E-3,1.7195912E-4,6.7300256E-4,1.1068078E-2,1.5089951E-1,-3.918524E-2,-2.7631307E-2,-5.358053E-3,-4.1309194E-4,1.762367E-5,-8.1398375E-3,5.2248746E-2,1.4038964E-2],"categories":[],"categories_nodes":[],"categories_segments":[],"categories_sizes":[],"default_left":[0,0,0,0,0,0,0,0,0,0,0,0,0,0,0,0,0,0,0,0,0,0,0],"id":43,"left_children":[1,3,5,7,9,11,13,-1,-1,15,17,19,-1,-1,21,-1,-1,-1,-1,-1,-1,-1,-1],"loss_changes":[4.239661E3,1.8416885E2,3.5182944E3,5.2886047E1,8.539288E1,5.9664205E-2,4.6777344E0,0E0,0E0,5.452759E0,7.2474636E-2,1.4736614E-1,0E0,0E0,1.1286125E1,0E0,0E0,0E0,0E0,0E0,0E0,0E0,0E0],"parents":[2147483647,0,0,1,1,2,2,3,3,4,4,5,5,6,6,9,9,10,10,11,11,14,14],"right_children":[2,4,6,8,10,12,14,-1,-1,16,18,20,-1,-1,22,-1,-1,-1,-1,-1,-1,-1,-1],"split_conditions":[1E0,1.3029276E14,1E0,1E0,1E0,1.3029309E14,1.3029276E14,-1.4547056E-3,-1.04131095E-5,1.3029309E14,1.3029309E14,1.3029276E14,6.7300256E-4,1.1068078E-2,1.3029309E14,-3.918524E-2,-2.7631307E-2,-5.358053E-3,-4.1309194E-4,1.762367E-5,-8.1398375E-3,5.2248746E-2,1.4038964E-2],"split_indices":[3,0,2,2,2,0,0,0,0,0,0,0,0,0,0,0,0,0,0,0,0,0,0],"split_type":[0,0,0,0,0,0,0,0,0,0,0,0,0,0,0,0,0,0,0,0,0,0,0],"sum_hessian":[2.3794535E6,1.0610978E6,1.3183556E6,1.0562688E6,4.829111E3,4.2369538E5,8.9466025E5,6.336296E5,4.2263906E5,3.3418232E3,1.4872874E3,4.2230453E5,1.390847E3,8.917525E5,2.9077012E3,4.843507E2,2.8574727E3,2.9264595E1,1.4580228E3,4.2228338E5,2.1146776E1,7.8638535E1,2.8290627E3],"tree_param":{"num_deleted":"0","num_feature":"4","num_nodes":"23","size_leaf_vector":"0"}},{"base_weights":[3.3806484E-2,-8.699298E-3,6.8231635E-2,-7.895025E-3,-1.8794748E-1,1.7411326E-4,1.0078499E-1,-1.3102278E-3,-9.3819E-6,-2.7181748E-1,-4.630054E-3,1.5472218E-4,6.0586276E-4,1.0066443E-2,1.3785897E-1,-3.671281E-2,-2.557211E-2,-4.861035E-3,-3.718274E-4,1.5859263E-5,-7.4144267E-3,4.965733E-2,1.2808645E-2],"categories":[],"categories_nodes":[],"categories_segments":[],"categories_sizes":[],"default_left":[0,0,0,0,0,0,0,0,0,0,0,0,0,0,0,0,0,0,0,0,0,0,0],"id":44,"left_children":[1,3,5,7,9,11,13,-1,-1,15,17,19,-1,-1,21,-1,-1,-1,-1,-1,-1,-1,-1],"loss_changes":[3.4680017E3,1.528919E2,2.9011782E3,4.289012E1,7.283394E1,4.83458E-2,3.946289E0,0E0,0E0,4.892502E0,5.9490696E-2,1.21454135E-1,0E0,0E0,9.992233E0,0E0,0E0,0E0,0E0,0E0,0E0,0E0,0E0],"parents":[2147483647,0,0,1,1,2,2,3,3,4,4,5,5,6,6,9,9,10,10,11,11,14,14],"right_children":[2,4,6,8,10,12,14,-1,-1,16,18,20,-1,-1,22,-1,-1,-1,-1,-1,-1,-1,-1],"split_conditions":[1E0,1.3029276E14,1E0,1E0,1E0,1.3029309E14,1.3029276E14,-1.3102278E-3,-9.3819E-6,1.3029309E14,1.3029309E14,1.3029276E14,6.0586276E-4,1.0066443E-2,1.3029309E14,-3.671281E-2,-2.557211E-2,-4.861035E-3,-3.718274E-4,1.5859263E-5,-7.4144267E-3,4.965733E-2,1.2808645E-2],"split_indices":[3,0,2,2,2,0,0,0,0,0,0,0,0,0,0,0,0,0,0,0,0,0,0],"split_type":[0,0,0,0,0,0,0,0,0,0,0,0,0,0,0,0,0,0,0,0,0,0,0],"sum_hessian":[2.3700378E6,1.0605479E6,1.3094899E6,1.0558115E6,4.7363003E3,4.236949E5,8.8579494E5,6.331725E5,4.2263903E5,3.2492468E3,1.4870532E3,4.2230434E5,1.3905826E3,8.829274E5,2.867552E3,4.6630875E2,2.7829382E3,2.9140257E1,1.457913E3,4.2228334E5,2.1000063E1,7.472841E1,2.7928237E3],"tree_param":{"num_deleted":"0","num_feature":"4","num_nodes":"23","size_leaf_vector":"0"}},{"base_weights":[3.05514E-2,-7.834415E-3,6.181623E-2,-7.1085184E-3,-1.7246573E-1,1.5656967E-4,9.157801E-2,-1.18002E-3,-8.4282065E-6,-2.5148478E-1,-4.1715605E-3,1.391155E-4,5.4542033E-4,9.146716E-3,1.2578793E-1,-3.431155E-2,-2.361802E-2,-4.4084056E-3,-3.3471544E-4,1.4261757E-5,-6.7497143E-3,4.7075E-2,1.16723515E-2],"categories":[],"categories_nodes":[],"categories_segments":[],"categories_sizes":[],"default_left":[0,0,0,0,0,0,0,0,0,0,0,0,0,0,0,0,0,0,0,0,0,0,0],"id":45,"left_children":[1,3,5,7,9,11,13,-1,-1,15,17,19,-1,-1,21,-1,-1,-1,-1,-1,-1,-1,-1],"loss_changes":[2.8341528E3,1.2668074E2,2.388372E3,3.478123E1,6.188263E1,3.9176606E-2,3.3168945E0,0E0,0E0,4.359726E0,4.8808537E-2,1.0004001E-1,0E0,0E0,8.801357E0,0E0,0E0,0E0,0E0,0E0,0E0,0E0,0E0],"parents":[2147483647,0,0,1,1,2,2,3,3,4,4,5,5,6,6,9,9,10,10,11,11,14,14],"right_children":[2,4,6,8,10,12,14,-1,-1,16,18,20,-1,-1,22,-1,-1,-1,-1,-1,-1,-1,-1],"split_conditions":[1E0,1.3029276E14,1E0,1E0,1E0,1.3029309E14,1.3029276E14,-1.18002E-3,-8.4282065E-6,1.3029309E14,1.3029309E14,1.3029276E14,5.4542033E-4,9.146716E-3,1.3029309E14,-3.431155E-2,-2.361802E-2,-4.4084056E-3,-3.3471544E-4,1.4261757E-5,-6.7497143E-3,4.7075E-2,1.16723515E-2],"split_indices":[3,0,2,2,2,0,0,0,0,0,0,0,0,0,0,0,0,0,0,0,0,0,0],"split_type":[0,0,0,0,0,0,0,0,0,0,0,0,0,0,0,0,0,0,0,0,0,0,0],"sum_hessian":[2.3615445E6,1.0600521E6,1.3014924E6,1.0553996E6,4.652452E3,4.236945E5,8.7779794E5,6.327607E5,4.2263903E5,3.1656106E3,1.4868416E3,4.2230416E5,1.3903445E3,8.749666E5,2.831316E3,4.4999655E2,2.715614E3,2.9027771E1,1.4578137E3,4.2228328E5,2.0867151E1,7.118829E1,2.7601277E3],"tree_param":{"num_deleted":"0","num_feature":"4","num_nodes":"23","size_leaf_vector":"0"}},{"base_weights":[2.7599677E-2,-7.055149E-3,5.597093E-2,-6.400141E-3,-1.5801363E-1,1.408528E-4,8.314203E-2,-1.062669E-3,-7.5997136E-6,-2.322016E-1,-3.7581173E-3,1.2514279E-4,4.9098383E-4,8.304032E-3,1.1464212E-1,-3.199024E-2,-2.1770822E-2,-3.9965454E-3,-3.0127403E-4,1.2831158E-5,-6.1412877E-3,4.4513654E-2,1.0625403E-2],"categories":[],"categories_nodes":[],"categories_segments":[],"categories_sizes":[],"default_left":[0,0,0,0,0,0,0,0,0,0,0,0,0,0,0,0,0,0,0,0,0,0,0],"id":46,"left_children":[1,3,5,7,9,11,13,-1,-1,15,17,19,-1,-1,21,-1,-1,-1,-1,-1,-1,-1,-1],"loss_changes":[2.314346E3,1.0477184E2,1.9633818E3,2.8200207E1,5.2386147E1,3.1742983E-2,2.7802734E0,0E0,0E0,3.8593597E0,4.0028486E-2,8.235762E-2,0E0,0E0,7.713867E0,0E0,0E0,0E0,0E0,0E0,0E0,0E0,0E0],"parents":[2147483647,0,0,1,1,2,2,3,3,4,4,5,5,6,6,9,9,10,10,11,11,14,14],"right_children":[2,4,6,8,10,12,14,-1,-1,16,18,20,-1,-1,22,-1,-1,-1,-1,-1,-1,-1,-1],"split_conditions":[1E0,1.3029276E14,1E0,1E0,1E0,1.3029309E14,1.3029276E14,-1.062669E-3,-7.5997136E-6,1.3029309E14,1.3029309E14,1.3029276E14,4.9098383E-4,8.304032E-3,1.3029309E14,-3.199024E-2,-2.1770822E-2,-3.9965454E-3,-3.0127403E-4,1.2831158E-5,-6.1412877E-3,4.4513654E-2,1.0625403E-2],"split_indices":[3,0,2,2,2,0,0,0,0,0,0,0,0,0,0,0,0,0,0,0,0,0,0],"split_type":[0,0,0,0,0,0,0,0,0,0,0,0,0,0,0,0,0,0,0,0,0,0,0],"sum_hessian":[2.353888E6,1.0596054E6,1.2942826E6,1.0550286E6,4.5767217E3,4.2369412E5,8.705885E5,6.323896E5,4.2263903E5,3.090071E3,1.4866506E3,4.2230397E5,1.39013E3,8.677899E5,2.7986226E3,4.352519E2,2.654819E3,2.892603E1,1.4577246E3,4.2228325E5,2.0746754E1,6.798329E1,2.7306392E3],"tree_param":{"num_deleted":"0","num_feature":"4","num_nodes":"23","size_leaf_vector":"0"}},{"base_weights":[2.492361E-2,-6.353208E-3,5.064885E-2,-5.76229E-3,-1.4456232E-1,1.2694727E-4,7.542157E-2,-9.5695426E-4,-6.854612E-6,-2.1398406E-1,-3.3858796E-3,1.1280738E-4,4.4198963E-4,7.5328387E-3,1.0436922E-1,-2.975649E-2,-2.0031102E-2,-3.6219803E-3,-2.711998E-4,1.156746E-5,-5.584953E-3,4.1986614E-2,9.662311E-3],"categories":[],"categories_nodes":[],"categories_segments":[],"categories_sizes":[],"default_left":[0,0,0,0,0,0,0,0,0,0,0,0,0,0,0,0,0,0,0,0,0,0,0],"id":47,"left_children":[1,3,5,7,9,11,13,-1,-1,15,17,19,-1,-1,21,-1,-1,-1,-1,-1,-1,-1,-1],"loss_changes":[1.8883926E3,8.650458E1,1.6117429E3,2.2863178E1,4.419403E1,2.5718562E-2,2.322754E0,0E0,0E0,3.3949432E0,3.2813974E-2,6.776807E-2,0E0,0E0,6.729265E0,0E0,0E0,0E0,0E0,0E0,0E0,0E0,0E0],"parents":[2147483647,0,0,1,1,2,2,3,3,4,4,5,5,6,6,9,9,10,10,11,11,14,14],"right_children":[2,4,6,8,10,12,14,-1,-1,16,18,20,-1,-1,22,-1,-1,-1,-1,-1,-1,-1,-1],"split_conditions":[1E0,1.3029276E14,1E0,1E0,1E0,1.3029309E14,1.3029276E14,-9.5695426E-4,-6.854612E-6,1.3029309E14,1.3029309E14,1.3029276E14,4.4198963E-4,7.5328387E-3,1.3029309E14,-2.975649E-2,-2.0031102E-2,-3.6219803E-3,-2.711998E-4,1.156746E-5,-5.584953E-3,4.1986614E-2,9.662311E-3],"split_indices":[3,0,2,2,2,0,0,0,0,0,0,0,0,0,0,0,0,0,0,0,0,0,0],"split_type":[0,0,0,0,0,0,0,0,0,0,0,0,0,0,0,0,0,0,0,0,0,0,0],"sum_hessian":[2.3469835E6,1.0592028E6,1.2877809E6,1.0546944E6,4.50834E3,4.2369375E5,8.640871E5,6.320554E5,4.2263897E5,3.0218618E3,1.486478E3,4.223038E5,1.3899366E3,8.61318E5,2.7691199E3,4.2192786E2,2.5999338E3,2.883401E1,1.457644E3,4.222832E5,2.0637705E1,6.5083595E1,2.7040364E3],"tree_param":{"num_deleted":"0","num_feature":"4","num_nodes":"23","size_leaf_vector":"0"}},{"base_weights":[2.2499982E-2,-5.72049E-3,4.5809496E-2,-5.187495E-3,-1.3207631E-1,1.1412445E-4,6.836857E-2,-8.6167344E-4,-6.1513197E-6,-1.968358E-1,-3.0502395E-3,1.01397E-4,3.9787288E-4,6.828332E-3,9.492574E-2,-2.761646E-2,-1.8398313E-2,-3.2815859E-3,-2.4410126E-4,1.0399136E-5,-5.076721E-3,3.9504103E-2,8.778677E-3],"categories":[],"categories_nodes":[],"categories_segments":[],"categories_sizes":[],"default_left":[0,0,0,0,0,0,0,0,0,0,0,0,0,0,0,0,0,0,0,0,0,0,0],"id":48,"left_children":[1,3,5,7,9,11,13,-1,-1,15,17,19,-1,-1,21,-1,-1,-1,-1,-1,-1,-1,-1],"loss_changes":[1.5397656E3,7.13091E1,1.3214629E3,1.8534372E1,3.71621E1,2.0839665E-2,1.9362793E0,0E0,0E0,2.9684906E0,2.6891027E-2,5.5737317E-2,0E0,0E0,5.8433456E0,0E0,0E0,0E0,0E0,0E0,0E0,0E0,0E0],"parents":[2147483647,0,0,1,1,2,2,3,3,4,4,5,5,6,6,9,9,10,10,11,11,14,14],"right_children":[2,4,6,8,10,12,14,-1,-1,16,18,20,-1,-1,22,-1,-1,-1,-1,-1,-1,-1,-1],"split_conditions":[1E0,1.3029276E14,1E0,1E0,1E0,1.3029309E14,1.3029276E14,-8.6167344E-4,-6.1513197E-6,1.3029309E14,1.3029309E14,1.3029276E14,3.9787288E-4,6.828332E-3,1.3029309E14,-2.761646E-2,-1.8398313E-2,-3.2815859E-3,-2.4410126E-4,1.0399136E-5,-5.076721E-3,3.9504103E-2,8.778677E-3],"split_indices":[3,0,2,2,2,0,0,0,0,0,0,0,0,0,0,0,0,0,0,0,0,0,0],"split_type":[0,0,0,0,0,0,0,0,0,0,0,0,0,0,0,0,0,0,0,0,0,0,0],"sum_hessian":[2.3407602E6,1.0588399E6,1.2819205E6,1.0543932E6,4.446608E3,4.2369347E5,8.58227E5,6.3175425E5,4.2263903E5,2.9602854E3,1.4863225E3,4.223037E5,1.3897626E3,8.554845E5,2.7425178E3,4.0989023E2,2.550395E3,2.8750797E1,1.4575717E3,4.2228316E5,2.0538944E1,6.2459183E1,2.6800586E3],"tree_param":{"num_deleted":"0","num_feature":"4","num_nodes":"23","size_leaf_vector":"0"}},{"base_weights":[2.0306185E-2,-5.1508397E-3,4.141362E-2,-4.6701776E-3,-1.20516144E-1,1.0284704E-4,6.1934356E-2,-7.758689E-4,-5.5492724E-6,-1.8075012E-1,-2.7477911E-3,9.1391244E-5,3.5817132E-4,6.185649E-3,8.625564E-2,-2.5574977E-2,-1.6870959E-2,-2.9723875E-3,-2.1970372E-4,9.373872E-6,-4.612835E-3,3.7077058E-2,7.96882E-3],"categories":[],"categories_nodes":[],"categories_segments":[],"categories_sizes":[],"default_left":[0,0,0,0,0,0,0,0,0,0,0,0,0,0,0,0,0,0,0,0,0,0,0],"id":49,"left_children":[1,3,5,7,9,11,13,-1,-1,15,17,19,-1,-1,21,-1,-1,-1,-1,-1,-1,-1,-1],"loss_changes":[1.2547537E3,5.869587E1,1.0822427E3,1.5023893E1,3.1154076E1,1.6885232E-2,1.6101074E0,0E0,0E0,2.5808105E0,2.203003E-2,4.5824148E-2,0E0,0E0,5.0519714E0,0E0,0E0,0E0,0E0,0E0,0E0,0E0,0E0],"parents":[2147483647,0,0,1,1,2,2,3,3,4,4,5,5,6,6,9,9,10,10,11,11,14,14],"right_children":[2,4,6,8,10,12,14,-1,-1,16,18,20,-1,-1,22,-1,-1,-1,-1,-1,-1,-1,-1],"split_conditions":[1E0,1.3029276E14,1E0,1E0,1E0,1.3029309E14,1.3029276E14,-7.758689E-4,-5.5492724E-6,1.3029309E14,1.3029309E14,1.3029276E14,3.5817132E-4,6.185649E-3,1.3029309E14,-2.5574977E-2,-1.6870959E-2,-2.9723875E-3,-2.1970372E-4,9.373872E-6,-4.612835E-3,3.7077058E-2,7.96882E-3],"split_indices":[3,0,2,2,2,0,0,0,0,0,0,0,0,0,0,0,0,0,0,0,0,0,0],"split_type":[0,0,0,0,0,0,0,0,0,0,0,0,0,0,0,0,0,0,0,0,0,0,0],"sum_hessian":[2.335152E6,1.058513E6,1.276639E6,1.0541221E6,4.390892E3,4.2369316E5,8.529458E5,6.314831E5,4.2263897E5,2.90471E3,1.486182E3,4.2230356E5,1.3896058E3,8.5022725E5,2.71852E3,3.990174E2,2.5056926E3,2.8675552E1,1.4575063E3,4.2228312E5,2.044951E1,6.0084423E1,2.6584355E3],"tree_param":{"num_deleted":"0","num_feature":"4","num_nodes":"23","size_leaf_vector":"0"}},{"base_weights":[1.8321117E-2,-4.6375617E-3,3.7423003E-2,-4.204165E-3,-1.0983873E-1,9.238928E-5,5.6070685E-2,-6.9856894E-4,-4.9770556E-6,-1.6571045E-1,-2.4755576E-3,8.207731E-5,3.2242198E-4,5.599964E-3,7.831411E-2,-2.3635516E-2,-1.5446669E-2,-2.6916717E-3,-1.9776872E-4,8.420137E-6,-4.1897395E-3,3.47166E-2,7.2282325E-3],"categories":[],"categories_nodes":[],"categories_segments":[],"categories_sizes":[],"default_left":[0,0,0,0,0,0,0,0,0,0,0,0,0,0,0,0,0,0,0,0,0,0,0],"id":50,"left_children":[1,3,5,7,9,11,13,-1,-1,15,17,19,-1,-1,21,-1,-1,-1,-1,-1,-1,-1,-1],"loss_changes":[1.02187445E3,4.824785E1,8.8539307E2,1.2178146E1,2.6043056E1,1.3683075E-2,1.3356934E0,0E0,0E0,2.231697E0,1.8042035E-2,3.7659135E-2,0E0,0E0,4.3499584E0,0E0,0E0,0E0,0E0,0E0,0E0,0E0,0E0],"parents":[2147483647,0,0,1,1,2,2,3,3,4,4,5,5,6,6,9,9,10,10,11,11,14,14],"right_children":[2,4,6,8,10,12,14,-1,-1,16,18,20,-1,-1,22,-1,-1,-1,-1,-1,-1,-1,-1],"split_conditions":[1E0,1.3029276E14,1E0,1E0,1E0,1.3029309E14,1.3029276E14,-6.9856894E-4,-4.9770556E-6,1.3029309E14,1.3029309E14,1.3029276E14,3.2242198E-4,5.599964E-3,1.3029309E14,-2.3635516E-2,-1.5446669E-2,-2.6916717E-3,-1.9776872E-4,8.420137E-6,-4.1897395E-3,3.47166E-2,7.2282325E-3],"split_indices":[3,0,2,2,2,0,0,0,0,0,0,0,0,0,0,0,0,0,0,0,0,0,0],"split_type":[0,0,0,0,0,0,0,0,0,0,0,0,0,0,0,0,0,0,0,0,0,0,0],"sum_hessian":[2.3300972E6,1.0582185E6,1.2718788E6,1.0538779E6,4.340616E3,4.236929E5,8.481859E5,6.312389E5,4.2263897E5,2.854561E3,1.4860552E3,4.2230344E5,1.3894646E3,8.45489E5,2.6968882E3,3.8919885E2,2.4653623E3,2.8607521E1,1.4574478E3,4.222831E5,2.0368523E1,5.793697E1,2.6389512E3],"tree_param":{"num_deleted":"0","num_feature":"4","num_nodes":"23","size_leaf_vector":"0"}},{"base_weights":[1.6526286E-2,-4.1752914E-3,3.3804182E-2,-3.7845722E-3,-9.999831E-2,8.321592E-5,5.0734337E-2,-6.2893477E-4,-4.4823555E-6,-1.5169193E-1,-2.2301371E-3,7.3934265E-5,2.9023874E-4,5.0669606E-3,7.1046434E-2,-2.1800235E-2,-1.4122349E-2,-2.4369347E-3,-1.7800838E-4,7.5856196E-6,-3.8041428E-3,3.2429878E-2,6.551524E-3],"categories":[],"categories_nodes":[],"categories_segments":[],"categories_sizes":[],"default_left":[0,0,0,0,0,0,0,0,0,0,0,0,0,0,0,0,0,0,0,0,0,0,0],"id":51,"left_children":[1,3,5,7,9,11,13,-1,-1,15,17,19,-1,-1,21,-1,-1,-1,-1,-1,-1,-1,-1],"loss_changes":[8.3180005E2,3.9609303E1,7.2366907E2,9.869866E0,2.1712914E1,1.1086397E-2,1.105957E0,0E0,0E0,1.9200363E0,1.477224E-2,3.09388E-2,0E0,0E0,3.7305908E0,0E0,0E0,0E0,0E0,0E0,0E0,0E0,0E0],"parents":[2147483647,0,0,1,1,2,2,3,3,4,4,5,5,6,6,9,9,10,10,11,11,14,14],"right_children":[2,4,6,8,10,12,14,-1,-1,16,18,20,-1,-1,22,-1,-1,-1,-1,-1,-1,-1,-1],"split_conditions":[1E0,1.3029276E14,1E0,1E0,1E0,1.3029309E14,1.3029276E14,-6.2893477E-4,-4.4823555E-6,1.3029309E14,1.3029309E14,1.3029276E14,2.9023874E-4,5.0669606E-3,1.3029309E14,-2.1800235E-2,-1.4122349E-2,-2.4369347E-3,-1.7800838E-4,7.5856196E-6,-3.8041428E-3,3.2429878E-2,6.551524E-3],"split_indices":[3,0,2,2,2,0,0,0,0,0,0,0,0,0,0,0,0,0,0,0,0,0,0],"split_type":[0,0,0,0,0,0,0,0,0,0,0,0,0,0,0,0,0,0,0,0,0,0,0],"sum_hessian":[2.3255432E6,1.0579532E6,1.26759E6,1.053658E6,4.295259E3,4.236927E5,8.4389725E5,6.31019E5,4.2263897E5,2.8093179E3,1.4859408E3,4.2230334E5,1.3893374E3,8.412199E5,2.677378E3,3.8033438E2,2.4289836E3,2.8546013E1,1.4573949E3,4.2228306E5,2.0295195E1,5.5993984E1,2.621384E3],"tree_param":{"num_deleted":"0","num_feature":"4","num_nodes":"23","size_leaf_vector":"0"}},{"base_weights":[1.4904148E-2,-3.7590715E-3,3.0524889E-2,-3.4068774E-3,-9.094796E-2,7.484094E-5,4.588313E-2,-5.6623464E-4,-4.041215E-6,-1.386629E-1,-2.008935E-3,6.6487286E-5,2.6123514E-4,4.5824205E-3,6.440996E-2,-2.0070031E-2,-1.28943445E-2,-2.2058778E-3,-1.6021133E-4,6.8226323E-6,-3.4529455E-3,3.022561E-2,5.9344904E-3],"categories":[],"categories_nodes":[],"categories_segments":[],"categories_sizes":[],"default_left":[0,0,0,0,0,0,0,0,0,0,0,0,0,0,0,0,0,0,0,0,0,0,0],"id":52,"left_children":[1,3,5,7,9,11,13,-1,-1,15,17,19,-1,-1,21,-1,-1,-1,-1,-1,-1,-1,-1],"loss_changes":[6.7677765E2,3.2479385E1,5.909935E2,7.9988832E0,1.8058224E1,8.981053E-3,9.141846E-1,0E0,0E0,1.6440506E0,1.2092359E-2,2.5409583E-2,0E0,0E0,3.1875286E0,0E0,0E0,0E0,0E0,0E0,0E0,0E0,0E0],"parents":[2147483647,0,0,1,1,2,2,3,3,4,4,5,5,6,6,9,9,10,10,11,11,14,14],"right_children":[2,4,6,8,10,12,14,-1,-1,16,18,20,-1,-1,22,-1,-1,-1,-1,-1,-1,-1,-1],"split_conditions":[1E0,1.3029276E14,1E0,1E0,1E0,1.3029309E14,1.3029276E14,-5.6623464E-4,-4.041215E-6,1.3029309E14,1.3029309E14,1.3029276E14,2.6123514E-4,4.5824205E-3,1.3029309E14,-2.0070031E-2,-1.28943445E-2,-2.2058778E-3,-1.6021133E-4,6.8226323E-6,-3.4529455E-3,3.022561E-2,5.9344904E-3],"split_indices":[3,0,2,2,2,0,0,0,0,0,0,0,0,0,0,0,0,0,0,0,0,0,0],"split_type":[0,0,0,0,0,0,0,0,0,0,0,0,0,0,0,0,0,0,0,0,0,0,0],"sum_hessian":[2.3214405E6,1.0577141E6,1.2637262E6,1.0534599E6,4.2543467E3,4.236925E5,8.400338E5,6.3082094E5,4.2263894E5,2.7685088E3,1.4858376E3,4.2230325E5,1.3892228E3,8.37374E5,2.6597964E3,3.723328E2,2.396176E3,2.849041E1,1.4573472E3,4.2228303E5,2.0228802E1,5.4237133E1,2.6055593E3],"tree_param":{"num_deleted":"0","num_feature":"4","num_nodes":"23","size_leaf_vector":"0"}},{"base_weights":[1.3438577E-2,-3.3840674E-3,2.755481E-2,-3.06664E-3,-8.264008E-2,6.725765E-5,4.1476518E-2,-5.097526E-4,-3.6240308E-6,-1.2658596E-1,-1.8099522E-3,5.9738213E-5,2.3515371E-4,4.1422932E-3,5.8356322E-2,-1.8444646E-2,-1.1758528E-2,-1.9963526E-3,-1.442228E-4,6.1311744E-6,-3.133266E-3,2.8110037E-2,5.3724037E-3],"categories":[],"categories_nodes":[],"categories_segments":[],"categories_sizes":[],"default_left":[0,0,0,0,0,0,0,0,0,0,0,0,0,0,0,0,0,0,0,0,0,0,0],"id":53,"left_children":[1,3,5,7,9,11,13,-1,-1,15,17,19,-1,-1,21,-1,-1,-1,-1,-1,-1,-1,-1],"loss_changes":[5.5040063E2,2.6604368E1,4.8226324E2,6.482318E0,1.4984339E1,7.2774244E-3,7.5427246E-1,0E0,0E0,1.4014626E0,9.895981E-3,2.0862423E-2,0E0,0E0,2.7139978E0,0E0,0E0,0E0,0E0,0E0,0E0,0E0,0E0],"parents":[2147483647,0,0,1,1,2,2,3,3,4,4,5,5,6,6,9,9,10,10,11,11,14,14],"right_children":[2,4,6,8,10,12,14,-1,-1,16,18,20,-1,-1,22,-1,-1,-1,-1,-1,-1,-1,-1],"split_conditions":[1E0,1.3029276E14,1E0,1E0,1E0,1.3029309E14,1.3029276E14,-5.097526E-4,-3.6240308E-6,1.3029309E14,1.3029309E14,1.3029276E14,2.3515371E-4,4.1422932E-3,1.3029309E14,-1.8444646E-2,-1.1758528E-2,-1.9963526E-3,-1.442228E-4,6.1311744E-6,-3.133266E-3,2.8110037E-2,5.3724037E-3],"split_indices":[3,0,2,2,2,0,0,0,0,0,0,0,0,0,0,0,0,0,0,0,0,0,0],"split_type":[0,0,0,0,0,0,0,0,0,0,0,0,0,0,0,0,0,0,0,0,0,0,0],"sum_hessian":[2.3177445E6,1.057499E6,1.2602455E6,1.0532816E6,4.2174487E3,4.236923E5,8.365532E5,6.306426E5,4.2263897E5,2.7317043E3,1.4857443E3,4.223032E5,1.3891196E3,8.3390925E5,2.643951E3,3.6511142E2,2.3665928E3,2.8440144E1,1.4573041E3,4.22283E5,2.0168694E1,5.2648743E1,2.591302E3],"tree_param":{"num_deleted":"0","num_feature":"4","num_nodes":"23","size_leaf_vector":"0"}},{"base_weights":[1.2114907E-2,-3.0466344E-3,2.4866667E-2,-2.7605763E-3,-7.502708E-2,6.0695136E-5,3.7477482E-2,-4.5890894E-4,-3.2842488E-6,-1.15419775E-1,-1.6304678E-3,5.39271E-5,2.1168492E-4,3.7428797E-3,5.2838717E-2,-1.6922882E-2,-1.0710472E-2,-1.806451E-3,-1.2980837E-4,5.5350897E-6,-2.842454E-3,2.6088357E-2,4.860701E-3],"categories":[],"categories_nodes":[],"categories_segments":[],"categories_sizes":[],"default_left":[0,0,0,0,0,0,0,0,0,0,0,0,0,0,0,0,0,0,0,0,0,0,0],"id":54,"left_children":[1,3,5,7,9,11,13,-1,-1,15,17,19,-1,-1,21,-1,-1,-1,-1,-1,-1,-1,-1],"loss_changes":[4.4746085E2,2.1770351E1,3.9325403E2,5.252652E0,1.2407553E1,5.8960537E-3,6.212158E-1,0E0,0E0,1.1897049E0,8.09731E-3,1.7125025E-2,0E0,0E0,2.3033156E0,0E0,0E0,0E0,0E0,0E0,0E0,0E0,0E0],"parents":[2147483647,0,0,1,1,2,2,3,3,4,4,5,5,6,6,9,9,10,10,11,11,14,14],"right_children":[2,4,6,8,10,12,14,-1,-1,16,18,20,-1,-1,22,-1,-1,-1,-1,-1,-1,-1,-1],"split_conditions":[1E0,1.3029276E14,1E0,1E0,1E0,1.3029309E14,1.3029276E14,-4.5890894E-4,-3.2842488E-6,1.3029309E14,1.3029309E14,1.3029276E14,2.1168492E-4,3.7428797E-3,1.3029309E14,-1.6922882E-2,-1.0710472E-2,-1.806451E-3,-1.2980837E-4,5.5350897E-6,-2.842454E-3,2.6088357E-2,4.860701E-3],"split_indices":[3,0,2,2,2,0,0,0,0,0,0,0,0,0,0,0,0,0,0,0,0,0,0],"split_type":[0,0,0,0,0,0,0,0,0,0,0,0,0,0,0,0,0,0,0,0,0,0,0],"sum_hessian":[2.3144152E6,1.0573051E6,1.2571101E6,1.053121E6,4.184178E3,4.2369212E5,8.33418E5,6.3048206E5,4.2263894E5,2.698518E3,1.4856603E3,4.223031E5,1.3890267E3,8.307884E5,2.6296646E3,3.5859543E2,2.3399226E3,2.8394712E1,1.4572656E3,4.2228297E5,2.0114283E1,5.121299E1,2.5784517E3],"tree_param":{"num_deleted":"0","num_feature":"4","num_nodes":"23","size_leaf_vector":"0"}},{"base_weights":[1.0919677E-2,-2.7426048E-3,2.2434445E-2,-2.4848436E-3,-6.806204E-2,5.4669414E-5,3.385052E-2,-4.1311365E-4,-2.9504558E-6,-1.0511953E-1,-1.4686662E-3,4.857861E-5,1.9051887E-4,3.3806318E-3,4.7818508E-2,-1.5502592E-2,-9.745497E-3,-1.6343661E-3,-1.168231E-4,4.9866926E-6,-2.5780152E-3,2.4163311E-2,4.395702E-3],"categories":[],"categories_nodes":[],"categories_segments":[],"categories_sizes":[],"default_left":[0,0,0,0,0,0,0,0,0,0,0,0,0,0,0,0,0,0,0,0,0,0,0],"id":55,"left_children":[1,3,5,7,9,11,13,-1,-1,15,17,19,-1,-1,21,-1,-1,-1,-1,-1,-1,-1,-1],"loss_changes":[3.6362762E2,1.7798576E1,3.2045673E2,4.2563524E0,1.0253935E1,4.7754142E-3,5.1123047E-1,0E0,0E0,1.0060406E0,6.624411E-3,1.4053667E-2,0E0,0E0,1.9485712E0,0E0,0E0,0E0,0E0,0E0,0E0,0E0,0E0],"parents":[2147483647,0,0,1,1,2,2,3,3,4,4,5,5,6,6,9,9,10,10,11,11,14,14],"right_children":[2,4,6,8,10,12,14,-1,-1,16,18,20,-1,-1,22,-1,-1,-1,-1,-1,-1,-1,-1],"split_conditions":[1E0,1.3029276E14,1E0,1E0,1E0,1.3029309E14,1.3029276E14,-4.1311365E-4,-2.9504558E-6,1.3029309E14,1.3029309E14,1.3029276E14,1.9051887E-4,3.3806318E-3,1.3029309E14,-1.5502592E-2,-9.745497E-3,-1.6343661E-3,-1.168231E-4,4.9866926E-6,-2.5780152E-3,2.4163311E-2,4.395702E-3],"split_indices":[3,0,2,2,2,0,0,0,0,0,0,0,0,0,0,0,0,0,0,0,0,0,0],"split_type":[0,0,0,0,0,0,0,0,0,0,0,0,0,0,0,0,0,0,0,0,0,0,0],"sum_hessian":[2.3114162E6,1.0571306E6,1.2542856E6,1.0529764E6,4.154183E3,4.2369197E5,8.305936E5,6.303375E5,4.2263894E5,2.6685984E3,1.4855845E3,4.2230303E5,1.3889431E3,8.279768E5,2.6167942E3,3.527169E2,2.3158816E3,2.8353643E1,1.4572308E3,4.2228297E5,2.0065023E1,4.9914783E1,2.5668794E3],"tree_param":{"num_deleted":"0","num_feature":"4","num_nodes":"23","size_leaf_vector":"0"}},{"base_weights":[9.8410295E-3,-2.4689767E-3,2.0235615E-2,-2.2367362E-3,-6.169928E-2,4.8939088E-5,3.05646E-2,-3.7188988E-4,-2.6643477E-6,-9.563828E-2,-1.3233281E-3,4.3455675E-5,1.7150094E-4,3.0524505E-3,4.32525E-2,-1.4180957E-2,-8.8587785E-3,-1.47846E-3,-1.05178704E-4,4.4621383E-6,-2.3376746E-3,2.2336414E-2,3.973256E-3],"categories":[],"categories_nodes":[],"categories_segments":[],"categories_sizes":[],"default_left":[0,0,0,0,0,0,0,0,0,0,0,0,0,0,0,0,0,0,0,0,0,0,0],"id":56,"left_children":[1,3,5,7,9,11,13,-1,-1,15,17,19,-1,-1,21,-1,-1,-1,-1,-1,-1,-1,-1],"loss_changes":[2.9541754E2,1.453925E1,2.609983E2,3.4488297E0,8.458848E0,3.8706767E-3,4.1992188E-1,0E0,0E0,8.476925E-1,5.418093E-3,1.1530405E-2,0E0,0E0,1.6434083E0,0E0,0E0,0E0,0E0,0E0,0E0,0E0,0E0],"parents":[2147483647,0,0,1,1,2,2,3,3,4,4,5,5,6,6,9,9,10,10,11,11,14,14],"right_children":[2,4,6,8,10,12,14,-1,-1,16,18,20,-1,-1,22,-1,-1,-1,-1,-1,-1,-1,-1],"split_conditions":[1E0,1.3029276E14,1E0,1E0,1E0,1.3029309E14,1.3029276E14,-3.7188988E-4,-2.6643477E-6,1.3029309E14,1.3029309E14,1.3029276E14,1.7150094E-4,3.0524505E-3,1.3029309E14,-1.4180957E-2,-8.8587785E-3,-1.47846E-3,-1.05178704E-4,4.4621383E-6,-2.3376746E-3,2.2336414E-2,3.973256E-3],"split_indices":[3,0,2,2,2,0,0,0,0,0,0,0,0,0,0,0,0,0,0,0,0,0,0],"split_type":[0,0,0,0,0,0,0,0,0,0,0,0,0,0,0,0,0,0,0,0,0,0,0],"sum_hessian":[2.3087158E6,1.0569735E6,1.2517421E6,1.0528464E6,4.1271426E3,4.236918E5,8.280504E5,6.302074E5,4.2263894E5,2.6416267E3,1.485516E3,4.2230297E5,1.3888678E3,8.254452E5,2.6051924E3,3.4741446E2,2.2942124E3,2.8316519E1,1.4571995E3,4.2228294E5,2.0020435E1,4.8740505E1,2.556452E3],"tree_param":{"num_deleted":"0","num_feature":"4","num_nodes":"23","size_leaf_vector":"0"}},{"base_weights":[8.867221E-3,-2.222436E-3,1.8247264E-2,-2.0132083E-3,-5.589458E-2,4.4210643E-5,2.758713E-2,-3.3476323E-4,-2.3782393E-6,-8.692857E-2,-1.1921091E-3,3.9274786E-5,1.5439857E-4,2.7550773E-3,3.9106827E-2,-1.2954476E-2,-8.045525E-3,-1.3372756E-3,-9.4668E-5,4.0329573E-6,-2.1193202E-3,2.061211E-2,3.5900702E-3],"categories":[],"categories_nodes":[],"categories_segments":[],"categories_sizes":[],"default_left":[0,0,0,0,0,0,0,0,0,0,0,0,0,0,0,0,0,0,0,0,0,0,0],"id":57,"left_children":[1,3,5,7,9,11,13,-1,-1,15,17,19,-1,-1,21,-1,-1,-1,-1,-1,-1,-1,-1],"loss_changes":[2.3990295E2,1.1867809E1,2.1242432E2,2.7947211E0,6.966606E0,3.136399E-3,3.447876E-1,0E0,0E0,7.1188736E-1,4.4310736E-3,9.458666E-3,0E0,0E0,1.382541E0,0E0,0E0,0E0,0E0,0E0,0E0,0E0,0E0],"parents":[2147483647,0,0,1,1,2,2,3,3,4,4,5,5,6,6,9,9,10,10,11,11,14,14],"right_children":[2,4,6,8,10,12,14,-1,-1,16,18,20,-1,-1,22,-1,-1,-1,-1,-1,-1,-1,-1],"split_conditions":[1E0,1.3029276E14,1E0,1E0,1E0,1.3029309E14,1.3029276E14,-3.3476323E-4,-2.3782393E-6,1.3029309E14,1.3029309E14,1.3029276E14,1.5439857E-4,2.7550773E-3,1.3029309E14,-1.2954476E-2,-8.045525E-3,-1.3372756E-3,-9.4668E-5,4.0329573E-6,-2.1193202E-3,2.061211E-2,3.5900702E-3],"split_indices":[3,0,2,2,2,0,0,0,0,0,0,0,0,0,0,0,0,0,0,0,0,0,0],"split_type":[0,0,0,0,0,0,0,0,0,0,0,0,0,0,0,0,0,0,0,0,0,0,0],"sum_hessian":[2.306282E6,1.0568319E6,1.2494502E6,1.0527291E6,4.102771E3,4.2369172E5,8.257585E5,6.3009025E5,4.2263894E5,2.617317E3,1.4854542E3,4.223029E5,1.3888002E3,8.2316375E5,2.5947434E3,3.4263214E2,2.2746848E3,2.8282976E1,1.4571713E3,4.2228294E5,1.9980076E1,4.7680332E1,2.547063E3],