{"learner":{"attributes":{"scikit_learn":"{\"_estimator_type\": \"classifier\"}"},"feature_names":["PC_int","Target_int","History_1","History_2"],"feature_types":["int","int","int","int"],"gradient_booster":{"model":{"cats":{"enc":[],"feature_segments":[],"sorted_idx":[]},"gbtree_model_param":{"num_parallel_tree":"1","num_trees":"100"},"iteration_indptr":[0,1,2,3,4,5,6,7,8,9,10,11,12,13,14,15,16,17,18,19,20,21,22,23,24,25,26,27,28,29,30,31,32,33,34,35,36,37,38,39,40,41,42,43,44,45,46,47,48,49,50,51,52,53,54,55,56,57,58,59,60,61,62,63,64,65,66,67,68,69,70,71,72,73,74,75,76,77,78,79,80,81,82,83,84,85,86,87,88,89,90,91,92,93,94,95,96,97,98,99,100],"tree_info":[0,0,0,0,0,0,0,0,0,0,0,0,0,0,0,0,0,0,0,0,0,0,0,0,0,0,0,0,0,0,0,0,0,0,0,0,0,0,0,0,0,0,0,0,0,0,0,0,0,0,0,0,0,0,0,0,0,0,0,0,0,0,0,0,0,0,0,0,0,0,0,0,0,0,0,0,0,0,0,0,0,0,0,0,0,0,0,0,0,0,0,0,0,0,0,0,0,0,0,0],"trees":[{"base_weights":[7.392665E-8,-2.8949223E0,7.4739057E-1,-3.411611E0,-1.8216152E0,-1.7803686E0,9.788438E-1,-3.345165E-1,-4.783655E-1,-1.8192698E-1,-2.4631E0,-1.7835102E0,-8.837967E-2,9.785007E-2,1.0598328E0,-4.2739746E-1,-2.3626964E-1,-1.782974E-1,-4.4542724E-1,1.2225492E-1,1.0447767E-1],"categories":[],"categories_nodes":[],"categories_segments":[],"categories_sizes":[],"default_left":[0,0,0,0,0,0,0,0,0,0,0,0,0,0,0,0,0,0,0,0,0],"id":0,"left_children":[1,3,5,7,9,11,13,-1,-1,-1,15,17,-1,-1,19,-1,-1,-1,-1,-1,-1],"loss_changes":[8.977145E6,4.721415E5,1.9293582E6,5.23785E4,4.118125E2,7.775625E2,8.275E1,0E0,0E0,0E0,1.7264551E2,3.8675E2,0E0,0E0,2.9918945E1,0E0,0E0,0E0,0E0,0E0,0E0],"parents":[2147483647,0,0,1,1,2,2,3,3,4,4,5,5,6,6,10,10,11,11,14,14],"right_children":[2,4,6,8,10,12,14,-1,-1,-1,16,18,-1,-1,20,-1,-1,-1,-1,-1,-1],"split_conditions":[1E0,1E0,1E0,1.3851766E14,1.3851766E14,1.38518005E14,1.3851766E14,-3.345165E-1,-4.783655E-1,-1.8192698E-1,1.38518005E14,1.3851766E14,-8.837967E-2,9.785007E-2,1.38518005E14,-4.2739746E-1,-2.3626964E-1,-1.782974E-1,-4.4542724E-1,1.2225492E-1,1.0447767E-1],"split_indices":[3,2,2,0,0,0,0,0,0,0,0,0,0,0,0,0,0,0,0,0,0],"split_type":[0,0,0,0,0,0,0,0,0,0,0,0,0,0,0,0,0,0,0,0,0],"sum_hessian":[4.1490968E6,8.513803E5,3.2977165E6,5.7471225E5,2.7666803E5,2.7662447E5,3.021092E6,5.481686E5,2.6543627E4,2.7566394E5,1.00408984E3,2.7565756E5,9.6690137E2,3.008359E6,1.2733151E4,5.0563328E1,9.5352655E2,2.756039E5,5.3662373E1,1.0716163E3,1.1661535E4],"tree_param":{"num_deleted":"0","num_feature":"4","num_nodes":"21","size_leaf_vector":"1"}},{"base_weights":[8.089105E-3,-2.2069988E0,7.0706475E-1,-2.5339656E0,-1.4719621E0,-1.4419565E0,9.377157E-1,-2.4928711E-1,-3.3303642E-1,-1.4702593E-1,-1.9226832E0,-1.444252E0,-7.5395145E-2,9.373658E-2,1.0207095E0,-3.064357E-1,-1.8536876E-1,-1.4438607E-1,-3.166463E-1,1.1901098E-1,1.0052075E-1],"categories":[],"categories_nodes":[],"categories_segments":[],"categories_sizes":[],"default_left":[0,0,0,0,0,0,0,0,0,0,0,0,0,0,0,0,0,0,0,0,0],"id":1,"left_children":[1,3,5,7,9,11,13,-1,-1,-1,15,17,-1,-1,19,-1,-1,-1,-1,-1,-1],"loss_changes":[6.4220485E6,2.39106E5,1.5628198E6,2.2528E4,2.3225E2,4.814375E2,8.15E1,0E0,0E0,0E0,8.487695E1,2.0075E2,0E0,0E0,3.0163086E1,0E0,0E0,0E0,0E0,0E0,0E0],"parents":[2147483647,0,0,1,1,2,2,3,3,4,4,5,5,6,6,10,10,11,11,14,14],"right_children":[2,4,6,8,10,12,14,-1,-1,-1,16,18,-1,-1,20,-1,-1,-1,-1,-1,-1],"split_conditions":[1E0,1E0,1E0,1.3851766E14,1.3851766E14,1.38518005E14,1.3851766E14,-2.4928711E-1,-3.3303642E-1,-1.4702593E-1,1.38518005E14,1.3851766E14,-7.5395145E-2,9.373658E-2,1.38518005E14,-3.064357E-1,-1.8536876E-1,-1.4438607E-1,-3.166463E-1,1.1901098E-1,1.0052075E-1],"split_indices":[3,2,2,0,0,0,0,0,0,0,0,0,0,0,0,0,0,0,0,0,0],"split_type":[0,0,0,0,0,0,0,0,0,0,0,0,0,0,0,0,0,0,0,0,0],"sum_hessian":[4.147825E6,9.949087E5,3.1529162E6,6.88597E5,3.0631166E5,3.055975E5,2.8473188E6,6.5481244E5,3.3784562E4,3.0516303E5,1.1486343E3,3.0458022E5,1.01729706E3,2.8353782E6,1.1940542E4,6.2986217E1,1.0856481E3,3.0451284E5,6.7365814E1,9.947272E2,1.0945814E4],"tree_param":{"num_deleted":"0","num_feature":"4","num_nodes":"21","size_leaf_vector":"1"}},{"base_weights":[1.2479607E-2,-1.7949505E0,6.6940075E-1,-2.0403888E0,-1.2255875E0,-1.2021345E0,8.985806E-1,-2.0082466E-1,-2.6579663E-1,-1.22424535E-1,-1.5754893E0,-1.2039208E0,-6.497225E-2,8.982228E-2,9.839511E-1,-2.527317E-1,-1.5240799E-1,-1.20360635E-1,-2.535204E0,1.16143644E-1,9.679142E-2,-2.6300594E-1,-1.720235E-1],"categories":[],"categories_nodes":[],"categories_segments":[],"categories_sizes":[],"default_left":[0,0,0,0,0,0,0,0,0,0,0,0,0,0,0,0,0,0,0,0,0,0,0],"id":2,"left_children":[1,3,5,7,9,11,13,-1,-1,-1,15,17,-1,-1,19,-1,-1,-1,21,-1,-1,-1,-1],"loss_changes":[4.874986E6,1.5294475E5,1.2916131E6,1.5176E4,1.529375E2,3.23375E2,8.125E1,0E0,0E0,0E0,5.762451E1,1.3409375E2,0E0,0E0,3.072168E1,0E0,0E0,0E0,1.3853455E0,0E0,0E0,0E0,0E0],"parents":[2147483647,0,0,1,1,2,2,3,3,4,4,5,5,6,6,10,10,11,11,14,14,18,18],"right_children":[2,4,6,8,10,12,14,-1,-1,-1,16,18,-1,-1,20,-1,-1,-1,22,-1,-1,-1,-1],"split_conditions":[1E0,1E0,1E0,1.3851766E14,1.3851766E14,1.38518005E14,1.3851766E14,-2.0082466E-1,-2.6579663E-1,-1.22424535E-1,1.3851767E14,1.3851766E14,-6.497225E-2,8.982228E-2,1.38518005E14,-2.527317E-1,-1.5240799E-1,-1.20360635E-1,1.3851767E14,1.16143644E-1,9.679142E-2,-2.6300594E-1,-1.720235E-1],"split_indices":[3,2,2,0,0,0,0,0,0,0,0,0,0,0,0,0,0,0,0,0,0,0,0],"split_type":[0,0,0,0,0,0,0,0,0,0,0,0,0,0,0,0,0,0,0,0,0,0,0],"sum_hessian":[4.105806E6,1.0944826E6,3.0113235E6,7.647955E5,3.2968706E5,3.2852322E5,2.6828002E6,7.2696425E5,3.7831254E4,3.2843172E5,1.2553357E3,3.2746312E5,1.0601166E3,2.6716128E6,1.1187393E4,6.1859905E1,1.1934758E3,3.2738766E5,7.544713E1,9.211644E2,1.0266229E4,6.558626E1,9.86087E0],"tree_param":{"num_deleted":"0","num_feature":"4","num_nodes":"23","size_leaf_vector":"1"}},{"base_weights":[1.5033876E-2,-1.513627E0,6.338788E-1,-1.7155056E0,-1.0408821E0,-1.0216801E0,8.609986E-1,-1.6874982E-1,-2.2596867E-1,-1.0397692E-1,-1.3291752E0,-1.0231296E0,-5.642513E-2,8.60632E-2,9.490077E-1,-2.0865873E-1,-1.2826191E-1,-1.0228618E-1,-2.1541772E0,1.1358249E-1,9.323675E-2,-2.2280827E-1,-1.5012018E-1],"categories":[],"categories_nodes":[],"categories_segments":[],"categories_sizes":[],"default_left":[0,0,0,0,0,0,0,0,0,0,0,0,0,0,0,0,0,0,0,0,0,0,0],"id":3,"left_children":[1,3,5,7,9,11,13,-1,-1,-1,15,17,-1,-1,19,-1,-1,-1,21,-1,-1,-1,-1],"loss_changes":[3.8205705E6,1.1106875E5,1.0809658E6,1.2426E4,1.10375E2,2.29375E2,8.075E1,0E0,0E0,0E0,4.442505E1,1.0246875E2,0E0,0E0,3.1511719E1,0E0,0E0,0E0,5.588989E-1,0E0,0E0,0E0,0E0],"parents":[2147483647,0,0,1,1,2,2,3,3,4,4,5,5,6,6,10,10,11,11,14,14,18,18],"right_children":[2,4,6,8,10,12,14,-1,-1,-1,16,18,-1,-1,20,-1,-1,-1,22,-1,-1,-1,-1],"split_conditions":[1E0,1E0,1E0,1.3851766E14,1.3851766E14,1.38518005E14,1.3851766E14,-1.6874982E-1,-2.2596867E-1,-1.0397692E-1,1.38518005E14,1.3851766E14,-5.642513E-2,8.60632E-2,1.38518005E14,-2.0865873E-1,-1.2826191E-1,-1.0228618E-1,1.3851767E14,1.1358249E-1,9.323675E-2,-2.2280827E-1,-1.5012018E-1],"split_indices":[3,2,2,0,0,0,0,0,0,0,0,0,0,0,0,0,0,0,0,0,0,0,0],"split_type":[0,0,0,0,0,0,0,0,0,0,0,0,0,0,0,0,0,0,0,0,0,0,0],"sum_hessian":[4.0386385E6,1.1638106E6,2.874828E6,8.155428E5,3.4826788E5,3.4680878E5,2.5280192E6,7.7562775E5,3.991505E4,3.4693312E5,1.3347449E3,3.457121E5,1.0966729E3,2.5175425E6,1.0476651E4,7.4754906E1,1.25999E3,3.4563222E5,7.989082E1,8.513534E2,9.625299E3,6.960099E1,1.0289826E1],"tree_param":{"num_deleted":"0","num_feature":"4","num_nodes":"23","size_leaf_vector":"1"}},{"base_weights":[1.6522234E-2,-1.3059809E0,6.001125E-1,-1.4813735E0,-8.963543E-1,-8.8013214E-1,8.246295E-1,-1.4555545E-1,-1.9940289E0,-8.954003E-2,-1.143159E0,-8.8134265E-1,-4.9299423E-2,8.242538E-2,9.154417E-1,-2.0154181E-1,-1.9892614E-1,-1.8778554E-1,-1.10433295E-1,-8.811072E-2,-1.8943552E0,1.11270845E-1,8.9814864E-2,-1.9582026E-1,-1.3310091E-1],"categories":[],"categories_nodes":[],"categories_segments":[],"categories_sizes":[],"default_left":[0,0,0,0,0,0,0,0,0,0,0,0,0,0,0,0,0,0,0,0,0,0,0,0,0],"id":4,"left_children":[1,3,5,7,9,11,13,-1,15,-1,17,19,-1,-1,21,-1,-1,-1,-1,-1,23,-1,-1,-1,-1],"loss_changes":[3.0530598E6,8.701375E4,9.121498E5,1.122175E4,8.446875E1,1.69E2,8.0625E1,0E0,1.25E-1,0E0,3.770813E1,8.428125E1,0E0,0E0,3.246875E1,0E0,0E0,0E0,0E0,0E0,3.737793E-1,0E0,0E0,0E0,0E0],"parents":[2147483647,0,0,1,1,2,2,3,3,4,4,5,5,6,6,8,8,10,10,11,11,14,14,20,20],"right_children":[2,4,6,8,10,12,14,-1,16,-1,18,20,-1,-1,22,-1,-1,-1,-1,-1,24,-1,-1,-1,-1],"split_conditions":[1E0,1E0,1E0,1.3851766E14,1.3851766E14,1.38518005E14,1.3851766E14,-1.4555545E-1,1.3851767E14,-8.954003E-2,1.3851767E14,1.3851766E14,-4.9299423E-2,8.242538E-2,1.38518005E14,-2.0154181E-1,-1.9892614E-1,-1.8778554E-1,-1.10433295E-1,-8.811072E-2,1.3851767E14,1.11270845E-1,8.9814864E-2,-1.9582026E-1,-1.3310091E-1],"split_indices":[3,2,2,0,0,0,0,0,0,0,0,0,0,0,0,0,0,0,0,0,0,0,0,0,0],"split_type":[0,0,0,0,0,0,0,0,0,0,0,0,0,0,0,0,0,0,0,0,0,0,0,0,0],"sum_hessian":[3.9557638E6,1.2111392E6,2.7446245E6,8.480299E5,3.631093E5,3.614665E5,2.383158E6,8.073719E5,4.0658027E4,3.617157E5,1.3936171E3,3.6033847E5,1.1280133E3,2.3733482E6,9.809744E3,7.3340195E3,3.3324008E4,6.757347E1,1.3260436E3,3.6025662E5,8.185609E1,7.8553906E2,9.024205E3,7.129928E1,1.0556809E1],"tree_param":{"num_deleted":"0","num_feature":"4","num_nodes":"25","size_leaf_vector":"1"}},{"base_weights":[1.7334867E-2,-1.1444075E0,5.678167E-1,-1.3021272E0,-7.7969843E-1,-7.656936E-1,7.8921455E-1,-1.2775837E-1,-1.8035562E0,-7.7886246E-2,-9.963357E-1,-7.667257E-1,-4.3280873E-2,7.888298E-2,8.829028E-1,-1.8232194E-1,-1.7991748E-1,-1.6374876E-1,-9.586405E-2,-7.665144E-2,-1.7043099E0,1.0916235E-1,8.649246E-2,-1.763317E-1,-1.19372465E-1],"categories":[],"categories_nodes":[],"categories_segments":[],"categories_sizes":[],"default_left":[0,0,0,0,0,0,0,0,0,0,0,0,0,0,0,0,0,0,0,0,0,0,0,0,0],"id":5,"left_children":[1,3,5,7,9,11,13,-1,15,-1,17,19,-1,-1,21,-1,-1,-1,-1,-1,23,-1,-1,-1,-1],"loss_changes":[2.4708272E6,7.14495E4,7.739431E5,1.0669625E4,6.7125E1,1.27921875E2,8.0375E1,0E0,2.1875E-1,0E0,3.3182617E1,7.24375E1,0E0,0E0,3.353369E1,0E0,0E0,0E0,0E0,0E0,3.973999E-1,0E0,0E0,0E0,0E0],"parents":[2147483647,0,0,1,1,2,2,3,3,4,4,5,5,6,6,8,8,10,10,11,11,14,14,20,20],"right_children":[2,4,6,8,10,12,14,-1,16,-1,18,20,-1,-1,22,-1,-1,-1,-1,-1,24,-1,-1,-1,-1],"split_conditions":[1E0,1E0,1E0,1.3851766E14,1.3851766E14,1.38518005E14,1.3851766E14,-1.2775837E-1,1.3851767E14,-7.7886246E-2,1.38518005E14,1.3851766E14,-4.3280873E-2,7.888298E-2,1.38518005E14,-1.8232194E-1,-1.7991748E-1,-1.6374876E-1,-9.586405E-2,-7.665144E-2,1.3851767E14,1.0916235E-1,8.649246E-2,-1.763317E-1,-1.19372465E-1],"split_indices":[3,2,2,0,0,0,0,0,0,0,0,0,0,0,0,0,0,0,0,0,0,0,0,0,0],"split_type":[0,0,0,0,0,0,0,0,0,0,0,0,0,0,0,0,0,0,0,0,0,0,0,0,0],"sum_hessian":[3.8635755E6,1.2421431E6,2.6214325E6,8.6714175E5,3.750013E5,3.7325612E5,2.2481762E6,8.266813E5,4.0460434E4,3.735644E5,1.4369269E3,3.7210112E5,1.1549834E3,2.2389892E6,9.18693E3,7.2972104E3,3.3163223E4,7.743339E1,1.3594934E3,3.7201906E5,8.2056175E1,7.2382947E2,8.4631E3,7.135619E1,1.0699982E1],"tree_param":{"num_deleted":"0","num_feature":"4","num_nodes":"25","size_leaf_vector":"1"}},{"base_weights":[1.7692901E-2,-1.0137869E0,5.3678405E-1,-1.1587873E0,-6.833232E-1,-6.7104685E-1,7.545613E-1,-1.1350615E-1,-1.6600637E0,-6.825797E-2,-8.767248E-1,-6.719401E-1,-3.8144346E-2,7.541679E-2,8.5111284E-1,-1.6790794E-1,-1.6558307E-1,-1.5346909E-1,-8.440089E-2,-6.7174785E-2,-1.5582243E0,1.07218556E-1,8.324336E-2,-1.6152649E-1,-1.0796974E-1],"categories":[],"categories_nodes":[],"categories_segments":[],"categories_sizes":[],"default_left":[0,0,0,0,0,0,0,0,0,0,0,0,0,0,0,0,0,0,0,0,0,0,0,0,0],"id":6,"left_children":[1,3,5,7,9,11,13,-1,15,-1,17,19,-1,-1,21,-1,-1,-1,-1,-1,23,-1,-1,-1,-1],"loss_changes":[2.0167526E6,6.0421E4,6.5907725E5,1.0421375E4,5.46875E1,9.8765625E1,8.0125E1,0E0,4.0625E-1,0E0,3.0331299E1,6.396875E1,0E0,0E0,3.465625E1,0E0,0E0,0E0,0E0,0E0,4.941864E-1,0E0,0E0,0E0,0E0],"parents":[2147483647,0,0,1,1,2,2,3,3,4,4,5,5,6,6,8,8,10,10,11,11,14,14,20,20],"right_children":[2,4,6,8,10,12,14,-1,16,-1,18,20,-1,-1,22,-1,-1,-1,-1,-1,24,-1,-1,-1,-1],"split_conditions":[1E0,1E0,1E0,1.3851766E14,1.3851766E14,1.38518005E14,1.3851766E14,-1.1350615E-1,1.3851767E14,-6.825797E-2,1.3851767E14,1.3851766E14,-3.8144346E-2,7.541679E-2,1.38518005E14,-1.6790794E-1,-1.6558307E-1,-1.5346909E-1,-8.440089E-2,-6.7174785E-2,1.3851767E14,1.07218556E-1,8.324336E-2,-1.6152649E-1,-1.0796974E-1],"split_indices":[3,2,2,0,0,0,0,0,0,0,0,0,0,0,0,0,0,0,0,0,0,0,0,0,0],"split_type":[0,0,0,0,0,0,0,0,0,0,0,0,0,0,0,0,0,0,0,0,0,0,0,0,0],"sum_hessian":[3.7665875E6,1.260956E6,2.5056315E6,8.764056E5,3.8455034E5,3.8276234E5,2.1228692E6,8.368025E5,3.9603094E4,3.8308212E5,1.4682345E3,3.8158406E5,1.1782726E3,2.1142615E6,8.607622E3,7.1389146E3,3.246418E4,6.737195E1,1.4008625E3,3.8150306E5,8.099841E1,6.6623236E2,7.94139E3,7.0249214E1,1.0749199E1],"tree_param":{"num_deleted":"0","num_feature":"4","num_nodes":"25","size_leaf_vector":"1"}},{"base_weights":[1.7732536E-2,-9.051111E-1,5.068687E-1,-1.0403285E0,-6.022731E-1,-5.913959E-1,7.2053397E-1,-1.01719156E-1,-1.5479479E0,-6.0160518E-2,-7.7686715E-1,-5.9217757E-1,-3.37235E-2,7.201326E-2,8.1985426E-1,-1.5669933E-1,-1.5437141E-1,-1.4131877E-1,-7.464113E-2,-5.9200134E-2,-1.4415916E0,1.0540712E-1,8.004743E-2,-1.4984183E-1,-9.827469E-2],"categories":[],"categories_nodes":[],"categories_segments":[],"categories_sizes":[],"default_left":[0,0,0,0,0,0,0,0,0,0,0,0,0,0,0,0,0,0,0,0,0,0,0,0,0],"id":7,"left_children":[1,3,5,7,9,11,13,-1,15,-1,17,19,-1,-1,21,-1,-1,-1,-1,-1,23,-1,-1,-1,-1],"loss_changes":[1.6557379E6,5.2032125E4,5.6256756E5,1.03155625E4,4.5265625E1,7.7375E1,7.94375E1,0E0,6.640625E-1,0E0,2.78479E1,5.7421875E1,0E0,0E0,3.5793457E1,0E0,0E0,0E0,0E0,0E0,6.1486816E-1,0E0,0E0,0E0,0E0],"parents":[2147483647,0,0,1,1,2,2,3,3,4,4,5,5,6,6,8,8,10,10,11,11,14,14,20,20],"right_children":[2,4,6,8,10,12,14,-1,16,-1,18,20,-1,-1,22,-1,-1,-1,-1,-1,24,-1,-1,-1,-1],"split_conditions":[1E0,1E0,1E0,1.3851766E14,1.3851766E14,1.38518005E14,1.3851766E14,-1.01719156E-1,1.3851767E14,-6.0160518E-2,1.3851767E14,1.3851766E14,-3.37235E-2,7.201326E-2,1.38518005E14,-1.5669933E-1,-1.5437141E-1,-1.4131877E-1,-7.464113E-2,-5.9200134E-2,1.3851767E14,1.0540712E-1,8.004743E-2,-1.4984183E-1,-9.827469E-2],"split_indices":[3,2,2,0,0,0,0,0,0,0,0,0,0,0,0,0,0,0,0,0,0,0,0,0,0],"split_type":[0,0,0,0,0,0,0,0,0,0,0,0,0,0,0,0,0,0,0,0,0,0,0,0,0],"sum_hessian":[3.668035E6,1.2706755E6,2.3973595E6,8.784462E5,3.9222934E5,3.904417E5,2.0069178E6,8.401555E5,3.82907E4,3.9073897E5,1.4903909E3,3.8924325E5,1.1984473E3,1.9988471E6,8.0706265E3,6.8968687E3,3.1393832E4,6.600167E1,1.4243892E3,3.891642E5,7.9056526E1,6.126805E2,7.457946E3,6.8328606E1,1.0727919E1],"tree_param":{"num_deleted":"0","num_feature":"4","num_nodes":"25","size_leaf_vector":"1"}},{"base_weights":[1.7541349E-2,-8.126737E-1,4.7797093E-1,-9.399059E-1,-5.3316253E-1,-5.234508E-1,6.8704236E-1,-9.172531E-2,-1.4578178E0,-5.3255845E-2,-6.9196135E-1,-5.241404E-1,-2.9892389E-2,6.86634E-2,7.889609E-1,-1.4773653E-1,-1.4534798E-1,-1.2722431E-1,-6.612925E-2,-5.2397806E-2,-1.3455852E0,1.0370039E-1,7.6889634E-2,-1.403354E-1,-8.987432E-2],"categories":[],"categories_nodes":[],"categories_segments":[],"categories_sizes":[],"default_left":[0,0,0,0,0,0,0,0,0,0,0,0,0,0,0,0,0,0,0,0,0,0,0,0,0],"id":8,"left_children":[1,3,5,7,9,11,13,-1,15,-1,17,19,-1,-1,21,-1,-1,-1,-1,-1,23,-1,-1,-1,-1],"loss_changes":[1.3647416E6,4.5294375E4,4.8083106E5,1.026725E4,3.7851562E1,6.1257812E1,7.85625E1,0E0,9.609375E-1,0E0,2.5969238E1,5.2046875E1,0E0,0E0,3.6904297E1,0E0,0E0,0E0,0E0,0E0,7.39563E-1,0E0,0E0,0E0,0E0],"parents":[2147483647,0,0,1,1,2,2,3,3,4,4,5,5,6,6,8,8,10,10,11,11,14,14,20,20],"right_children":[2,4,6,8,10,12,14,-1,16,-1,18,20,-1,-1,22,-1,-1,-1,-1,-1,24,-1,-1,-1,-1],"split_conditions":[1E0,1E0,1E0,1.3851766E14,1.3851766E14,1.38518005E14,1.3851766E14,-9.172531E-2,1.3851767E14,-5.3255845E-2,1.38518005E14,1.3851766E14,-2.9892389E-2,6.86634E-2,1.38518005E14,-1.4773653E-1,-1.4534798E-1,-1.2722431E-1,-6.612925E-2,-5.2397806E-2,1.3851767E14,1.0370039E-1,7.6889634E-2,-1.403354E-1,-8.987432E-2],"split_indices":[3,2,2,0,0,0,0,0,0,0,0,0,0,0,0,0,0,0,0,0,0,0,0,0,0],"split_type":[0,0,0,0,0,0,0,0,0,0,0,0,0,0,0,0,0,0,0,0,0,0,0,0,0],"sum_hessian":[3.5702315E6,1.273658E6,2.2965735E6,8.752472E5,3.9841078E5,3.9665453E5,1.899919E6,8.3857206E5,3.667513E4,3.9690528E5,1.5054957E3,3.9543856E5,1.2159758E3,1.8923446E6,7.5743247E3,6.5990513E3,3.007608E4,7.354155E1,1.4319541E3,3.9536206E5,7.6510376E1,5.6305225E2,7.0112725E3,6.585579E1,1.0654587E1],"tree_param":{"num_deleted":"0","num_feature":"4","num_nodes":"25","size_leaf_vector":"1"}},{"base_weights":[1.7180495E-2,-7.3268664E-1,4.500294E-1,-8.53053E-1,-4.7359E-1,-4.6487218E-1,6.540373E-1,-8.3085194E-2,-1.3836571E0,-4.730412E-2,-6.187378E-1,-4.654844E-1,-2.6553614E-2,6.536233E-2,7.583101E-1,-1.4040673E-1,-1.3791369E-1,-1.230364E-1,-5.918329E-1,-4.6533447E-2,-1.2645054E0,1.02074526E-1,7.3759235E-2,-7.930252E-2,-5.8999088E-2,-1.3240267E-1,-8.248293E-2],"categories":[],"categories_nodes":[],"categories_segments":[],"categories_sizes":[],"default_left":[0,0,0,0,0,0,0,0,0,0,0,0,0,0,0,0,0,0,0,0,0,0,0,0,0,0,0],"id":9,"left_children":[1,3,5,7,9,11,13,-1,15,-1,17,19,-1,-1,21,-1,-1,-1,23,-1,25,-1,-1,-1,-1,-1,-1],"loss_changes":[1.1278545E6,3.9659812E4,4.1120453E5,1.0227625E4,3.1835938E1,4.8890625E1,7.73125E1,0E0,1.2890625E0,0E0,2.422174E1,4.7390625E1,0E0,0E0,3.7946777E1,0E0,0E0,0E0,7.107544E-2,0E0,8.5944366E-1,0E0,0E0,0E0,0E0,0E0,0E0],"parents":[2147483647,0,0,1,1,2,2,3,3,4,4,5,5,6,6,8,8,10,10,11,11,14,14,18,18,20,20],"right_children":[2,4,6,8,10,12,14,-1,16,-1,18,20,-1,-1,22,-1,-1,-1,24,-1,26,-1,-1,-1,-1,-1,-1],"split_conditions":[1E0,1E0,1E0,1.3851766E14,1.3851766E14,1.38518005E14,1.3851766E14,-8.3085194E-2,1.3851767E14,-4.730412E-2,1.3851767E14,1.3851766E14,-2.6553614E-2,6.536233E-2,1.38518005E14,-1.4040673E-1,-1.3791369E-1,-1.230364E-1,1.38518005E14,-4.6533447E-2,1.3851767E14,1.02074526E-1,7.3759235E-2,-7.930252E-2,-5.8999088E-2,-1.3240267E-1,-8.248293E-2],"split_indices":[3,2,2,0,0,0,0,0,0,0,0,0,0,0,0,0,0,0,0,0,0,0,0,0,0,0,0],"split_type":[0,0,0,0,0,0,0,0,0,0,0,0,0,0,0,0,0,0,0,0,0,0,0,0,0,0,0],"sum_hessian":[3.4748188E6,1.2717096E6,2.2031092E6,8.6831944E5,4.0339016E5,4.01687E5,1.8014222E6,8.3344956E5,3.486987E4,4.0187497E5,1.5151752E3,4.0045575E5,1.231247E3,1.7943055E6,7.116796E3,6.2663604E3,2.8603512E4,6.19582E1,1.4532169E3,4.003822E5,7.357086E1,5.171893E2,6.5996064E3,9.287483E0,1.4439294E3,6.302716E1,1.0543698E1],"tree_param":{"num_deleted":"0","num_feature":"4","num_nodes":"27","size_leaf_vector":"1"}},{"base_weights":[1.6692763E-2,-6.625383E-1,4.2301002E-1,-7.7674013E-1,-4.217965E-1,-4.1394114E-1,6.2150174E-1,-7.550006E-2,-1.3214179E0,-4.2129632E-2,-5.549345E-1,-4.144871E-1,-2.363017E-2,6.2108364E-2,7.278186E-1,-1.3429871E-1,-1.3166517E-1,-1.156315E-1,-5.2966255E-1,-4.1434836E-2,-1.1944984E0,1.0050867E0,7.064941E-2,-7.306653E-2,-5.2789208E-2,-1.2563662E-1,-7.589757E-2,1.03417136E-1,9.290572E-2],"categories":[],"categories_nodes":[],"categories_segments":[],"categories_sizes":[],"default_left":[0,0,0,0,0,0,0,0,0,0,0,0,0,0,0,0,0,0,0,0,0,0,0,0,0,0,0,0,0],"id":10,"left_children":[1,3,5,7,9,11,13,-1,15,-1,17,19,-1,-1,21,-1,-1,-1,23,-1,25,27,-1,-1,-1,-1,-1,-1,-1],"loss_changes":[9.3363275E5,3.4812062E4,3.5164503E5,1.01683125E4,2.690625E1,3.9257812E1,7.5625E1,0E0,1.625E0,0E0,2.2514954E1,4.328125E1,0E0,0E0,3.8886475E1,0E0,0E0,0E0,1.3467407E-1,0E0,9.7021484E-1,9.1552734E-2,0E0,0E0,0E0,0E0,0E0,0E0,0E0],"parents":[2147483647,0,0,1,1,2,2,3,3,4,4,5,5,6,6,8,8,10,10,11,11,14,14,18,18,20,20,21,21],"right_children":[2,4,6,8,10,12,14,-1,16,-1,18,20,-1,-1,22,-1,-1,-1,24,-1,26,28,-1,-1,-1,-1,-1,-1,-1],"split_conditions":[1E0,1E0,1E0,1.3851766E14,1.3851766E14,1.38518005E14,1.3851766E14,-7.550006E-2,1.3851767E14,-4.2129632E-2,1.3851767E14,1.3851766E14,-2.363017E-2,6.2108364E-2,1.38518005E14,-1.3429871E-1,-1.3166517E-1,-1.156315E-1,1.38518005E14,-4.1434836E-2,1.3851767E14,1.3851767E14,7.064941E-2,-7.306653E-2,-5.2789208E-2,-1.2563662E-1,-7.589757E-2,1.03417136E-1,9.290572E-2],"split_indices":[3,2,2,0,0,0,0,0,0,0,0,0,0,0,0,0,0,0,0,0,0,0,0,0,0,0,0,0,0],"split_type":[0,0,0,0,0,0,0,0,0,0,0,0,0,0,0,0,0,0,0,0,0,0,0,0,0,0,0,0,0],"sum_hessian":[3.3829298E6,1.2662195E6,2.1167102E6,8.5881644E5,4.0740306E5,4.0576772E5,1.7109426E6,8.258567E5,3.2959766E4,4.058823E5,1.5207372E3,4.0452312E5,1.2445863E3,1.7042466E6,6.6959473E3,5.91441E3,2.7045355E4,5.9524094E1,1.461213E3,4.0445272E5,7.0397E1,4.7490857E2,6.2210386E3,9.163938E0,1.4520491E3,5.9990402E1,1.0406602E1,3.3438766E2,1.4052089E2],"tree_param":{"num_deleted":"0","num_feature":"4","num_nodes":"29","size_leaf_vector":"1"}},{"base_weights":[1.6111359E-2,-6.003718E-1,3.9690137E-1,-7.088483E-1,-3.7645873E-1,-3.6936164E-1,5.894478E-1,-6.8760484E-2,-1.2682666E0,-3.7600204E-2,-4.9878868E-1,-3.6985016E-1,-2.1060472E-2,5.8902718E-2,6.97444E-1,-1.2912537E-1,-1.2631993E-1,-1.0908737E-1,-4.750524E-1,-3.697218E-2,-1.1328614E0,9.898773E-1,6.7556724E-2,-6.74332E-2,-4.733563E-2,-1.19752325E-1,-6.997054E-2,1.02116846E-1,9.0884335E-2],"categories":[],"categories_nodes":[],"categories_segments":[],"categories_sizes":[],"default_left":[0,0,0,0,0,0,0,0,0,0,0,0,0,0,0,0,0,0,0,0,0,0,0,0,0,0,0,0,0],"id":11,"left_children":[1,3,5,7,9,11,13,-1,15,-1,17,19,-1,-1,21,-1,-1,-1,23,-1,25,27,-1,-1,-1,-1,-1,-1,-1],"loss_changes":[7.7357925E5,3.0561938E4,3.0055147E5,1.007225E4,2.2757812E1,3.1652344E1,7.35E1,0E0,1.9804688E0,0E0,2.0903076E1,3.9515625E1,0E0,0E0,3.97041E1,0E0,0E0,0E0,1.7669678E-1,0E0,1.0697021E0,1.802063E-1,0E0,0E0,0E0,0E0,0E0,0E0,0E0],"parents":[2147483647,0,0,1,1,2,2,3,3,4,4,5,5,6,6,8,8,10,10,11,11,14,14,18,18,20,20,21,21],"right_children":[2,4,6,8,10,12,14,-1,16,-1,18,20,-1,-1,22,-1,-1,-1,24,-1,26,28,-1,-1,-1,-1,-1,-1,-1],"split_conditions":[1E0,1E0,1E0,1.3851766E14,1.3851766E14,1.38518005E14,1.3851766E14,-6.8760484E-2,1.3851767E14,-3.7600204E-2,1.3851767E14,1.3851766E14,-2.1060472E-2,5.8902718E-2,1.38518005E14,-1.2912537E-1,-1.2631993E-1,-1.0908737E-1,1.38518005E14,-3.697218E-2,1.3851767E14,1.3851767E14,6.7556724E-2,-6.74332E-2,-4.733563E-2,-1.19752325E-1,-6.997054E-2,1.02116846E-1,9.0884335E-2],"split_indices":[3,2,2,0,0,0,0,0,0,0,0,0,0,0,0,0,0,0,0,0,0,0,0,0,0,0,0,0,0],"split_type":[0,0,0,0,0,0,0,0,0,0,0,0,0,0,0,0,0,0,0,0,0,0,0,0,0,0,0,0,0],"sum_hessian":[3.2953218E6,1.2582565E6,2.0370652E6,8.476185E5,4.1063794E5,4.0907972E5,1.6279855E6,8.1661056E5,3.1007922E4,4.0911472E5,1.5232216E3,4.0782344E5,1.2562655E3,1.6216759E6,6.309678E3,5.554816E3,2.5453105E4,5.697838E1,1.4662432E3,4.0775634E5,6.710823E1,4.3609064E2,5.8735874E3,9.027289E0,1.457216E3,5.685608E1,1.0252154E1,3.062359E2,1.2985474E2],"tree_param":{"num_deleted":"0","num_feature":"4","num_nodes":"29","size_leaf_vector":"1"}},{"base_weights":[1.546104E-2,-5.448296E-1,3.7170616E-1,-6.4785695E-1,-3.3655435E-1,-3.3013207E-1,5.579088E-1,-6.271575E-2,-1.2221528E0,-3.3613708E-2,-4.4904354E-1,-3.3057028E-1,-1.87943E-2,5.574875E-2,6.671637E-1,-1.2467962E-1,-1.2167352E-1,-1.0320331E-1,-4.2676866E-1,-3.3045154E-2,-1.0776422E0,9.749248E-1,6.448076E-2,-6.230675E-2,-4.2514887E-2,-1.1454393E-1,-6.459234E-2,1.0086359E-1,8.8852555E-2],"categories":[],"categories_nodes":[],"categories_segments":[],"categories_sizes":[],"default_left":[0,0,0,0,0,0,0,0,0,0,0,0,0,0,0,0,0,0,0,0,0,0,0,0,0,0,0,0,0],"id":12,"left_children":[1,3,5,7,9,11,13,-1,15,-1,17,19,-1,-1,21,-1,-1,-1,23,-1,25,27,-1,-1,-1,-1,-1,-1,-1],"loss_changes":[6.4121056E5,2.6793156E4,2.5664062E5,9.930125E3,1.9242188E1,2.5601562E1,7.10625E1,0E0,2.359375E0,0E0,1.9355713E1,3.6058594E1,0E0,0E0,4.035547E1,0E0,0E0,0E0,2.0251465E-1,0E0,1.1565933E0,2.7304077E-1,0E0,0E0,0E0,0E0,0E0,0E0,0E0],"parents":[2147483647,0,0,1,1,2,2,3,3,4,4,5,5,6,6,8,8,10,10,11,11,14,14,18,18,20,20,21,21],"right_children":[2,4,6,8,10,12,14,-1,16,-1,18,20,-1,-1,22,-1,-1,-1,24,-1,26,28,-1,-1,-1,-1,-1,-1,-1],"split_conditions":[1E0,1E0,1E0,1.3851766E14,1.3851766E14,1.38518005E14,1.3851766E14,-6.271575E-2,1.3851767E14,-3.3613708E-2,1.3851767E14,1.3851766E14,-1.87943E-2,5.574875E-2,1.38518005E14,-1.2467962E-1,-1.2167352E-1,-1.0320331E-1,1.38518005E14,-3.3045154E-2,1.3851767E14,1.3851767E14,6.448076E-2,-6.230675E-2,-4.2514887E-2,-1.1454393E-1,-6.459234E-2,1.0086359E-1,8.8852555E-2],"split_indices":[3,2,2,0,0,0,0,0,0,0,0,0,0,0,0,0,0,0,0,0,0,0,0,0,0,0,0,0,0],"split_type":[0,0,0,0,0,0,0,0,0,0,0,0,0,0,0,0,0,0,0,0,0,0,0,0,0,0,0,0,0],"sum_hessian":[3.2124625E6,1.2486406E6,1.9638218E6,8.353947E5,4.1324597E5,4.117701E5,1.5520518E6,8.063339E5,2.9060838E4,4.1172256E5,1.5234182E3,4.1050356E5,1.2665145E3,1.546096E6,5.955693E3,5.196131E3,2.3864707E4,5.4396408E1,1.4690219E3,4.1043978E5,6.3793465E1,4.00445E2,5.555248E3,8.882965E0,1.4601389E3,5.3706245E1,1.0087218E1,2.803747E2,1.2007031E2],"tree_param":{"num_deleted":"0","num_feature":"4","num_nodes":"29","size_leaf_vector":"1"}},{"base_weights":[1.4761813E-2,-4.948963E-1,3.4743795E-1,-5.9265095E-1,-3.0128E-1,-2.9546133E-1,5.26936E-1,-5.725489E-2,-1.1815512E0,-3.0089853E-2,-4.0473613E-1,-2.958552E-1,-1.679025E-2,5.2651595E-2,6.369857E-1,-1.20807685E-1,-1.1757367E-1,-9.7832255E-2,-3.838611E-1,-2.9574541E-2,-1.027398E0,9.600823E-1,6.1423488E-2,-5.7614204E-2,-3.823186E-2,-1.09858714E-1,-5.968032E-2,9.964284E-2,8.679846E-2],"categories":[],"categories_nodes":[],"categories_segments":[],"categories_sizes":[],"default_left":[0,0,0,0,0,0,0,0,0,0,0,0,0,0,0,0,0,0,0,0,0,0,0,0,0,0,0,0,0],"id":13,"left_children":[1,3,5,7,9,11,13,-1,15,-1,17,19,-1,-1,21,-1,-1,-1,23,-1,25,27,-1,-1,-1,-1,-1,-1,-1],"loss_changes":[5.3147625E5,2.3431312E4,2.1886723E5,9.7379375E3,1.6273438E1,2.075E1,6.825E1,0E0,2.7695312E0,0E0,1.7859604E1,3.2839844E1,0E0,0E0,4.0815186E1,0E0,0E0,0E0,2.1606445E-1,0E0,1.2301178E0,3.6950684E-1,0E0,0E0,0E0,0E0,0E0,0E0,0E0],"parents":[2147483647,0,0,1,1,2,2,3,3,4,4,5,5,6,6,8,8,10,10,11,11,14,14,18,18,20,20,21,21],"right_children":[2,4,6,8,10,12,14,-1,16,-1,18,20,-1,-1,22,-1,-1,-1,24,-1,26,28,-1,-1,-1,-1,-1,-1,-1],"split_conditions":[1E0,1E0,1E0,1.3851766E14,1.3851766E14,1.38518005E14,1.3851766E14,-5.725489E-2,1.3851767E14,-3.0089853E-2,1.3851767E14,1.3851766E14,-1.679025E-2,5.2651595E-2,1.38518005E14,-1.20807685E-1,-1.1757367E-1,-9.7832255E-2,1.38518005E14,-2.9574541E-2,1.3851767E14,1.3851767E14,6.1423488E-2,-5.7614204E-2,-3.823186E-2,-1.09858714E-1,-5.968032E-2,9.964284E-2,8.679846E-2],"split_indices":[3,2,2,0,0,0,0,0,0,0,0,0,0,0,0,0,0,0,0,0,0,0,0,0,0,0,0,0,0],"split_type":[0,0,0,0,0,0,0,0,0,0,0,0,0,0,0,0,0,0,0,0,0,0,0,0,0,0,0,0,0],"sum_hessian":[3.1346062E6,1.2379985E6,1.8966079E6,8.2264994E5,4.153486E5,4.1395728E5,1.4826506E6,7.954977E5,2.7152238E4,4.1382666E5,1.5219434E3,4.1268175E5,1.2755272E3,1.4770188E6,5.631784E3,4.844558E3,2.230768E4,5.1833733E1,1.4701096E3,4.1262122E5,6.051805E1,3.6776443E2,5.2640195E3,8.735137E0,1.4613745E3,5.0600986E1,9.917067E0,2.5665634E2,1.11108086E2],"tree_param":{"num_deleted":"0","num_feature":"4","num_nodes":"29","size_leaf_vector":"1"}},{"base_weights":[1.4029115E-2,-4.4979247E-1,3.241144E-1,-5.4239464E-1,-2.6998866E-1,-2.6471362E-1,4.9659175E-1,-5.2294392E-2,-1.1452981E0,-2.6964E-2,-3.6511E-1,-2.6506805E-1,-1.5013911E-2,4.961749E-2,6.0694194E-1,-1.1739266E-1,-1.1390426E-1,-9.286477E-2,-3.455795E-1,-2.6496664E-2,-9.8104256E-1,9.4521755E-1,5.8389116E-2,-5.329907E-2,-3.4411456E-2,-1.0558095E-1,-5.5171143E-2,9.8441504E-2,8.471198E-2],"categories":[],"categories_nodes":[],"categories_segments":[],"categories_sizes":[],"default_left":[0,0,0,0,0,0,0,0,0,0,0,0,0,0,0,0,0,0,0,0,0,0,0,0,0,0,0,0,0],"id":14,"left_children":[1,3,5,7,9,11,13,-1,15,-1,17,19,-1,-1,21,-1,-1,-1,23,-1,25,27,-1,-1,-1,-1,-1,-1,-1],"loss_changes":[4.4036775E5,2.0426453E4,1.8636592E5,9.495406E3,1.3732422E1,1.6845703E1,6.496875E1,0E0,3.1914062E0,0E0,1.6411514E1,2.9833984E1,0E0,0E0,4.106201E1,0E0,0E0,0E0,2.2044373E-1,0E0,1.2898483E0,4.6902466E-1,0E0,0E0,0E0,0E0,0E0,0E0,0E0],"parents":[2147483647,0,0,1,1,2,2,3,3,4,4,5,5,6,6,8,8,10,10,11,11,14,14,18,18,20,20,21,21],"right_children":[2,4,6,8,10,12,14,-1,16,-1,18,20,-1,-1,22,-1,-1,-1,24,-1,26,28,-1,-1,-1,-1,-1,-1,-1],"split_conditions":[1E0,1E0,1E0,1.3851766E14,1.3851766E14,1.38518005E14,1.3851766E14,-5.2294392E-2,1.3851767E14,-2.6964E-2,1.3851767E14,1.3851766E14,-1.5013911E-2,4.961749E-2,1.38518005E14,-1.1739266E-1,-1.1390426E-1,-9.286477E-2,1.38518005E14,-2.6496664E-2,1.3851767E14,1.3851767E14,5.8389116E-2,-5.329907E-2,-3.4411456E-2,-1.0558095E-1,-5.5171143E-2,9.8441504E-2,8.471198E-2],"split_indices":[3,2,2,0,0,0,0,0,0,0,0,0,0,0,0,0,0,0,0,0,0,0,0,0,0,0,0,0,0],"split_type":[0,0,0,0,0,0,0,0,0,0,0,0,0,0,0,0,0,0,0,0,0,0,0,0,0,0,0,0,0],"sum_hessian":[3.0618442E6,1.2268049E6,1.8350394E6,8.097614E5,4.170435E5,4.1573678E5,1.4193026E6,7.844554E5,2.5306021E4,4.1552422E5,1.5192758E3,4.144533E5,1.2834681E3,1.4139669E6,5.335802E3,4.5044937E3,2.080153E4,4.933062E1,1.4699452E3,4.14396E5,5.7329117E1,3.378446E2,4.997957E3,8.58698E0,1.4613582E3,4.7583397E1,9.745717E0,2.349351E2,1.02909485E2],"tree_param":{"num_deleted":"0","num_feature":"4","num_nodes":"29","size_leaf_vector":"1"}},{"base_weights":[1.3276844E-2,-4.089084E-1,3.0175743E-1,-4.964509E-1,-2.4215229E-1,-2.3736902E-1,4.6694842E-1,-4.77702E-2,-1.1124874E0,-2.418337E-2,-3.2955903E-1,-2.376883E-1,-1.3436268E-2,4.665367E-2,5.770852E-1,-1.14343695E-1,-1.10574804E-1,-8.821842E-2,-3.1132013E-1,-2.3759471E-2,-9.377482E-1,9.3021077E-1,5.538374E-2,-4.931697E-2,-3.0993236E-2,-1.01621345E-1,-5.1015414E-2,9.7247586E-2,8.2584925E-2],"categories":[],"categories_nodes":[],"categories_segments":[],"categories_sizes":[],"default_left":[0,0,0,0,0,0,0,0,0,0,0,0,0,0,0,0,0,0,0,0,0,0,0,0,0,0,0,0,0],"id":15,"left_children":[1,3,5,7,9,11,13,-1,15,-1,17,19,-1,-1,21,-1,-1,-1,23,-1,25,27,-1,-1,-1,-1,-1,-1,-1],"loss_changes":[3.646649E5,1.774286E4,1.5841238E5,9.204906E3,1.1572266E1,1.3691406E1,6.15E1,0E0,3.6464844E0,0E0,1.50134735E1,2.7027344E1,0E0,0E0,4.10791E1,0E0,0E0,0E0,2.1809387E-1,0E0,1.3356094E0,5.7077026E-1,0E0,0E0,0E0,0E0,0E0,0E0,0E0],"parents":[2147483647,0,0,1,1,2,2,3,3,4,4,5,5,6,6,8,8,10,10,11,11,14,14,18,18,20,20,21,21],"right_children":[2,4,6,8,10,12,14,-1,16,-1,18,20,-1,-1,22,-1,-1,-1,24,-1,26,28,-1,-1,-1,-1,-1,-1,-1],"split_conditions":[1E0,1E0,1E0,1.3851766E14,1.3851766E14,1.38518005E14,1.3851766E14,-4.77702E-2,1.3851767E14,-2.418337E-2,1.3851767E14,1.3851766E14,-1.3436268E-2,4.665367E-2,1.38518005E14,-1.14343695E-1,-1.10574804E-1,-8.821842E-2,1.38518005E14,-2.3759471E-2,1.3851767E14,1.3851767E14,5.538374E-2,-4.931697E-2,-3.0993236E-2,-1.01621345E-1,-5.1015414E-2,9.7247586E-2,8.2584925E-2],"split_indices":[3,2,2,0,0,0,0,0,0,0,0,0,0,0,0,0,0,0,0,0,0,0,0,0,0,0,0,0,0],"split_type":[0,0,0,0,0,0,0,0,0,0,0,0,0,0,0,0,0,0,0,0,0,0,0,0,0,0,0,0,0],"sum_hessian":[2.9941532E6,1.2154165E6,1.7787366E6,7.97007E5,4.1840947E5,4.1718572E5,1.361551E6,7.734685E5,2.3538543E4,4.168937E5,1.5157874E3,4.1589525E5,1.2904773E3,1.3564852E6,5.065679E3,4.178941E3,1.9359602E4,4.6915474E1,1.468872E3,4.15841E5,5.4259644E1,3.1048618E2,4.755193E3,8.440869E0,1.460431E3,4.468346E1,9.576183E0,2.150681E2,9.541809E1],"tree_param":{"num_deleted":"0","num_feature":"4","num_nodes":"29","size_leaf_vector":"1"}},{"base_weights":[1.2517289E-2,-3.7175515E-1,2.803886E-1,-4.543222E-1,-2.1733369E-1,-2.1299563E-1,4.3808278E-1,-4.363196E-2,-1.0823995E0,-2.1704273E-2,-2.9758814E-1,-2.1328346E-1,-1.2032706E-2,4.3767806E-2,5.4748267E-1,-1.11588776E-1,-1.0751343E-1,-8.383087E-2,-2.805882E-1,-2.1319715E-2,-8.96878E-1,9.14954E-1,5.2414663E-2,-4.563242E-2,-2.7927667E-2,-9.791009E-2,-4.7174048E-2,9.605004E-2,8.0411E-2],"categories":[],"categories_nodes":[],"categories_segments":[],"categories_sizes":[],"default_left":[0,0,0,0,0,0,0,0,0,0,0,0,0,0,0,0,0,0,0,0,0,0,0,0,0,0,0,0,0],"id":16,"left_children":[1,3,5,7,9,11,13,-1,15,-1,17,19,-1,-1,21,-1,-1,-1,23,-1,25,27,-1,-1,-1,-1,-1,-1,-1],"loss_changes":[3.01748E5,1.5352297E4,1.3439283E5,8.870891E3,9.732422E0,1.1134766E1,5.771875E1,0E0,4.1191406E0,0E0,1.3670425E1,2.441211E1,0E0,0E0,4.0857178E1,0E0,0E0,0E0,2.1095276E-1,0E0,1.3674278E0,6.7404175E-1,0E0,0E0,0E0,0E0,0E0,0E0,0E0],"parents":[2147483647,0,0,1,1,2,2,3,3,4,4,5,5,6,6,8,8,10,10,11,11,14,14,18,18,20,20,21,21],"right_children":[2,4,6,8,10,12,14,-1,16,-1,18,20,-1,-1,22,-1,-1,-1,24,-1,26,28,-1,-1,-1,-1,-1,-1,-1],"split_conditions":[1E0,1E0,1E0,1.3851766E14,1.3851766E14,1.38518005E14,1.3851766E14,-4.363196E-2,1.3851767E14,-2.1704273E-2,1.3851767E14,1.3851766E14,-1.2032706E-2,4.3767806E-2,1.38518005E14,-1.11588776E-1,-1.0751343E-1,-8.383087E-2,1.38518005E14,-2.1319715E-2,1.3851767E14,1.3851767E14,5.2414663E-2,-4.563242E-2,-2.7927667E-2,-9.791009E-2,-4.7174048E-2,9.605004E-2,8.0411E-2],"split_indices":[3,2,2,0,0,0,0,0,0,0,0,0,0,0,0,0,0,0,0,0,0,0,0,0,0,0,0,0,0],"split_type":[0,0,0,0,0,0,0,0,0,0,0,0,0,0,0,0,0,0,0,0,0,0,0,0,0,0,0,0,0],"sum_hessian":[2.9314245E6,1.2040971E6,1.7273274E6,7.845872E5,4.1951E5,4.183665E5,1.3089609E6,7.627268E5,2.1860354E4,4.1799822E5,1.5117633E3,4.170698E5,1.2966747E3,1.3041414E6,4.819428E3,3.8698413E3,1.7990512E4,4.460759E1,1.4671558E3,4.170185E5,5.133175E1,2.8549823E2,4.5339297E3,8.298554E0,1.4588572E3,4.192107E1,9.410679E0,1.9691814E2,8.8580086E1],"tree_param":{"num_deleted":"0","num_feature":"4","num_nodes":"29","size_leaf_vector":"1"}},{"base_weights":[1.1758008E-2,-3.3793333E-1,2.600229E-1,-4.1561338E-1,-1.9516528E-1,-1.912319E-1,4.1006836E-1,-3.983941E-2,-1.0544531E0,-1.9489972E-2,-2.6878518E-1,-1.9149147E-1,-1.0782224E-2,4.096725E-2,5.18214E-1,-1.0906985E-1,-1.0466217E-1,-7.965494E-2,-2.529708E-1,-1.9141199E-2,-8.579413E-1,8.9934856E-1,4.9490195E-2,-4.221664E-2,-2.5173405E-2,-9.439208E-2,-4.361558E-2,9.483858E-2,7.818549E-2],"categories":[],"categories_nodes":[],"categories_segments":[],"categories_sizes":[],"default_left":[0,0,0,0,0,0,0,0,0,0,0,0,0,0,0,0,0,0,0,0,0,0,0,0,0,0,0,0,0],"id":17,"left_children":[1,3,5,7,9,11,13,-1,15,-1,17,19,-1,-1,21,-1,-1,-1,23,-1,25,27,-1,-1,-1,-1,-1,-1,-1],"loss_changes":[2.4946467E5,1.3231E4,1.1378088E5,8.498922E3,8.166992E0,9.058594E0,5.3765625E1,0E0,4.6152344E0,0E0,1.2388161E1,2.197754E1,0E0,0E0,4.0391968E1,0E0,0E0,0E0,2.0050049E-1,0E0,1.3855591E0,7.778015E-1,0E0,0E0,0E0,0E0,0E0,0E0,0E0],"parents":[2147483647,0,0,1,1,2,2,3,3,4,4,5,5,6,6,8,8,10,10,11,11,14,14,18,18,20,20,21,21],"right_children":[2,4,6,8,10,12,14,-1,16,-1,18,20,-1,-1,22,-1,-1,-1,24,-1,26,28,-1,-1,-1,-1,-1,-1,-1],"split_conditions":[1E0,1E0,1E0,1.3851766E14,1.3851766E14,1.38518005E14,1.3851766E14,-3.983941E-2,1.3851767E14,-1.9489972E-2,1.3851767E14,1.3851766E14,-1.0782224E-2,4.096725E-2,1.38518005E14,-1.0906985E-1,-1.0466217E-1,-7.965494E-2,1.38518005E14,-1.9141199E-2,1.3851767E14,1.3851767E14,4.9490195E-2,-4.221664E-2,-2.5173405E-2,-9.439208E-2,-4.361558E-2,9.483858E-2,7.818549E-2],"split_indices":[3,2,2,0,0,0,0,0,0,0,0,0,0,0,0,0,0,0,0,0,0,0,0,0,0,0,0,0,0],"split_type":[0,0,0,0,0,0,0,0,0,0,0,0,0,0,0,0,0,0,0,0,0,0,0,0,0,0,0,0,0],"sum_hessian":[2.8734825E6,1.1930384E6,1.680444E6,7.726421E5,4.2039625E5,4.1932947E5,1.2611145E6,7.5236456E5,2.0277604E4,4.1888884E5,1.5074227E3,4.180273E5,1.3021625E3,1.2565194E6,4.5951606E3,3.5783225E3,1.6699281E4,4.2419235E1,1.4650034E3,4.1797875E5,4.8559193E1,2.626963E2,4.3324644E3,8.16128E0,1.4568422E3,3.9308395E1,9.250797E0,1.8035243E2,8.234386E1],"tree_param":{"num_deleted":"0","num_feature":"4","num_nodes":"29","size_leaf_vector":"1"}},{"base_weights":[1.1007925E-2,-3.0710936E-1,2.4067435E-1,-3.8000268E-1,-1.75335E-1,-1.7176925E-1,3.8297915E-1,-3.6359515E-2,-1.0281725E0,-1.7509278E-2,-2.4280192E-1,-1.7200339E-1,-9.666725E-3,3.825937E-2,4.8936737E-1,-1.06739335E-1,-1.0197351E-1,-7.5655125E-2,-2.2811861E-1,-1.7193027E-2,-8.205606E-1,8.833078E-1,4.6619233E-2,-3.904584E-2,-2.2695476E-2,-9.102361E-2,-4.031427E-2,9.360378E-2,7.590564E-2],"categories":[],"categories_nodes":[],"categories_segments":[],"categories_sizes":[],"default_left":[0,0,0,0,0,0,0,0,0,0,0,0,0,0,0,0,0,0,0,0,0,0,0,0,0,0,0,0,0],"id":18,"left_children":[1,3,5,7,9,11,13,-1,15,-1,17,19,-1,-1,21,-1,-1,-1,23,-1,25,27,-1,-1,-1,-1,-1,-1,-1],"loss_changes":[2.0604031E5,1.1357219E4,9.61236E4,8.0955938E3,6.8398438E0,7.370117E0,4.975E1,0E0,5.1308594E0,0E0,1.1172386E1,1.972168E1,0E0,0E0,3.968628E1,0E0,0E0,0E0,1.8790436E-1,0E0,1.3904629E0,8.8098145E-1,0E0,0E0,0E0,0E0,0E0,0E0,0E0],"parents":[2147483647,0,0,1,1,2,2,3,3,4,4,5,5,6,6,8,8,10,10,11,11,14,14,18,18,20,20,21,21],"right_children":[2,4,6,8,10,12,14,-1,16,-1,18,20,-1,-1,22,-1,-1,-1,24,-1,26,28,-1,-1,-1,-1,-1,-1,-1],"split_conditions":[1E0,1E0,1E0,1.3851766E14,1.3851766E14,1.38518005E14,1.3851766E14,-3.6359515E-2,1.3851767E14,-1.7509278E-2,1.3851767E14,1.3851766E14,-9.666725E-3,3.825937E-2,1.38518005E14,-1.06739335E-1,-1.0197351E-1,-7.5655125E-2,1.38518005E14,-1.7193027E-2,1.3851767E14,1.3851767E14,4.6619233E-2,-3.904584E-2,-2.2695476E-2,-9.102361E-2,-4.031427E-2,9.360378E-2,7.590564E-2],"split_indices":[3,2,2,0,0,0,0,0,0,0,0,0,0,0,0,0,0,0,0,0,0,0,0,0,0,0,0,0,0],"split_type":[0,0,0,0,0,0,0,0,0,0,0,0,0,0,0,0,0,0,0,0,0,0,0,0,0,0,0,0,0],"sum_hessian":[2.820117E6,1.1823756E6,1.6377414E6,7.6126594E5,4.2110966E5,4.2011553E5,1.2176258E6,7.424728E5,1.8793113E4,4.1960672E5,1.502931E3,4.188085E5,1.3070292E3,1.2132346E6,4.391099E3,3.3049004E3,1.5488213E4,4.035732E1,1.4625737E3,4.1876256E5,4.594937E1,2.419085E2,4.1491904E3,8.029904E0,1.4545438E3,3.6851734E1,9.097637E0,1.652472E2,7.666131E1],"tree_param":{"num_deleted":"0","num_feature":"4","num_nodes":"29","size_leaf_vector":"1"}},{"base_weights":[1.0274091E-2,-2.7899936E-1,2.223504E-1,-3.4722227E-1,-1.5757495E-1,-1.543436E-1,3.5688287E-1,-3.3164605E-2,-1.0031621E0,-1.5735418E-2,-2.1934053E-1,-1.5455486E-1,-8.670559E-3,3.5650935E-2,4.6103674E-1,-1.0455763E-1,-9.940809E-2,-7.180519E-2,-2.0573267E-1,-1.5448766E-2,-7.8444797E-1,8.6675334E-1,4.3811038E-2,-3.61E-2,-2.0463957E-2,-8.7769926E-2,-3.7248604E-2,9.233671E-2,7.3570296E-2],"categories":[],"categories_nodes":[],"categories_segments":[],"categories_sizes":[],"default_left":[0,0,0,0,0,0,0,0,0,0,0,0,0,0,0,0,0,0,0,0,0,0,0,0,0,0,0,0,0],"id":19,"left_children":[1,3,5,7,9,11,13,-1,15,-1,17,19,-1,-1,21,-1,-1,-1,23,-1,25,27,-1,-1,-1,-1,-1,-1,-1],"loss_changes":[1.7000108E5,9.710375E3,8.1027945E4,7.66775E3,5.7148438E0,5.9990234E0,4.5671875E1,0E0,5.6660156E0,0E0,1.002787E1,1.7635742E1,0E0,0E0,3.874829E1,0E0,0E0,0E0,1.7408752E-1,0E0,1.3827686E0,9.8236084E-1,0E0,0E0,0E0,0E0,0E0,0E0,0E0],"parents":[2147483647,0,0,1,1,2,2,3,3,4,4,5,5,6,6,8,8,10,10,11,11,14,14,18,18,20,20,21,21],"right_children":[2,4,6,8,10,12,14,-1,16,-1,18,20,-1,-1,22,-1,-1,-1,24,-1,26,28,-1,-1,-1,-1,-1,-1,-1],"split_conditions":[1E0,1E0,1E0,1.3851766E14,1.3851766E14,1.38518005E14,1.3851766E14,-3.3164605E-2,1.3851767E14,-1.5735418E-2,1.3851767E14,1.3851766E14,-8.670559E-3,3.5650935E-2,1.38518005E14,-1.0455763E-1,-9.940809E-2,-7.180519E-2,1.38518005E14,-1.5448766E-2,1.3851767E14,1.3851767E14,4.3811038E-2,-3.61E-2,-2.0463957E-2,-8.7769926E-2,-3.7248604E-2,9.233671E-2,7.3570296E-2],"split_indices":[3,2,2,0,0,0,0,0,0,0,0,0,0,0,0,0,0,0,0,0,0,0,0,0,0,0,0,0,0],"split_type":[0,0,0,0,0,0,0,0,0,0,0,0,0,0,0,0,0,0,0,0,0,0,0,0,0,0,0,0,0],"sum_hessian":[2.7710898E6,1.1722005E6,1.5988892E6,7.5051694E5,4.2168353E5,4.2075775E5,1.1781315E6,7.3310975E5,1.740721E4,4.2018512E5,1.4984119E3,4.194464E5,1.3113506E3,1.1739259E6,4.2055815E3,3.0496333E3,1.4357577E4,3.8424713E1,1.459987E3,4.194029E5,4.350489E1,2.229707E2,3.9826108E3,7.9049745E0,1.4520822E3,3.455298E1,8.951914E0,1.5148392E2,7.1486786E1],"tree_param":{"num_deleted":"0","num_feature":"4","num_nodes":"29","size_leaf_vector":"1"}},{"base_weights":[9.559753E-3,-2.533576E-1,2.0504834E-1,-3.1704354E-1,-1.4165437E-1,-1.387268E-1,3.3183482E-1,-3.0230934E-2,-9.790906E-1,-1.4145329E-2,-1.9814263E-1,-1.3891742E-1,-7.7800765E-3,3.3147454E-2,4.3331584E-1,-1.0249137E-1,-9.693296E-2,-6.808608E-2,-1.855539E-1,-1.388557E-2,-7.4938834E-1,8.496184E-1,4.107457E-2,-3.3361983E-2,-1.8452905E-2,-8.460364E-2,-3.440031E-2,9.1029145E-2,7.118016E-2],"categories":[],"categories_nodes":[],"categories_segments":[],"categories_sizes":[],"default_left":[0,0,0,0,0,0,0,0,0,0,0,0,0,0,0,0,0,0,0,0,0,0,0,0,0,0,0,0,0],"id":20,"left_children":[1,3,5,7,9,11,13,-1,15,-1,17,19,-1,-1,21,-1,-1,-1,23,-1,25,27,-1,-1,-1,-1,-1,-1,-1],"loss_changes":[1.4011652E5,8.270398E3,6.8149945E4,7.222375E3,4.7666016E0,4.8813477E0,4.1609375E1,0E0,6.216797E0,0E0,8.958233E0,1.571875E1,0E0,0E0,3.759247E1,0E0,0E0,0E0,1.5973282E-1,0E0,1.3633118E0,1.0806885E0,0E0,0E0,0E0,0E0,0E0,0E0,0E0],"parents":[2147483647,0,0,1,1,2,2,3,3,4,4,5,5,6,6,8,8,10,10,11,11,14,14,18,18,20,20,21,21],"right_children":[2,4,6,8,10,12,14,-1,16,-1,18,20,-1,-1,22,-1,-1,-1,24,-1,26,28,-1,-1,-1,-1,-1,-1,-1],"split_conditions":[1E0,1E0,1E0,1.3851766E14,1.3851766E14,1.38518005E14,1.3851766E14,-3.0230934E-2,1.3851767E14,-1.4145329E-2,1.3851767E14,1.3851766E14,-7.7800765E-3,3.3147454E-2,1.38518005E14,-1.0249137E-1,-9.693296E-2,-6.808608E-2,1.38518005E14,-1.388557E-2,1.3851767E14,1.3851767E14,4.107457E-2,-3.3361983E-2,-1.8452905E-2,-8.460364E-2,-3.440031E-2,9.1029145E-2,7.118016E-2],"split_indices":[3,2,2,0,0,0,0,0,0,0,0,0,0,0,0,0,0,0,0,0,0,0,0,0,0,0,0,0,0],"split_type":[0,0,0,0,0,0,0,0,0,0,0,0,0,0,0,0,0,0,0,0,0,0,0,0,0,0,0,0,0],"sum_hessian":[2.7261412E6,1.162571E6,1.5635704E6,7.404262E5,4.221448E5,4.2128297E5,1.1422874E6,7.243078E5,1.6118395E4,4.2065084E5,1.4939562E3,4.1996778E5,1.3151929E3,1.1382504E6,4.0370454E3,2.8122412E3,1.3306153E4,3.6621254E1,1.457335E3,4.1992656E5,4.122476E1,2.0573055E2,3.8313147E3,7.7868032E0,1.4495481E3,3.2410717E1,8.814041E0,1.3895247E2,6.6778076E1],"tree_param":{"num_deleted":"0","num_feature":"4","num_nodes":"29","size_leaf_vector":"1"}},{"base_weights":[8.871149E-3,-2.2996756E-1,1.8876408E-1,-2.2050884E-1,-8.8520247E-1,-1.2472007E-1,3.078868E-1,-2.7537737E-2,-1.2718807E-2,-9.5567745E-1,-1.7898153E-1,-1.24892056E-1,-6.9835256E-3,3.075408E-2,4.0629897E-1,-1.0051202E-1,-9.452035E-2,-6.448461E-2,-1.673552E-1,-1.2483544E-2,-7.1522546E-1,8.318456E-1,3.8418673E-2,-3.0816829E-2,-1.6639596E-2,-8.150335E-2,-3.1753566E-2,8.9673445E-2,6.873743E-2],"categories":[],"categories_nodes":[],"categories_segments":[],"categories_sizes":[],"default_left":[0,0,0,0,0,0,0,0,0,0,0,0,0,0,0,0,0,0,0,0,0,0,0,0,0,0,0,0,0],"id":21,"left_children":[1,3,5,7,9,11,13,-1,-1,15,17,19,-1,-1,21,-1,-1,-1,23,-1,25,27,-1,-1,-1,-1,-1,-1,-1],"loss_changes":[1.1536283E5,7.148957E3,5.7190848E4,5.822375E3,8.16791E2,3.9716797E0,3.7664062E1,0E0,0E0,6.7802734E0,7.9657745E0,1.3961914E1,0E0,0E0,3.6237915E1,0E0,0E0,0E0,1.453476E-1,0E0,1.333086E0,1.1745758E0,0E0,0E0,0E0,0E0,0E0,0E0,0E0],"parents":[2147483647,0,0,1,1,2,2,3,3,4,4,5,5,6,6,9,9,10,10,11,11,14,14,18,18,20,20,21,21],"right_children":[2,4,6,8,10,12,14,-1,-1,16,18,20,-1,-1,22,-1,-1,-1,24,-1,26,28,-1,-1,-1,-1,-1,-1,-1],"split_conditions":[1E0,1.3851766E14,1E0,1E0,1E0,1.38518005E14,1.3851766E14,-2.7537737E-2,-1.2718807E-2,1.3851767E14,1.3851767E14,1.3851766E14,-6.9835256E-3,3.075408E-2,1.38518005E14,-1.0051202E-1,-9.452035E-2,-6.448461E-2,1.38518005E14,-1.2483544E-2,1.3851767E14,1.3851767E14,3.8418673E-2,-3.0816829E-2,-1.6639596E-2,-8.150335E-2,-3.1753566E-2,8.9673445E-2,6.873743E-2],"split_indices":[3,0,2,2,2,0,0,0,0,0,0,0,0,0,0,0,0,0,0,0,0,0,0,0,0,0,0,0,0],"split_type":[0,0,0,0,0,0,0,0,0,0,0,0,0,0,0,0,0,0,0,0,0,0,0,0,0,0,0,0,0],"sum_hessian":[2.6850152E6,1.1535198E6,1.5314955E6,1.1371062E6,1.6413475E4,4.2171294E5,1.1097826E6,7.1608056E5,4.2102572E5,1.4923846E4,1.4896292E3,4.2039434E5,1.3186123E3,1.1058985E6,3.8840513E3,2.5922056E3,1.233164E4,3.494458E1,1.4546846E3,4.2035522E5,3.9105396E1,1.9004492E2,3.6940063E3,7.6755185E0,1.447009E3,3.042119E1,8.684207E0,1.2754948E2,6.2495445E1],"tree_param":{"num_deleted":"0","num_feature":"4","num_nodes":"29","size_leaf_vector":"1"}},{"base_weights":[8.210889E-3,-2.086368E-1,1.7348342E-1,-1.9984064E-1,-8.578671E-1,-1.1214957E-1,2.850757E-1,-2.506652E-2,-1.1438286E-2,-9.326847E-1,-1.6165756E-1,-1.1230474E-1,-6.2704147E-3,2.8474486E-2,3.8007367E-1,-9.859501E-2,-9.2146814E-1,-6.0992133E-2,-1.509371E-1,-1.1225284E-2,-6.818512E-1,8.1338996E-1,3.585128E-2,-8.386712E-2,-9.223261E-2,-2.8451255E-2,-1.5004064E-2,-7.845273E-2,-2.9294405E-2,8.826261E-2,6.624627E-2],"categories":[],"categories_nodes":[],"categories_segments":[],"categories_sizes":[],"default_left":[0,0,0,0,0,0,0,0,0,0,0,0,0,0,0,0,0,0,0,0,0,0,0,0,0,0,0,0,0,0,0],"id":22,"left_children":[1,3,5,7,9,11,13,-1,-1,15,17,19,-1,-1,21,-1,23,-1,25,-1,27,29,-1,-1,-1,-1,-1,-1,-1,-1,-1],"loss_changes":[9.488192E4,6.5389805E3,4.788787E4,4.9069023E3,7.9713477E2,3.2314453E0,3.384375E1,0E0,0E0,7.3496094E0,7.0513496E0,1.236084E1,0E0,0E0,3.4708435E1,0E0,3.90625E-2,0E0,1.3130951E-1,0E0,1.2932167E0,1.2625961E0,0E0,0E0,0E0,0E0,0E0,0E0,0E0,0E0,0E0],"parents":[2147483647,0,0,1,1,2,2,3,3,4,4,5,5,6,6,9,9,10,10,11,11,14,14,16,16,18,18,20,20,21,21],"right_children":[2,4,6,8,10,12,14,-1,-1,16,18,20,-1,-1,22,-1,24,-1,26,-1,28,30,-1,-1,-1,-1,-1,-1,-1,-1,-1],"split_conditions":[1E0,1.3851766E14,1E0,1E0,1E0,1.38518005E14,1.3851766E14,-2.506652E-2,-1.1438286E-2,1.3851767E14,1.3851767E14,1.3851766E14,-6.2704147E-3,2.8474486E-2,1.38518005E14,-9.859501E-2,1.38518005E14,-6.0992133E-2,1.38518005E14,-1.1225284E-2,1.3851767E14,1.3851767E14,3.585128E-2,-8.386712E-2,-9.223261E-2,-2.8451255E-2,-1.5004064E-2,-7.845273E-2,-2.9294405E-2,8.826261E-2,6.624627E-2],"split_indices":[3,0,2,2,2,0,0,0,0,0,0,0,0,0,0,0,0,0,0,0,0,0,0,0,0,0,0,0,0,0,0],"split_type":[0,0,0,0,0,0,0,0,0,0,0,0,0,0,0,0,0,0,0,0,0,0,0,0,0,0,0,0,0,0,0],"sum_hessian":[2.6474492E6,1.14506E6,1.5023891E6,1.1297546E6,1.5305307E4,4.2206534E5,1.0803238E6,7.084275E5,4.2132716E5,1.3819831E4,1.4854764E3,4.207437E5,1.3216592E3,1.0765785E6,3.7452532E3,2.3888364E3,1.1430994E4,3.3390697E1,1.4520857E3,4.2070656E5,3.7141357E1,1.757819E2,3.5694714E3,1.2726624E2,1.1303728E4,7.571112E0,1.4445146E3,2.8578928E1,8.5624275E0,1.1717925E2,5.8602657E1],"tree_param":{"num_deleted":"0","num_feature":"4","num_nodes":"31","size_leaf_vector":"1"}},{"base_weights":[7.581826E-3,-1.8919177E-1,1.5918724E-1,-1.8103103E-1,-8.306917E-1,-1.0086225E-1,2.6342857E-1,-2.2800576E-2,-1.0288194E-2,-9.099114E-1,-1.459924E-1,-1.0100224E-1,-5.6316257E-3,2.6311357E-2,3.5471866E-1,-9.6718945E-2,-8.97927E-1,-5.7603646E-2,-1.3612188E-1,-1.009547E-2,-6.4919746E-1,7.942178E-1,3.3379283E-2,-8.116134E-2,-8.98828E-2,-2.6253337E-2,-1.3528532E-2,-7.54398E-2,-2.7010292E-2,8.6790316E-2,6.371216E-2],"categories":[],"categories_nodes":[],"categories_segments":[],"categories_sizes":[],"default_left":[0,0,0,0,0,0,0,0,0,0,0,0,0,0,0,0,0,0,0,0,0,0,0,0,0,0,0,0,0,0,0],"id":23,"left_children":[1,3,5,7,9,11,13,-1,-1,15,17,19,-1,-1,21,-1,23,-1,25,-1,27,29,-1,-1,-1,-1,-1,-1,-1,-1,-1],"loss_changes":[7.795651E4,5.953176E3,4.0011242E4,4.122207E3,7.746875E2,2.628418E0,3.0203125E1,0E0,0E0,7.919922E0,6.2145576E0,1.0907715E1,0E0,0E0,3.303134E1,0E0,9.472656E-2,0E0,1.1788559E-1,0E0,1.2449455E0,1.3433609E0,0E0,0E0,0E0,0E0,0E0,0E0,0E0,0E0,0E0],"parents":[2147483647,0,0,1,1,2,2,3,3,4,4,5,5,6,6,9,9,10,10,11,11,14,14,16,16,18,18,20,20,21,21],"right_children":[2,4,6,8,10,12,14,-1,-1,16,18,20,-1,-1,22,-1,24,-1,26,-1,28,30,-1,-1,-1,-1,-1,-1,-1,-1,-1],"split_conditions":[1E0,1.3851766E14,1E0,1E0,1E0,1.38518005E14,1.3851766E14,-2.2800576E-2,-1.0288194E-2,1.3851767E14,1.3851767E14,1.3851766E14,-5.6316257E-3,2.6311357E-2,1.38518005E14,-9.6718945E-2,1.38518005E14,-5.7603646E-2,1.38518005E14,-1.009547E-2,1.3851767E14,1.3851767E14,3.3379283E-2,-8.116134E-2,-8.98828E-2,-2.6253337E-2,-1.3528532E-2,-7.54398E-2,-2.7010292E-2,8.6790316E-2,6.371216E-2],"split_indices":[3,0,2,2,2,0,0,0,0,0,0,0,0,0,0,0,0,0,0,0,0,0,0,0,0,0,0,0,0,0,0],"split_type":[0,0,0,0,0,0,0,0,0,0,0,0,0,0,0,0,0,0,0,0,0,0,0,0,0,0,0,0,0,0,0],"sum_hessian":[2.613187E6,1.1371904E6,1.4759968E6,1.1229068E6,1.42836E4,4.2235453E5,1.0536421E6,7.013374E5,4.215694E5,1.2802072E4,1.4815278E3,4.2103016E5,1.3243763E3,1.0500228E6,3.619399E3,2.201333E3,1.0600739E4,3.1954548E1,1.4495732E3,4.209948E5,3.53259E1,1.6281866E2,3.4565803E3,1.18831085E2,1.0481908E4,7.4734683E0,1.4420997E3,2.687732E1,8.448583E0,1.0775292E2,5.506573E1],"tree_param":{"num_deleted":"0","num_feature":"4","num_nodes":"31","size_leaf_vector":"1"}},{"base_weights":[6.985055E-3,-1.7147507E-1,1.4584927E-1,-1.639207E-1,-8.035446E-1,-9.072252E-2,2.4295908E-1,-2.0724583E-2,-9.254889E-3,-8.871842E-1,-1.3182724E-1,-9.08488E-2,-5.05911E-3,2.4266033E-2,3.303093E-1,-9.4865076E-2,-8.744119E-1,-5.4316897E-2,-1.2275186E-1,-9.080528E-3,-6.1722803E-1,7.743081E-1,3.1009166E-2,-7.8451164E-2,-8.753579E-2,-2.421214E-2,-1.2197218E-2,-7.245631E-2,-2.4889806E-2,8.5250966E-2,6.114195E-2],"categories":[],"categories_nodes":[],"categories_segments":[],"categories_sizes":[],"default_left":[0,0,0,0,0,0,0,0,0,0,0,0,0,0,0,0,0,0,0,0,0,0,0,0,0,0,0,0,0,0,0],"id":24,"left_children":[1,3,5,7,9,11,13,-1,-1,15,17,19,-1,-1,21,-1,23,-1,25,-1,27,29,-1,-1,-1,-1,-1,-1,-1,-1,-1],"loss_changes":[6.3985938E4,5.395004E3,3.335932E4,3.4525898E3,7.4961035E2,2.1367188E0,2.678125E1,0E0,0E0,8.486328E0,5.4538155E0,9.59375E0,0E0,0E0,3.1235168E1,0E0,1.508789E-1,0E0,1.052475E-1,0E0,1.1895933E0,1.4154816E0,0E0,0E0,0E0,0E0,0E0,0E0,0E0,0E0,0E0],"parents":[2147483647,0,0,1,1,2,2,3,3,4,4,5,5,6,6,9,9,10,10,11,11,14,14,16,16,18,18,20,20,21,21],"right_children":[2,4,6,8,10,12,14,-1,-1,16,18,20,-1,-1,22,-1,24,-1,26,-1,28,30,-1,-1,-1,-1,-1,-1,-1,-1,-1],"split_conditions":[1E0,1.3851766E14,1E0,1E0,1E0,1.38518005E14,1.3851766E14,-2.0724583E-2,-9.254889E-3,1.3851767E14,1.3851767E14,1.3851766E14,-5.05911E-3,2.4266033E-2,1.38518005E14,-9.4865076E-2,1.38518005E14,-5.4316897E-2,1.38518005E14,-9.080528E-3,1.3851767E14,1.3851767E14,3.1009166E-2,-7.8451164E-2,-8.753579E-2,-2.421214E-2,-1.2197218E-2,-7.245631E-2,-2.4889806E-2,8.5250966E-2,6.114195E-2],"split_indices":[3,0,2,2,2,0,0,0,0,0,0,0,0,0,0,0,0,0,0,0,0,0,0,0,0,0,0,0,0,0,0],"split_type":[0,0,0,0,0,0,0,0,0,0,0,0,0,0,0,0,0,0,0,0,0,0,0,0,0,0,0,0,0,0,0],"sum_hessian":[2.5819788E6,1.1298989E6,1.4520799E6,1.1165554E6,1.334358E4,4.225921E5,1.02948775E6,6.9479144E5,4.217639E5,1.1865779E4,1.4778014E3,4.212653E5,1.3268015E3,1.02598244E6,3.5053633E3,2.0288253E3,9.836954E3,3.063034E1,1.447171E3,4.2123166E5,3.3651497E1,1.5104189E2,3.3543213E3,1.1108152E2,9.725872E3,7.382399E0,1.4397887E3,2.5309036E1,8.342463E0,9.918853E1,5.1853355E1],"tree_param":{"num_deleted":"0","num_feature":"4","num_nodes":"31","size_leaf_vector":"1"}},{"base_weights":[6.422201E-3,-1.5534215E-1,1.3343959E-1,-1.4836368E-1,-7.7632827E-1,-8.16107E-2,2.236714E-1,-1.8824343E-2,-8.326142E-3,-8.643587E-1,-1.19019456E-1,-8.172459E-2,-4.545746E-3,2.2338914E-2,3.0690202E-1,-9.301694E-2,-8.507845E-1,-5.113175E-2,-1.1068585E-1,-8.1684785E-3,-5.859329E-1,7.536525E-1,2.8745396E-2,-7.5729325E-2,-8.517768E-2,-2.2317601E-2,-1.0996007E-2,-6.9497205E-2,-2.2922464E-2,8.363964E-2,5.854403E-2],"categories":[],"categories_nodes":[],"categories_segments":[],"categories_sizes":[],"default_left":[0,0,0,0,0,0,0,0,0,0,0,0,0,0,0,0,0,0,0,0,0,0,0,0,0,0,0,0,0,0,0],"id":25,"left_children":[1,3,5,7,9,11,13,-1,-1,15,17,19,-1,-1,21,-1,23,-1,25,-1,27,29,-1,-1,-1,-1,-1,-1,-1,-1,-1],"loss_changes":[5.24683E4,4.867172E3,2.7756463E4,2.8836172E3,7.221079E2,1.7373047E0,2.3601562E1,0E0,0E0,9.042969E0,4.7665596E0,8.411621E0,0E0,0E0,2.9350739E1,0E0,2.0214844E-1,0E0,9.350586E-2,0E0,1.1285181E0,1.477684E0,0E0,0E0,0E0,0E0,0E0,0E0,0E0,0E0,0E0],"parents":[2147483647,0,0,1,1,2,2,3,3,4,4,5,5,6,6,9,9,10,10,11,11,14,14,16,16,18,18,20,20,21,21],"right_children":[2,4,6,8,10,12,14,-1,-1,16,18,20,-1,-1,22,-1,24,-1,26,-1,28,30,-1,-1,-1,-1,-1,-1,-1,-1,-1],"split_conditions":[1E0,1.3851766E14,1E0,1E0,1E0,1.38518005E14,1.3851766E14,-1.8824343E-2,-8.326142E-3,1.3851767E14,1.3851767E14,1.3851766E14,-4.545746E-3,2.2338914E-2,1.38518005E14,-9.301694E-2,1.38518005E14,-5.113175E-2,1.38518005E14,-8.1684785E-3,1.3851767E14,1.3851767E14,2.8745396E-2,-7.5729325E-2,-8.517768E-2,-2.2317601E-2,-1.0996007E-2,-6.9497205E-2,-2.2922464E-2,8.363964E-2,5.854403E-2],"split_indices":[3,0,2,2,2,0,0,0,0,0,0,0,0,0,0,0,0,0,0,0,0,0,0,0,0,0,0,0,0,0,0],"split_type":[0,0,0,0,0,0,0,0,0,0,0,0,0,0,0,0,0,0,0,0,0,0,0,0,0,0,0,0,0,0,0],"sum_hessian":[2.553587E6,1.1231662E6,1.4304208E6,1.1106859E6,1.2480357E4,4.2278756E5,1.0076332E6,6.88766E5,4.2191994E5,1.1006051E4,1.4743066E3,4.214586E5,1.3289679E3,1.0042311E6,3.4020713E3,1.8704099E3,9.135641E3,2.9411833E1,1.4448949E3,4.2142647E5,3.2110107E1,1.4034703E2,3.2617244E3,1.0397391E2,9.031667E3,7.297662E0,1.4375972E3,2.386632E1,8.243788E0,9.141003E1,4.8936996E1],"tree_param":{"num_deleted":"0","num_feature":"4","num_nodes":"31","size_leaf_vector":"1"}},{"base_weights":[5.892409E-3,-1.4066091E-1,1.2192141E-1,-1.3422696E-1,-7.489751E-1,-7.342034E-2,2.0555577E-1,-1.7086683E-2,-7.491165E-3,-8.4131557E-1,-1.0743991E-1,-7.3523045E-2,-4.085231E-3,2.0529004E-2,2.8454682E-1,-9.115996E-2,-8.269328E-1,-4.8049536E-2,-9.97965E-2,-7.348665E-3,-5.5532247E-1,7.3225814E-1,2.6591767E-2,-7.299135E-2,-8.279721E-2,-2.0560343E-2,-9.912167E-3,-6.656025E-2,-2.1098513E-2,8.19525E-2,5.592766E-2],"categories":[],"categories_nodes":[],"categories_segments":[],"categories_sizes":[],"default_left":[0,0,0,0,0,0,0,0,0,0,0,0,0,0,0,0,0,0,0,0,0,0,0,0,0,0,0,0,0,0,0],"id":26,"left_children":[1,3,5,7,9,11,13,-1,-1,15,17,19,-1,-1,21,-1,23,-1,25,-1,27,29,-1,-1,-1,-1,-1,-1,-1,-1,-1],"loss_changes":[4.2983547E4,4.3715645E3,2.30489E4,2.4020977E3,6.9241895E2,1.4118652E0,2.0679688E1,0E0,0E0,9.57666E0,4.1494617E0,7.352051E0,0E0,0E0,2.740863E1,0E0,2.5195312E-1,0E0,8.270836E-2,0E0,1.0630827E0,1.5288162E0,0E0,0E0,0E0,0E0,0E0,0E0,0E0,0E0,0E0],"parents":[2147483647,0,0,1,1,2,2,3,3,4,4,5,5,6,6,9,9,10,10,11,11,14,14,16,16,18,18,20,20,21,21],"right_children":[2,4,6,8,10,12,14,-1,-1,16,18,20,-1,-1,22,-1,24,-1,26,-1,28,30,-1,-1,-1,-1,-1,-1,-1,-1,-1],"split_conditions":[1E0,1.3851766E14,1E0,1E0,1E0,1.38518005E14,1.3851766E14,-1.7086683E-2,-7.491165E-3,1.3851767E14,1.3851767E14,1.3851766E14,-4.085231E-3,2.0529004E-2,1.38518005E14,-9.115996E-2,1.38518005E14,-4.8049536E-2,1.38518005E14,-7.348665E-3,1.3851767E14,1.3851767E14,2.6591767E-2,-7.299135E-2,-8.279721E-2,-2.0560343E-2,-9.912167E-3,-6.656025E-2,-2.1098513E-2,8.19525E-2,5.592766E-2],"split_indices":[3,0,2,2,2,0,0,0,0,0,0,0,0,0,0,0,0,0,0,0,0,0,0,0,0,0,0,0,0,0,0],"split_type":[0,0,0,0,0,0,0,0,0,0,0,0,0,0,0,0,0,0,0,0,0,0,0,0,0,0,0,0,0,0,0],"sum_hessian":[2.5277822E6,1.116968E6,1.4108144E6,1.105279E6,1.1688975E4,4.229486E5,9.8786575E5,6.832341E5,4.2204488E5,1.0217929E4,1.4710459E3,4.216177E5,1.3309044E3,9.845572E5,3.3085618E3,1.7251738E3,8.492755E3,2.8292593E1,1.4427534E3,4.21587E5,3.069351E1,1.3063857E2,3.177923E3,9.746479E1,8.39529E3,7.2189755E0,1.4355344E3,2.2541279E1,8.152231E0,8.434835E1,4.6290207E1],"tree_param":{"num_deleted":"0","num_feature":"4","num_nodes":"31","size_leaf_vector":"1"}},{"base_weights":[5.3970036E-3,-1.2730986E-1,1.1125895E-1,-1.213887E-1,-7.2144485E-1,-6.605674E-2,1.8859833E-1,-1.5499304E-2,-6.7403815E-3,-8.1795853E-1,-9.697261E-2,-6.6149354E-2,-3.6719942E-3,1.8834902E-2,2.6327968E-1,-8.928146E-2,-8.0276877E-1,-4.5072556E-2,-8.996987E-2,-6.6116094E-3,-5.254222E-1,7.101449E-1,2.4550693E-2,-7.0235275E-2,-8.03855E-2,-1.8931579E-2,-8.934305E-3,-6.364556E-2,-1.9408777E-2,8.018645E-2,5.330313E-2],"categories":[],"categories_nodes":[],"categories_segments":[],"categories_sizes":[],"default_left":[0,0,0,0,0,0,0,0,0,0,0,0,0,0,0,0,0,0,0,0,0,0,0,0,0,0,0,0,0,0,0],"id":27,"left_children":[1,3,5,7,9,11,13,-1,-1,15,17,19,-1,-1,21,-1,23,-1,25,-1,27,29,-1,-1,-1,-1,-1,-1,-1,-1,-1],"loss_changes":[3.518272E4,3.9093496E3,1.910399E4,1.9960957E3,6.608135E2,1.1469727E0,1.8007812E1,0E0,0E0,1.008252E1,3.5985556E0,6.4069824E0,0E0,0E0,2.5438232E1,0E0,2.9736328E-1,0E0,7.286739E-2,0E0,9.946213E-1,1.5678978E0,0E0,0E0,0E0,0E0,0E0,0E0,0E0,0E0,0E0],"parents":[2147483647,0,0,1,1,2,2,3,3,4,4,5,5,6,6,9,9,10,10,11,11,14,14,16,16,18,18,20,20,21,21],"right_children":[2,4,6,8,10,12,14,-1,-1,16,18,20,-1,-1,22,-1,24,-1,26,-1,28,30,-1,-1,-1,-1,-1,-1,-1,-1,-1],"split_conditions":[1E0,1.3851766E14,1E0,1E0,1E0,1.38518005E14,1.3851766E14,-1.5499304E-2,-6.7403815E-3,1.3851767E14,1.3851767E14,1.3851766E14,-3.6719942E-3,1.8834902E-2,1.38518005E14,-8.928146E-2,1.38518005E14,-4.5072556E-2,1.38518005E14,-6.6116094E-3,1.3851767E14,1.3851767E14,2.4550693E-2,-7.0235275E-2,-8.03855E-2,-1.8931579E-2,-8.934305E-3,-6.364556E-2,-1.9408777E-2,8.018645E-2,5.330313E-2],"split_indices":[3,0,2,2,2,0,0,0,0,0,0,0,0,0,0,0,0,0,0,0,0,0,0,0,0,0,0,0,0,0,0],"split_type":[0,0,0,0,0,0,0,0,0,0,0,0,0,0,0,0,0,0,0,0,0,0,0,0,0,0,0,0,0,0,0],"sum_hessian":[2.5043545E6,1.1112761E6,1.3930784E6,1.1003116E6,1.0964517E4,4.230815E5,9.6999694E5,6.781667E5,4.2214488E5,9.4965E3,1.4680167E3,4.2174888E5,1.3326365E3,9.6677294E5,3.2239438E3,1.5922112E3,7.904289E3,2.7266134E1,1.4407505E3,4.2171947E5,2.939345E1,1.21828156E2,3.1021157E3,9.1511696E1,7.8127773E3,7.14604E0,1.4336045E3,2.1326012E1,8.067437E0,7.793928E1,4.3888878E1],"tree_param":{"num_deleted":"0","num_feature":"4","num_nodes":"31","size_leaf_vector":"1"}},{"base_weights":[4.935722E-3,-1.1517643E-1,1.01411596E-1,-1.0973638E-1,-6.9372267E-1,-5.943514E-2,1.7277382E-1,-1.4050669E-2,-6.0651307E-3,-7.9421395E-1,-8.7512165E-2,-5.9518635E-2,-3.3009995E-3,1.7254068E-2,2.431234E-1,-8.737031E-2,-7.7822804E-1,-4.2203613E-2,-8.110282E-2,-5.948826E-3,-4.9626863E-1,6.873459E-1,2.2623295E-2,-6.746154E-2,-7.793602E-2,-1.742303E-2,-8.0521135E-3,-6.0755283E-2,-1.7844629E-2,7.833948E-2,5.0680947E-2],"categories":[],"categories_nodes":[],"categories_segments":[],"categories_sizes":[],"default_left":[0,0,0,0,0,0,0,0,0,0,0,0,0,0,0,0,0,0,0,0,0,0,0,0,0,0,0,0,0,0,0],"id":28,"left_children":[1,3,5,7,9,11,13,-1,-1,15,17,19,-1,-1,21,-1,23,-1,25,-1,27,29,-1,-1,-1,-1,-1,-1,-1,-1,-1],"loss_changes":[2.8774037E4,3.4810557E3,1.5806237E4,1.6549854E3,6.2758887E2,9.3188477E-1,1.5605469E1,0E0,0E0,1.0550781E1,3.1094503E0,5.5671387E0,0E0,0E0,2.346733E1,0E0,3.383789E-1,0E0,6.396961E-2,0E0,9.244118E-1,1.5942345E0,0E0,0E0,0E0,0E0,0E0,0E0,0E0,0E0,0E0],"parents":[2147483647,0,0,1,1,2,2,3,3,4,4,5,5,6,6,9,9,10,10,11,11,14,14,16,16,18,18,20,20,21,21],"right_children":[2,4,6,8,10,12,14,-1,-1,16,18,20,-1,-1,22,-1,24,-1,26,-1,28,30,-1,-1,-1,-1,-1,-1,-1,-1,-1],"split_conditions":[1E0,1.3851766E14,1E0,1E0,1E0,1.38518005E14,1.3851766E14,-1.4050669E-2,-6.0651307E-3,1.3851767E14,1.3851767E14,1.3851766E14,-3.3009995E-3,1.7254068E-2,1.38518005E14,-8.737031E-2,1.38518005E14,-4.2203613E-2,1.38518005E14,-5.948826E-3,1.3851767E14,1.3851767E14,2.2623295E-2,-6.746154E-2,-7.793602E-2,-1.742303E-2,-8.0521135E-3,-6.0755283E-2,-1.7844629E-2,7.833948E-2,5.0680947E-2],"split_indices":[3,0,2,2,2,0,0,0,0,0,0,0,0,0,0,0,0,0,0,0,0,0,0,0,0,0,0,0,0,0,0],"split_type":[0,0,0,0,0,0,0,0,0,0,0,0,0,0,0,0,0,0,0,0,0,0,0,0,0,0,0,0,0,0,0],"sum_hessian":[2.4831032E6,1.1060609E6,1.3770424E6,1.0957586E6,1.0302189E4,4.2319138E5,9.5385106E5,6.7353394E5,4.2222472E5,8.836978E3,1.4652126E3,4.218572E5,1.334187E3,9.507036E5,3.1474004E3,1.4706399E3,7.3663374E3,2.6326063E1,1.4388865E3,4.21829E5,2.8201817E1,1.1383452E2,3.033566E3,8.607349E1,7.2802637E3,7.078538E0,1.431808E3,2.0212782E1,7.989034E0,7.212393E1,4.171059E1],"tree_param":{"num_deleted":"0","num_feature":"4","num_nodes":"31","size_leaf_vector":"1"}},{"base_weights":[4.505993E-3,-1.0415669E-1,9.2333734E-2,-9.9166475E-2,-6.6581714E-1,-5.3479664E-2,1.5804504E-1,-1.2729906E-2,-5.457755E-3,-7.7002966E-1,-7.896396E-2,-5.355493E-2,-2.9679148E-3,1.5782764E-2,2.2409277E-1,-8.541701E-2,-7.532685E-1,-3.944565E-2,-7.3103115E-2,-5.3527197E-3,-4.6790498E-1,6.639131E-1,2.0809943E-2,-6.4672686E-2,-7.544451E-2,-1.6026897E-2,-7.25638E-3,-5.7893224E-2,-1.6397899E-2,7.641091E-2,4.80728E-2],"categories":[],"categories_nodes":[],"categories_segments":[],"categories_sizes":[],"default_left":[0,0,0,0,0,0,0,0,0,0,0,0,0,0,0,0,0,0,0,0,0,0,0,0,0,0,0,0,0,0,0],"id":29,"left_children":[1,3,5,7,9,11,13,-1,-1,15,17,19,-1,-1,21,-1,23,-1,25,-1,27,29,-1,-1,-1,-1,-1,-1,-1,-1,-1],"loss_changes":[2.3513893E4,3.0866436E3,1.3055371E4,1.369292E3,5.930659E2,7.5671387E-1,1.3449219E1,0E0,0E0,1.0972168E1,2.6774855E0,4.8236084E0,0E0,0E0,2.152153E1,0E0,3.7402344E-1,0E0,5.59783E-2,0E0,8.536377E-1,1.6073265E0,0E0,0E0,0E0,0E0,0E0,0E0,0E0,0E0,0E0],"parents":[2147483647,0,0,1,1,2,2,3,3,4,4,5,5,6,6,9,9,10,10,11,11,14,14,16,16,18,18,20,20,21,21],"right_children":[2,4,6,8,10,12,14,-1,-1,16,18,20,-1,-1,22,-1,24,-1,26,-1,28,30,-1,-1,-1,-1,-1,-1,-1,-1,-1],"split_conditions":[1E0,1.3851766E14,1E0,1E0,1E0,1.38518005E14,1.3851766E14,-1.2729906E-2,-5.457755E-3,1.3851767E14,1.3851767E14,1.3851766E14,-2.9679148E-3,1.5782764E-2,1.38518005E14,-8.541701E-2,1.38518005E14,-3.944565E-2,1.38518005E14,-5.3527197E-3,1.3851767E14,1.3851767E14,2.0809943E-2,-6.4672686E-2,-7.544451E-2,-1.6026897E-2,-7.25638E-3,-5.7893224E-2,-1.6397899E-2,7.641091E-2,4.80728E-2],"split_indices":[3,0,2,2,2,0,0,0,0,0,0,0,0,0,0,0,0,0,0,0,0,0,0,0,0,0,0,0,0,0,0],"split_type":[0,0,0,0,0,0,0,0,0,0,0,0,0,0,0,0,0,0,0,0,0,0,0,0,0,0,0,0,0,0,0],"sum_hessian":[2.4638372E6,1.1012916E6,1.3625456E6,1.0915942E6,9.697367E3,4.2328234E5,9.392633E5,6.693058E5,4.222884E5,8.234742E3,1.4626252E3,4.2194675E5,1.3355752E3,9.361851E5,3.0781978E3,1.3596097E3,6.875132E3,2.5466143E1,1.4371592E3,4.2191966E5,2.7110743E1,1.0658469E2,2.971613E3,8.111084E1,6.794021E3,7.0161505E0,1.4301431E3,1.9194098E1,7.916644E0,6.684919E1,3.9735497E1],"tree_param":{"num_deleted":"0","num_feature":"4","num_nodes":"31","size_leaf_vector":"1"}},{"base_weights":[4.1087386E-3,-9.415513E-2,8.398525E-2,-8.95842E-2,-6.377579E-1,-4.8122894E-2,1.4437774E-1,-1.1526943E-2,-4.911344E-3,-7.453744E-1,-7.124094E-2,-4.819073E-2,-2.668714E-3,1.4417561E-2,2.0618352E-1,-8.341358E-2,-7.278694E-1,-3.6801506E-2,-6.588614E-2,-4.816542E-3,-4.4037795E-1,6.3990575E-1,1.9109195E-2,-6.1873138E-2,-7.2908804E-2,-1.4735758E-2,-6.5386505E-3,-5.5064477E-2,-1.5060897E-2,7.440081E-2,4.5489695E-2],"categories":[],"categories_nodes":[],"categories_segments":[],"categories_sizes":[],"default_left":[0,0,0,0,0,0,0,0,0,0,0,0,0,0,0,0,0,0,0,0,0,0,0,0,0,0,0,0,0,0,0],"id":30,"left_children":[1,3,5,7,9,11,13,-1,-1,15,17,19,-1,-1,21,-1,23,-1,25,-1,27,29,-1,-1,-1,-1,-1,-1,-1,-1,-1],"loss_changes":[1.920165E4,2.725584E3,1.0766385E4,1.1307559E3,5.5758545E2,6.1431885E-1,1.15390625E1,0E0,0E0,1.1335449E1,2.2979126E0,4.168152E0,0E0,0E0,1.9623245E1,0E0,4.0405273E-1,0E0,4.8841953E-2,0E0,7.8336954E-1,1.6069908E0,0E0,0E0,0E0,0E0,0E0,0E0,0E0,0E0,0E0],"parents":[2147483647,0,0,1,1,2,2,3,3,4,4,5,5,6,6,9,9,10,10,11,11,14,14,16,16,18,18,20,20,21,21],"right_children":[2,4,6,8,10,12,14,-1,-1,16,18,20,-1,-1,22,-1,24,-1,26,-1,28,30,-1,-1,-1,-1,-1,-1,-1,-1,-1],"split_conditions":[1E0,1.3851766E14,1E0,1E0,1E0,1.38518005E14,1.3851766E14,-1.1526943E-2,-4.911344E-3,1.3851767E14,1.3851767E14,1.3851766E14,-2.668714E-3,1.4417561E-2,1.38518005E14,-8.341358E-2,1.38518005E14,-3.6801506E-2,1.38518005E14,-4.816542E-3,1.3851767E14,1.3851767E14,1.9109195E-2,-6.1873138E-2,-7.2908804E-2,-1.4735758E-2,-6.5386505E-3,-5.5064477E-2,-1.5060897E-2,7.440081E-2,4.5489695E-2],"split_indices":[3,0,2,2,2,0,0,0,0,0,0,0,0,0,0,0,0,0,0,0,0,0,0,0,0,0,0,0,0,0,0],"split_type":[0,0,0,0,0,0,0,0,0,0,0,0,0,0,0,0,0,0,0,0,0,0,0,0,0,0,0,0,0,0,0],"sum_hessian":[2.4463872E6,1.0969375E6,1.3494499E6,1.0877919E6,9.145628E3,4.233578E5,9.26092E5,6.654528E5,4.2233906E5,7.685384E3,1.4602443E3,4.22021E5,1.3368191E3,9.230764E5,3.015639E3,1.2583088E3,6.427075E3,2.4680386E1,1.4355638E3,4.2199488E5,2.6112669E1,1.00010025E2,2.915629E3,7.6586395E1,6.350489E3,6.9585586E0,1.4286053E3,1.826278E1,7.84989E0,6.206518E1,3.794484E1],"tree_param":{"num_deleted":"0","num_feature":"4","num_nodes":"31","size_leaf_vector":"1"}},{"base_weights":[3.7408546E-3,-8.508326E-2,7.6319E-2,-8.090201E-2,-6.0959363E-1,-4.3304037E-2,1.317236E-1,-1.0432249E-2,-4.419764E-3,-7.2023743E-1,-6.426519E-2,-4.3365173E-2,-2.399906E-3,1.31536145E-2,1.8938653E-1,-8.135357E-2,-7.020313E-1,-3.4273595E-2,-5.9376493E-2,-4.3342076E-3,-4.1373426E-1,6.154012E-1,1.7519223E-2,-5.9069045E-2,-7.032887E-2,-1.3542629E-2,-5.891396E-3,-5.227511E-2,-1.3826288E-2,7.2311066E-2,4.294252E-2],"categories":[],"categories_nodes":[],"categories_segments":[],"categories_sizes":[],"default_left":[0,0,0,0,0,0,0,0,0,0,0,0,0,0,0,0,0,0,0,0,0,0,0,0,0,0,0,0,0,0,0],"id":31,"left_children":[1,3,5,7,9,11,13,-1,-1,15,17,19,-1,-1,21,-1,23,-1,25,-1,27,29,-1,-1,-1,-1,-1,-1,-1,-1,-1],"loss_changes":[1.5669263E4,2.3969521E3,8.865311E3,9.3211865E2,5.214956E2,4.9871826E-1,9.855469E0,0E0,0E0,1.16345215E1,1.9659524E0,3.5922852E0,0E0,0E0,1.7791924E1,0E0,4.272461E-1,0E0,4.2501926E-2,0E0,7.145481E-1,1.593441E0,0E0,0E0,0E0,0E0,0E0,0E0,0E0,0E0,0E0],"parents":[2147483647,0,0,1,1,2,2,3,3,4,4,5,5,6,6,9,9,10,10,11,11,14,14,16,16,18,18,20,20,21,21],"right_children":[2,4,6,8,10,12,14,-1,-1,16,18,20,-1,-1,22,-1,24,-1,26,-1,28,30,-1,-1,-1,-1,-1,-1,-1,-1,-1],"split_conditions":[1E0,1.3851766E14,1E0,1E0,1E0,1.38518005E14,1.3851766E14,-1.0432249E-2,-4.419764E-3,1.3851767E14,1.3851767E14,1.3851766E14,-2.399906E-3,1.31536145E-2,1.38518005E14,-8.135357E-2,1.38518005E14,-3.4273595E-2,1.38518005E14,-4.3342076E-3,1.3851767E14,1.3851767E14,1.7519223E-2,-5.9069045E-2,-7.032887E-2,-1.3542629E-2,-5.891396E-3,-5.227511E-2,-1.3826288E-2,7.2311066E-2,4.294252E-2],"split_indices":[3,0,2,2,2,0,0,0,0,0,0,0,0,0,0,0,0,0,0,0,0,0,0,0,0,0,0,0,0,0,0],"split_type":[0,0,0,0,0,0,0,0,0,0,0,0,0,0,0,0,0,0,0,0,0,0,0,0,0,0,0,0,0,0,0],"sum_hessian":[2.4305885E6,1.0929686E6,1.33762E6,1.0843258E6,8.642786E3,4.234206E5,9.141994E5,6.619465E5,4.223793E5,7.184728E3,1.4580582E3,4.2208266E5,1.3379342E3,9.112403E5,2.9591077E3,1.1659677E3,6.0187603E3,2.3963064E1,1.4340952E3,4.2205747E5,2.5200407E1,9.404922E1,2.8650583E3,7.246493E1,5.9462954E3,6.905451E0,1.4271897E3,1.7412006E1,7.788401E0,5.772763E1,3.632159E1],"tree_param":{"num_deleted":"0","num_feature":"4","num_nodes":"31","size_leaf_vector":"1"}},{"base_weights":[3.4021717E-3,-7.685972E-2,6.9293424E-2,-7.303969E-2,-5.8138955E-1,-3.8968824E-2,1.2003808E-1,-9.436978E-3,-3.9774817E-3,-6.94628E-1,-5.7965603E-2,-3.9023917E-2,-2.1584153E-3,1.1986466E-2,1.7368284E-1,-7.923211E-2,-6.7577475E-1,-3.1863745E-2,-5.3505555E-2,-3.900285E-3,-3.8801858E-1,5.9048617E-1,1.6037323E-2,-5.6267906E-2,-6.7706674E-2,-1.2440863E-2,-5.307766E-3,-4.953186E-2,-1.2687129E-2,7.014434E-2,4.0442575E-2],"categories":[],"categories_nodes":[],"categories_segments":[],"categories_sizes":[],"default_left":[0,0,0,0,0,0,0,0,0,0,0,0,0,0,0,0,0,0,0,0,0,0,0,0,0,0,0,0,0,0,0],"id":32,"left_children":[1,3,5,7,9,11,13,-1,-1,15,17,19,-1,-1,21,-1,23,-1,25,-1,27,29,-1,-1,-1,-1,-1,-1,-1,-1,-1],"loss_changes":[1.2778726E4,2.0994927E3,7.2898594E3,7.671333E2,4.851516E2,4.046631E-1,8.383789E0,0E0,0E0,1.1859863E1,1.6769371E0,3.0883179E0,0E0,0E0,1.6043182E1,0E0,4.4433594E-1,0E0,3.68948E-2,0E0,6.47974E-1,1.5670338E0,0E0,0E0,0E0,0E0,0E0,0E0,0E0,0E0,0E0],"parents":[2147483647,0,0,1,1,2,2,3,3,4,4,5,5,6,6,9,9,10,10,11,11,14,14,16,16,18,18,20,20,21,21],"right_children":[2,4,6,8,10,12,14,-1,-1,16,18,20,-1,-1,22,-1,24,-1,26,-1,28,30,-1,-1,-1,-1,-1,-1,-1,-1,-1],"split_conditions":[1E0,1.3851766E14,1E0,1E0,1E0,1.38518005E14,1.3851766E14,-9.436978E-3,-3.9774817E-3,1.3851767E14,1.3851767E14,1.3851766E14,-2.1584153E-3,1.1986466E-2,1.38518005E14,-7.923211E-2,1.38518005E14,-3.1863745E-2,1.38518005E14,-3.900285E-3,1.3851767E14,1.3851767E14,1.6037323E-2,-5.6267906E-2,-6.7706674E-2,-1.2440863E-2,-5.307766E-3,-4.953186E-2,-1.2687129E-2,7.014434E-2,4.0442575E-2],"split_indices":[3,0,2,2,2,0,0,0,0,0,0,0,0,0,0,0,0,0,0,0,0,0,0,0,0,0,0,0,0,0,0],"split_type":[0,0,0,0,0,0,0,0,0,0,0,0,0,0,0,0,0,0,0,0,0,0,0,0,0,0,0,0,0,0,0],"sum_hessian":[2.4162952E6,1.0893554E6,1.3269399E6,1.0811705E6,8.1848926E3,4.2347284E5,9.03467E5,6.587593E5,4.2241116E5,6.7288374E3,1.4560552E3,4.221339E5,1.3389338E3,9.0055894E5,2.908039E3,1.0818616E3,5.6469756E3,2.3308773E1,1.4327463E3,4.2210956E5,2.436716E1,8.8645805E1,2.8193933E3,6.871336E1,5.5782627E3,6.8565226E0,1.4258899E3,1.6635344E1,7.7318172E0,5.3795097E1,3.485071E1],"tree_param":{"num_deleted":"0","num_feature":"4","num_nodes":"31","size_leaf_vector":"1"}},{"base_weights":[3.0910962E-3,-6.940923E-2,6.286519E-2,-6.592324E-2,-5.5322504E-1,-3.506822E-2,1.0927061E-1,-8.532839E-3,-3.5795101E-3,-6.6857475E-1,-5.227777E-2,-3.5117857E-2,-1.9413589E-3,1.0911054E-2,1.5904686E-1,-7.704592E-2,-6.491394E-1,-2.9573178E-2,-4.821137E-2,-3.5098647E-3,-3.632709E-1,5.652626E-1,1.4660235E-2,-5.347837E-2,-6.504614E-2,-1.1424168E-2,-4.7815773E-3,-4.6841774E-2,-1.1636823E-2,6.790554E-2,3.7999675E-2],"categories":[],"categories_nodes":[],"categories_segments":[],"categories_sizes":[],"default_left":[0,0,0,0,0,0,0,0,0,0,0,0,0,0,0,0,0,0,0,0,0,0,0,0,0,0,0,0,0,0,0],"id":33,"left_children":[1,3,5,7,9,11,13,-1,-1,15,17,19,-1,-1,21,-1,23,-1,25,-1,27,29,-1,-1,-1,-1,-1,-1,-1,-1,-1],"loss_changes":[1.0415354E4,1.831708E3,5.986664E3,6.304165E2,4.4890454E2,3.2843018E-1,7.1035156E0,0E0,0E0,1.2004639E1,1.4263864E0,2.6486206E0,0E0,0E0,1.4389679E1,0E0,4.5483398E-1,0E0,3.1956434E-2,0E0,5.843022E-1,1.5286369E0,0E0,0E0,0E0,0E0,0E0,0E0,0E0,0E0,0E0],"parents":[2147483647,0,0,1,1,2,2,3,3,4,4,5,5,6,6,9,9,10,10,11,11,14,14,16,16,18,18,20,20,21,21],"right_children":[2,4,6,8,10,12,14,-1,-1,16,18,20,-1,-1,22,-1,24,-1,26,-1,28,30,-1,-1,-1,-1,-1,-1,-1,-1,-1],"split_conditions":[1E0,1.3851766E14,1E0,1E0,1E0,1.38518005E14,1.3851766E14,-8.532839E-3,-3.5795101E-3,1.3851767E14,1.3851767E14,1.3851766E14,-1.9413589E-3,1.0911054E-2,1.38518005E14,-7.704592E-2,1.38518005E14,-2.9573178E-2,1.38518005E14,-3.5098647E-3,1.3851767E14,1.3851767E14,1.4660235E-2,-5.347837E-2,-6.504614E-2,-1.1424168E-2,-4.7815773E-3,-4.6841774E-2,-1.1636823E-2,6.790554E-2,3.7999675E-2],"split_indices":[3,0,2,2,2,0,0,0,0,0,0,0,0,0,0,0,0,0,0,0,0,0,0,0,0,0,0,0,0,0,0],"split_type":[0,0,0,0,0,0,0,0,0,0,0,0,0,0,0,0,0,0,0,0,0,0,0,0,0,0,0,0,0,0,0],"sum_hessian":[2.40337E6,1.0860699E6,1.3173001E6,1.0783016E6,7.7682515E3,4.235165E5,8.937837E5,6.558653E5,4.224363E5,6.3140283E3,1.4542231E3,4.2217666E5,1.3398307E3,8.9092175E5,2.861924E3,1.005312E3,5.3087163E3,2.271242E1,1.4315107E3,4.2215306E5,2.3606539E1,8.374921E1,2.7781748E3,6.530086E1,5.2434155E3,6.811483E0,1.4246993E3,1.5926746E1,7.6797934E0,5.0231228E1,3.351798E1],"tree_param":{"num_deleted":"0","num_feature":"4","num_nodes":"31","size_leaf_vector":"1"}},{"base_weights":[2.805636E-3,-6.266272E-2,5.6991603E-2,-5.948494E-2,-5.2519006E-1,-3.1558838E-2,9.9368714E-2,-7.712122E-3,-3.2214E-3,-6.421244E-1,-4.714322E-2,-3.1603556E-2,-1.7462544E-3,9.922126E-3,1.454436E-1,-7.479334E-2,-6.221827E-1,-2.7402265E-2,-4.3437876E-2,-3.158604E-3,-3.3952573E-1,5.398342E-1,1.3383894E-2,-5.0709903E-2,-6.2352907E-2,-1.0486648E-2,-4.307234E-3,-4.421202E-2,-1.0669163E-2,6.5600164E-2,3.5622567E-2],"categories":[],"categories_nodes":[],"categories_segments":[],"categories_sizes":[],"default_left":[0,0,0,0,0,0,0,0,0,0,0,0,0,0,0,0,0,0,0,0,0,0,0,0,0,0,0,0,0,0,0],"id":34,"left_children":[1,3,5,7,9,11,13,-1,-1,15,17,19,-1,-1,21,-1,23,-1,25,-1,27,29,-1,-1,-1,-1,-1,-1,-1,-1,-1],"loss_changes":[8.484436E3,1.5919004E3,4.91055E3,5.173628E2,4.1309436E2,2.6638794E-1,5.998047E0,0E0,0E0,1.2063477E1,1.2100494E0,2.266449E0,0E0,0E0,1.2840153E1,0E0,4.5874023E-1,0E0,2.7623653E-2,0E0,5.2404094E-1,1.4793167E0,0E0,0E0,0E0,0E0,0E0,0E0,0E0,0E0,0E0],"parents":[2147483647,0,0,1,1,2,2,3,3,4,4,5,5,6,6,9,9,10,10,11,11,14,14,16,16,18,18,20,20,21,21],"right_children":[2,4,6,8,10,12,14,-1,-1,16,18,20,-1,-1,22,-1,24,-1,26,-1,28,30,-1,-1,-1,-1,-1,-1,-1,-1,-1],"split_conditions":[1E0,1.3851766E14,1E0,1E0,1E0,1.38518005E14,1.3851766E14,-7.712122E-3,-3.2214E-3,1.3851767E14,1.3851767E14,1.3851766E14,-1.7462544E-3,9.922126E-3,1.38518005E14,-7.479334E-2,1.38518005E14,-2.7402265E-2,1.38518005E14,-3.158604E-3,1.3851767E14,1.3851767E14,1.3383894E-2,-5.0709903E-2,-6.2352907E-2,-1.0486648E-2,-4.307234E-3,-4.421202E-2,-1.0669163E-2,6.5600164E-2,3.5622567E-2],"split_indices":[3,0,2,2,2,0,0,0,0,0,0,0,0,0,0,0,0,0,0,0,0,0,0,0,0,0,0,0,0,0,0],"split_type":[0,0,0,0,0,0,0,0,0,0,0,0,0,0,0,0,0,0,0,0,0,0,0,0,0,0,0,0,0,0,0],"sum_hessian":[2.391687E6,1.0830855E6,1.3086015E6,1.075696E6,7.389408E3,4.2355303E5,8.850484E5,6.5323994E5,4.2245606E5,5.9368584E3,1.4525499E3,4.222124E5,1.3406354E3,8.822281E5,2.82029E3,9.3568634E2,5.001172E3,2.2169228E1,1.4303807E3,4.221895E5,2.2912577E1,7.931201E1,2.740978E3,6.219866E1,4.938973E3,6.770055E0,1.4236106E3,1.528058E1,7.6319976E0,4.7001656E1,3.2310356E1],"tree_param":{"num_deleted":"0","num_feature":"4","num_nodes":"31","size_leaf_vector":"1"}},{"base_weights":[2.544217E-3,-5.6556825E-2,5.163223E-2,-5.3662863E-2,-4.9738264E-1,-2.8401E-2,9.028011E-2,-6.9676945E-3,-2.8991434E-3,-6.1534065E-1,-4.2508755E-2,-2.8441284E-2,-1.5708784E-3,9.014455E-3,1.3282876E-1,-7.2474405E-2,-5.949779E-1,-2.535066E-2,-3.913417E-2,-2.8425315E-3,-3.168102E-1,6.323432E-2,1.2456189E-1,-4.7972474E-2,-5.9634265E-2,-9.622685E-3,-3.87966E-3,-4.164956E-2,-9.778263E-3,3.332046E-2,1.22034075E-2],"categories":[],"categories_nodes":[],"categories_segments":[],"categories_sizes":[],"default_left":[0,0,0,0,0,0,0,0,0,0,0,0,0,0,0,0,0,0,0,0,0,0,0,0,0,0,0,0,0,0,0],"id":35,"left_children":[1,3,5,7,9,11,13,-1,-1,15,17,19,-1,-1,21,-1,23,-1,25,-1,27,-1,29,-1,-1,-1,-1,-1,-1,-1,-1],"loss_changes":[6.9080293E3,1.3782473E3,4.0233857E3,4.2406152E2,3.7804236E2,2.1612549E-1,5.0478516E0,0E0,0E0,1.2033447E1,1.0239639E0,1.9351501E0,0E0,0E0,1.141629E1,0E0,4.5666504E-1,0E0,2.3833513E-2,0E0,4.6756005E-1,0E0,1.4042435E0,0E0,0E0,0E0,0E0,0E0,0E0,0E0,0E0],"parents":[2147483647,0,0,1,1,2,2,3,3,4,4,5,5,6,6,9,9,10,10,11,11,14,14,16,16,18,18,20,20,22,22],"right_children":[2,4,6,8,10,12,14,-1,-1,16,18,20,-1,-1,22,-1,24,-1,26,-1,28,-1,30,-1,-1,-1,-1,-1,-1,-1,-1],"split_conditions":[1E0,1.3851766E14,1E0,1E0,1E0,1.38518005E14,1.3851766E14,-6.9676945E-3,-2.8991434E-3,1.3851767E14,1.3851767E14,1.3851766E14,-1.5708784E-3,9.014455E-3,1.3851767E14,-7.2474405E-2,1.38518005E14,-2.535066E-2,1.38518005E14,-2.8425315E-3,1.3851767E14,6.323432E-2,1.38518005E14,-4.7972474E-2,-5.9634265E-2,-9.622685E-3,-3.87966E-3,-4.164956E-2,-9.778263E-3,3.332046E-2,1.22034075E-2],"split_indices":[3,0,2,2,2,0,0,0,0,0,0,0,0,0,0,0,0,0,0,0,0,0,0,0,0,0,0,0,0,0,0],"split_type":[0,0,0,0,0,0,0,0,0,0,0,0,0,0,0,0,0,0,0,0,0,0,0,0,0,0,0,0,0,0,0],"sum_hessian":[2.3811308E6,1.080377E6,1.3007538E6,1.0733319E6,7.0451553E3,4.2358366E5,8.7717006E5,6.508603E5,4.2247156E5,5.5941313E3,1.451024E3,4.222423E5,1.3413578E3,8.743873E5,2.782697E3,8.723958E2,4.7217354E3,2.1674757E1,1.4293492E3,4.2222003E5,2.2279713E1,4.407433E1,2.7386228E3,5.9380154E1,4.6623555E3,6.731972E0,1.4226173E3,1.4691597E1,7.588116E0,3.1216698E1,2.707406E3],"tree_param":{"num_deleted":"0","num_feature":"4","num_nodes":"31","size_leaf_vector":"1"}},{"base_weights":[2.3051596E-3,-5.1033292E-2,4.674804E-2,-4.8400205E-2,-4.6990576E-1,-2.5559409E-2,8.195239E-2,-6.292922E-3,-2.6091437E-3,-5.8830225E-1,-3.8326643E-2,-2.5595693E-2,-1.4131846E-3,8.1827985E-3,1.2116386E-1,-7.009079E-2,-5.676124E-1,-2.3417246E-2,-3.5254765E-2,-2.558114E-3,-2.9514375E-1,6.081734E-2,1.134908E-1,-4.5276254E-2,-5.689888E-2,-8.82699E-3,-3.4943167E-3,-3.9160978E-2,-8.958582E-3,3.109983E-2,1.11145545E-2],"categories":[],"categories_nodes":[],"categories_segments":[],"categories_sizes":[],"default_left":[0,0,0,0,0,0,0,0,0,0,0,0,0,0,0,0,0,0,0,0,0,0,0,0,0,0,0,0,0,0,0],"id":36,"left_children":[1,3,5,7,9,11,13,-1,-1,15,17,19,-1,-1,21,-1,23,-1,25,-1,27,-1,29,-1,-1,-1,-1,-1,-1,-1,-1],"loss_changes":[5.6219077E3,1.1888479E3,3.293103E3,3.4719727E2,3.440431E2,1.7529297E-1,4.2353516E0,0E0,0E0,1.1912476E1,8.6446786E-1,1.6489258E0,0E0,0E0,1.020649E1,0E0,4.489746E-1,0E0,2.0528197E-2,0E0,4.150989E-1,0E0,1.2199516E0,0E0,0E0,0E0,0E0,0E0,0E0,0E0,0E0],"parents":[2147483647,0,0,1,1,2,2,3,3,4,4,5,5,6,6,9,9,10,10,11,11,14,14,16,16,18,18,20,20,22,22],"right_children":[2,4,6,8,10,12,14,-1,-1,16,18,20,-1,-1,22,-1,24,-1,26,-1,28,-1,30,-1,-1,-1,-1,-1,-1,-1,-1],"split_conditions":[1E0,1.3851766E14,1E0,1E0,1E0,1.38518005E14,1.3851766E14,-6.292922E-3,-2.6091437E-3,1.3851767E14,1.3851767E14,1.3851766E14,-1.4131846E-3,8.1827985E-3,1.3851767E14,-7.009079E-2,1.38518005E14,-2.3417246E-2,1.38518005E14,-2.558114E-3,1.3851767E14,6.081734E-2,1.38518005E14,-4.5276254E-2,-5.689888E-2,-8.82699E-3,-3.4943167E-3,-3.9160978E-2,-8.958582E-3,3.109983E-2,1.11145545E-2],"split_indices":[3,0,2,2,2,0,0,0,0,0,0,0,0,0,0,0,0,0,0,0,0,0,0,0,0,0,0,0,0,0,0],"split_type":[0,0,0,0,0,0,0,0,0,0,0,0,0,0,0,0,0,0,0,0,0,0,0,0,0,0,0,0,0,0,0],"sum_hessian":[2.3715965E6,1.0779211E6,1.2936752E6,1.0711886E6,6.732519E3,4.2360944E5,8.700658E5,6.48705E5,4.2248362E5,5.282885E3,1.449634E3,4.2226744E5,1.3420062E3,8.67317E5,2.7487742E3,8.148957E2,4.4679893E3,2.122487E1,1.428409E3,4.2224575E5,2.1702782E1,4.1422577E1,2.7073516E3,5.682069E1,4.4111685E3,6.6969857E0,1.4217122E3,1.4154927E1,7.547855E0,3.0226084E1,2.6771255E3],"tree_param":{"num_deleted":"0","num_feature":"4","num_nodes":"31","size_leaf_vector":"1"}},{"base_weights":[2.0870944E-3,-4.6038743E-2,4.2302333E-2,-4.364503E-2,-4.42864E-1,-2.3002412E-2,7.433471E-2,-5.6816703E-3,-2.3481695E-3,-5.611014E-1,-3.455307E-2,-2.3035094E-2,-1.2713782E-3,7.422071E-3,1.1040185E-1,-6.76459E-2,-5.4018515E-1,-2.160013E-2,-3.1757947E-2,-2.302183E-3,-2.74538E-1,5.8357846E-2,1.0329518E-1,-4.263134E-2,-5.415664E-2,-8.0946E-3,-3.1470458E-3,-3.6752287E-2,-8.204904E-3,2.896597E-2,1.0112396E-2],"categories":[],"categories_nodes":[],"categories_segments":[],"categories_sizes":[],"default_left":[0,0,0,0,0,0,0,0,0,0,0,0,0,0,0,0,0,0,0,0,0,0,0,0,0,0,0,0,0,0,0],"id":37,"left_children":[1,3,5,7,9,11,13,-1,-1,15,17,19,-1,-1,21,-1,23,-1,25,-1,27,-1,29,-1,-1,-1,-1,-1,-1,-1,-1],"loss_changes":[4.5733125E3,1.02176855E3,2.6928474E3,2.8397473E2,3.1135925E2,1.4215088E-1,3.5424805E0,0E0,0E0,1.1702148E1,7.282162E-1,1.4023132E0,0E0,0E0,9.0835E0,0E0,4.3579102E-1,0E0,1.7653942E-2,0E0,3.6678183E-1,0E0,1.0551949E0,0E0,0E0,0E0,0E0,0E0,0E0,0E0,0E0],"parents":[2147483647,0,0,1,1,2,2,3,3,4,4,5,5,6,6,9,9,10,10,11,11,14,14,16,16,18,18,20,20,22,22],"right_children":[2,4,6,8,10,12,14,-1,-1,16,18,20,-1,-1,22,-1,24,-1,26,-1,28,-1,30,-1,-1,-1,-1,-1,-1,-1,-1],"split_conditions":[1E0,1.3851766E14,1E0,1E0,1E0,1.38518005E14,1.3851766E14,-5.6816703E-3,-2.3481695E-3,1.3851767E14,1.3851767E14,1.3851766E14,-1.2713782E-3,7.422071E-3,1.3851767E14,-6.76459E-2,1.38518005E14,-2.160013E-2,1.38518005E14,-2.302183E-3,1.3851767E14,5.8357846E-2,1.38518005E14,-4.263134E-2,-5.415664E-2,-8.0946E-3,-3.1470458E-3,-3.6752287E-2,-8.204904E-3,2.896597E-2,1.0112396E-2],"split_indices":[3,0,2,2,2,0,0,0,0,0,0,0,0,0,0,0,0,0,0,0,0,0,0,0,0,0,0,0,0,0,0],"split_type":[0,0,0,0,0,0,0,0,0,0,0,0,0,0,0,0,0,0,0,0,0,0,0,0,0,0,0,0,0,0,0],"sum_hessian":[2.362988E6,1.0756958E6,1.2872922E6,1.069247E6,6.4487515E3,4.2363116E5,8.6366106E5,6.467541E5,4.2249294E5,5.0003823E3,1.4483691E3,4.2228856E5,1.3425886E3,8.6094294E5,2.718168E3,7.626825E2,4.2376997E3,2.0815735E1,1.4275535E3,4.222674E5,2.1177015E1,3.902002E1,2.679148E3,5.449754E1,4.183202E3,6.6648617E0,1.4208885E3,1.36660795E1,7.5109353E0,2.9328632E1,2.6498193E3],"tree_param":{"num_deleted":"0","num_feature":"4","num_nodes":"31","size_leaf_vector":"1"}},{"base_weights":[1.8884399E-3,-4.152443E-2,3.826004E-2,-3.9350037E-2,-4.1636068E-1,-2.0701269E-2,6.73768E-2,-5.128273E-3,-2.113349E-3,-5.3384084E-1,-3.114886E-2,-2.0730698E-2,-1.1438875E-3,6.72725E-3,1.00491494E-1,-6.514474E-2,-5.12804E-1,-1.9896775E-2,-2.8606564E-2,-2.0718614E-3,-2.549962E-1,5.5866595E-2,9.392219E-2,-4.0047444E-2,-5.1418286E-2,-7.420845E-3,-2.834143E-3,-3.4428764E-2,-7.512322E-3,2.6925573E-2,9.191581E-3],"categories":[],"categories_nodes":[],"categories_segments":[],"categories_sizes":[],"default_left":[0,0,0,0,0,0,0,0,0,0,0,0,0,0,0,0,0,0,0,0,0,0,0,0,0,0,0,0,0,0,0],"id":38,"left_children":[1,3,5,7,9,11,13,-1,-1,15,17,19,-1,-1,21,-1,23,-1,25,-1,27,-1,29,-1,-1,-1,-1,-1,-1,-1,-1],"loss_changes":[3.718882E3,8.7507947E2,2.2000981E3,2.3204187E2,2.802151E2,1.15234375E-1,2.9562988E0,0E0,0E0,1.140564E1,6.121839E-1,1.190445E0,0E0,0E0,8.048796E0,0E0,4.1833496E-1,0E0,1.5159726E-2,0E0,3.2263017E-1,0E0,9.0913963E-1,0E0,0E0,0E0,0E0,0E0,0E0,0E0,0E0],"parents":[2147483647,0,0,1,1,2,2,3,3,4,4,5,5,6,6,9,9,10,10,11,11,14,14,16,16,18,18,20,20,22,22],"right_children":[2,4,6,8,10,12,14,-1,-1,16,18,20,-1,-1,22,-1,24,-1,26,-1,28,-1,30,-1,-1,-1,-1,-1,-1,-1,-1],"split_conditions":[1E0,1.3851766E14,1E0,1E0,1E0,1.38518005E14,1.3851766E14,-5.128273E-3,-2.113349E-3,1.3851767E14,1.3851767E14,1.3851766E14,-1.1438875E-3,6.72725E-3,1.3851767E14,-6.514474E-2,1.38518005E14,-1.9896775E-2,1.38518005E14,-2.0718614E-3,1.3851767E14,5.5866595E-2,1.38518005E14,-4.0047444E-2,-5.1418286E-2,-7.420845E-3,-2.834143E-3,-3.4428764E-2,-7.512322E-3,2.6925573E-2,9.191581E-3],"split_indices":[3,0,2,2,2,0,0,0,0,0,0,0,0,0,0,0,0,0,0,0,0,0,0,0,0,0,0,0,0,0,0],"split_type":[0,0,0,0,0,0,0,0,0,0,0,0,0,0,0,0,0,0,0,0,0,0,0,0,0,0,0,0,0,0,0],"sum_hessian":[2.3552182E6,1.0736808E6,1.2815375E6,1.0674894E6,6.1913154E3,4.2364953E5,8.57888E5,6.449893E5,4.2250012E5,4.744096E3,1.447219E3,4.2230644E5,1.3431117E3,8.5519744E5,2.6905537E3,7.152923E2,4.028804E3,2.0443823E1,1.4267753E3,4.2228572E5,2.0697998E1,3.684387E1,2.6537097E3,5.238978E1,3.9764143E3,6.635378E0,1.4201398E3,1.32209015E1,7.4770956E0,2.8516417E1,2.6251934E3],"tree_param":{"num_deleted":"0","num_feature":"4","num_nodes":"31","size_leaf_vector":"1"}},{"base_weights":[1.7074159E-3,-3.7445344E-2,3.4587268E-2,-3.5471596E-2,-3.9049506E-1,-1.8630605E-2,6.102912E-2,-4.627531E-3,-1.9019576E-3,-5.066316E-1,-2.807796E-2,-1.865711E-2,-1.0291759E-3,6.093382E-3,9.138473E-2,-6.25939E-2,-4.8558283E-1,-1.8304063E-2,-2.5766438E-2,-1.8646099E-3,-2.3651397E-1,5.335333E-2,8.532337E-2,-3.7533686E-2,-4.8695218E-2,-6.801349E-3,-2.5522013E-3,-3.219489E-2,-6.876224E-3,2.498008E-2,8.347272E-3],"categories":[],"categories_nodes":[],"categories_segments":[],"categories_sizes":[],"default_left":[0,0,0,0,0,0,0,0,0,0,0,0,0,0,0,0,0,0,0,0,0,0,0,0,0,0,0,0,0,0,0],"id":39,"left_children":[1,3,5,7,9,11,13,-1,-1,15,17,19,-1,-1,21,-1,23,-1,25,-1,27,-1,29,-1,-1,-1,-1,-1,-1,-1,-1],"loss_changes":[3.0229353E3,7.4689026E2,1.7960546E3,1.8945532E2,2.5079431E2,9.3444824E-2,2.4609375E0,0E0,0E0,1.1028809E1,5.13661E-1,1.0088196E0,0E0,0E0,7.101145E0,0E0,3.9697266E-1,0E0,1.3000369E-2,0E0,2.825812E-1,0E0,7.802372E-1,0E0,0E0,0E0,0E0,0E0,0E0,0E0,0E0],"parents":[2147483647,0,0,1,1,2,2,3,3,4,4,5,5,6,6,9,9,10,10,11,11,14,14,16,16,18,18,20,20,22,22],"right_children":[2,4,6,8,10,12,14,-1,-1,16,18,20,-1,-1,22,-1,24,-1,26,-1,28,-1,30,-1,-1,-1,-1,-1,-1,-1,-1],"split_conditions":[1E0,1.3851766E14,1E0,1E0,1E0,1.38518005E14,1.3851766E14,-4.627531E-3,-1.9019576E-3,1.3851767E14,1.3851767E14,1.3851766E14,-1.0291759E-3,6.093382E-3,1.3851767E14,-6.25939E-2,1.38518005E14,-1.8304063E-2,1.38518005E14,-1.8646099E-3,1.3851767E14,5.335333E-2,1.38518005E14,-3.7533686E-2,-4.8695218E-2,-6.801349E-3,-2.5522013E-3,-3.219489E-2,-6.876224E-3,2.498008E-2,8.347272E-3],"split_indices":[3,0,2,2,2,0,0,0,0,0,0,0,0,0,0,0,0,0,0,0,0,0,0,0,0,0,0,0,0,0,0],"split_type":[0,0,0,0,0,0,0,0,0,0,0,0,0,0,0,0,0,0,0,0,0,0,0,0,0,0,0,0,0,0,0],"sum_hessian":[2.3482065E6,1.0718572E6,1.2763492E6,1.0658994E6,5.9578804E3,4.236651E5,8.526841E5,6.4339375E5,4.225056E5,4.511706E3,1.4461744E3,4.2232153E5,1.3435819E3,8.500185E5,2.665646E3,6.722976E2,3.8394082E3,2.0105877E1,1.4260685E3,4.2230125E5,2.0261673E1,3.487198E1,2.630774E3,5.0478188E1,3.78893E3,6.60833E0,1.4194602E3,1.281558E1,7.4460936E0,2.7780666E1,2.6029934E3],"tree_param":{"num_deleted":"0","num_feature":"4","num_nodes":"31","size_leaf_vector":"1"}},{"base_weights":[1.5438698E-3,-3.376112E-2,3.125561E-2,-3.1970706E-2,-3.6535972E-1,-1.6766997E-2,5.5248782E-2,-4.174652E-3,-1.7117489E-3,-4.795896E-1,-2.5308462E-2,-1.6790863E-2,-9.260309E-4,5.5161812E-3,8.303245E-2,-6.000146E-2,-4.586382E-1,-1.6818328E-2,-2.3207447E-2,-1.678083E-3,-2.190797E-1,5.0831534E-2,7.744878E-2,-3.5098355E-2,-4.5999087E-2,-6.232041E-3,-2.2982196E-3,-3.0054256E-2,-6.2923143E-3,2.3133494E-2,7.5744465E-3],"categories":[],"categories_nodes":[],"categories_segments":[],"categories_sizes":[],"default_left":[0,0,0,0,0,0,0,0,0,0,0,0,0,0,0,0,0,0,0,0,0,0,0,0,0,0,0,0,0,0,0],"id":40,"left_children":[1,3,5,7,9,11,13,-1,-1,15,17,19,-1,-1,21,-1,23,-1,25,-1,27,-1,29,-1,-1,-1,-1,-1,-1,-1,-1],"loss_changes":[2.4565732E3,6.35371E2,1.4652449E3,1.5456152E2,2.232362E2,7.575226E-2,2.0444336E0,0E0,0E0,1.0579224E1,4.3022847E-1,8.535385E-1,0E0,0E0,6.23962E0,0E0,3.7280273E-1,0E0,1.1134863E-2,0E0,2.46503E-1,0E0,6.6729164E-1,0E0,0E0,0E0,0E0,0E0,0E0,0E0,0E0],"parents":[2147483647,0,0,1,1,2,2,3,3,4,4,5,5,6,6,9,9,10,10,11,11,14,14,16,16,18,18,20,20,22,22],"right_children":[2,4,6,8,10,12,14,-1,-1,16,18,20,-1,-1,22,-1,24,-1,26,-1,28,-1,30,-1,-1,-1,-1,-1,-1,-1,-1],"split_conditions":[1E0,1.3851766E14,1E0,1E0,1E0,1.38518005E14,1.3851766E14,-4.174652E-3,-1.7117489E-3,1.3851767E14,1.3851767E14,1.3851766E14,-9.260309E-4,5.5161812E-3,1.3851767E14,-6.000146E-2,1.38518005E14,-1.6818328E-2,1.38518005E14,-1.678083E-3,1.3851767E14,5.0831534E-2,1.38518005E14,-3.5098355E-2,-4.5999087E-2,-6.232041E-3,-2.2982196E-3,-3.0054256E-2,-6.2923143E-3,2.3133494E-2,7.5744465E-3],"split_indices":[3,0,2,2,2,0,0,0,0,0,0,0,0,0,0,0,0,0,0,0,0,0,0,0,0,0,0,0,0,0,0],"split_type":[0,0,0,0,0,0,0,0,0,0,0,0,0,0,0,0,0,0,0,0,0,0,0,0,0,0,0,0,0,0,0],"sum_hessian":[2.3418828E6,1.0702078E6,1.271675E6,1.0644614E6,5.746302E3,4.236783E5,8.479967E5,6.4195175E5,4.225097E5,4.3010757E3,1.4452261E3,4.223343E5,1.3440043E3,8.453535E5,2.643186E3,6.33307E2,3.6677688E3,1.9798891E1,1.4254271E3,4.2231447E5,1.9864313E1,3.3086693E1,2.6100994E3,4.874512E1,3.6190237E3,6.5835266E0,1.4188436E3,1.2446612E1,7.4177012E0,2.7114809E1,2.5829846E3],"tree_param":{"num_deleted":"0","num_feature":"4","num_nodes":"31","size_leaf_vector":"1"}},{"base_weights":[1.3942568E-3,-3.0434474E-2,2.8232092E-2,-2.8811367E-2,-3.4103885E-1,-1.5090123E-2,4.9985822E-2,-3.7652438E-3,-1.5405739E-3,-4.528333E-1,-2.2810822E-2,-1.5111613E-2,-8.3327194E-4,4.990655E-3,7.538017E-2,-5.7376754E-2,-4.3208703E-1,-1.5435551E-2,-2.0901693E-2,-1.5102472E-3,-2.0267533E-1,4.831105E-2,7.0244476E-2,-3.274881E-2,-4.3341618E-2,-5.7090665E-3,-2.069418E-3,-2.800957E-2,-5.7565845E-3,2.1385936E-2,6.867727E-3],"categories":[],"categories_nodes":[],"categories_segments":[],"categories_sizes":[],"default_left":[0,0,0,0,0,0,0,0,0,0,0,0,0,0,0,0,0,0,0,0,0,0,0,0,0,0,0,0,0,0,0],"id":41,"left_children":[1,3,5,7,9,11,13,-1,-1,15,17,19,-1,-1,21,-1,23,-1,25,-1,27,-1,29,-1,-1,-1,-1,-1,-1,-1,-1],"loss_changes":[1.9955974E3,5.3877844E2,1.1944814E3,1.26005615E2,1.9763696E2,6.1393738E-2,1.6950684E0,0E0,0E0,1.0066956E1,3.597569E-1,7.210922E-1,0E0,0E0,5.460499E0,0E0,3.4655762E-1,0E0,9.526134E-3,0E0,2.1420968E-1,0E0,5.688076E-1,0E0,0E0,0E0,0E0,0E0,0E0,0E0,0E0],"parents":[2147483647,0,0,1,1,2,2,3,3,4,4,5,5,6,6,9,9,10,10,11,11,14,14,16,16,18,18,20,20,22,22],"right_children":[2,4,6,8,10,12,14,-1,-1,16,18,20,-1,-1,22,-1,24,-1,26,-1,28,-1,30,-1,-1,-1,-1,-1,-1,-1,-1],"split_conditions":[1E0,1.3851766E14,1E0,1E0,1E0,1.38518005E14,1.3851766E14,-3.7652438E-3,-1.5405739E-3,1.3851767E14,1.3851767E14,1.3851766E14,-8.3327194E-4,4.990655E-3,1.3851767E14,-5.7376754E-2,1.38518005E14,-1.5435551E-2,1.38518005E14,-1.5102472E-3,1.3851767E14,4.831105E-2,1.38518005E14,-3.274881E-2,-4.3341618E-2,-5.7090665E-3,-2.069418E-3,-2.800957E-2,-5.7565845E-3,2.1385936E-2,6.867727E-3],"split_indices":[3,0,2,2,2,0,0,0,0,0,0,0,0,0,0,0,0,0,0,0,0,0,0,0,0,0,0,0,0,0,0],"split_type":[0,0,0,0,0,0,0,0,0,0,0,0,0,0,0,0,0,0,0,0,0,0,0,0,0,0,0,0,0,0,0],"sum_hessian":[2.336177E6,1.0687165E6,1.2674605E6,1.0631619E6,5.554615E3,4.236896E5,8.437709E5,6.406492E5,4.2251272E5,4.1102495E3,1.4443656E3,4.2234522E5,1.3443837E3,8.4114794E5,2.6229236E3,5.979607E2,3.5122888E3,1.952012E1,1.4248455E3,4.2232572E5,1.9502491E1,3.1469152E1,2.5914543E3,4.717443E1,3.4651143E3,6.5607886E0,1.4182847E3,1.2110782E1,7.3917103E0,2.6511902E1,2.5649424E3],"tree_param":{"num_deleted":"0","num_feature":"4","num_nodes":"31","size_leaf_vector":"1"}},{"base_weights":[1.2589408E-3,-2.743159E-2,2.549275E-2,-2.5960999E-2,-3.176061E-1,-1.3580876E-2,4.5202464E-2,-3.3952927E-3,-1.3865227E-3,-4.2648008E-1,-2.0558698E-2,-1.36002265E-2,-7.4977585E-4,4.513027E-3,6.838516E-2,-5.4730274E-2,-4.0604293E-1,-1.415129E-2,-1.8824391E-2,-1.3591899E-3,-1.8727659E-1,4.5804683E-2,6.36681E-2,-3.0491251E-2,-4.073421E-2,-5.228871E-3,-1.863328E-3,-2.6062572E-2,-5.2652634E-3,1.9737795E-2,6.222898E-3],"categories":[],"categories_nodes":[],"categories_segments":[],"categories_sizes":[],"default_left":[0,0,0,0,0,0,0,0,0,0,0,0,0,0,0,0,0,0,0,0,0,0,0,0,0,0,0,0,0,0,0],"id":42,"left_children":[1,3,5,7,9,11,13,-1,-1,15,17,19,-1,-1,21,-1,23,-1,25,-1,27,-1,29,-1,-1,-1,-1,-1,-1,-1,-1],"loss_changes":[1.6207236E3,4.5546857E2,9.731868E2,1.0266052E2,1.7404968E2,4.977417E-2,1.4024658E0,0E0,0E0,9.502869E0,3.0036962E-1,6.083374E-1,0E0,0E0,4.760193E0,0E0,3.1884766E-1,0E0,8.14116E-3,0E0,1.8547726E-1,0E0,4.8333645E-1,0E0,0E0,0E0,0E0,0E0,0E0,0E0,0E0],"parents":[2147483647,0,0,1,1,2,2,3,3,4,4,5,5,6,6,9,9,10,10,11,11,14,14,16,16,18,18,20,20,22,22],"right_children":[2,4,6,8,10,12,14,-1,-1,16,18,20,-1,-1,22,-1,24,-1,26,-1,28,-1,30,-1,-1,-1,-1,-1,-1,-1,-1],"split_conditions":[1E0,1.3851766E14,1E0,1E0,1E0,1.38518005E14,1.3851766E14,-3.3952927E-3,-1.3865227E-3,1.3851767E14,1.3851767E14,1.3851766E14,-7.4977585E-4,4.513027E-3,1.3851767E14,-5.4730274E-2,1.38518005E14,-1.415129E-2,1.38518005E14,-1.3591899E-3,1.3851767E14,4.5804683E-2,1.38518005E14,-3.0491251E-2,-4.073421E-2,-5.228871E-3,-1.863328E-3,-2.6062572E-2,-5.2652634E-3,1.9737795E-2,6.222898E-3],"split_indices":[3,0,2,2,2,0,0,0,0,0,0,0,0,0,0,0,0,0,0,0,0,0,0,0,0,0,0,0,0,0,0],"split_type":[0,0,0,0,0,0,0,0,0,0,0,0,0,0,0,0,0,0,0,0,0,0,0,0,0,0,0,0,0,0,0],"sum_hessian":[2.3310325E6,1.0673689E6,1.2636636E6,1.0619879E6,5.3810186E3,4.2369925E5,8.399644E5,6.3947294E5,4.2251494E5,3.9374326E3,1.4435858E3,4.2235453E5,1.344725E3,8.3735975E5,2.6046597E3,5.659295E2,3.3715032E3,1.9267033E1,1.4243187E3,4.2233534E5,1.9173069E1,3.0004204E1,2.5746555E3,4.5751335E1,3.325752E3,6.5399513E0,1.4177788E3,1.1805146E1,7.3679233E0,2.5966095E1,2.5486895E3],"tree_param":{"num_deleted":"0","num_feature":"4","num_nodes":"31","size_leaf_vector":"1"}},{"base_weights":[1.1361586E-3,-2.4721619E-2,2.3011563E-2,-2.338992E-2,-2.9512343E-1,-1.2222549E-2,4.0857743E-2,-3.0611323E-3,-1.2478529E-3,-4.0064344E-1,-1.8528E-2,-1.223997E-2,-6.746869E-4,4.079207E-3,6.199574E-2,-5.2073415E-2,-3.8061342E-1,-1.2960917E-2,-1.6952878E-2,-1.2232384E-3,-1.7285474E-1,4.3324556E-2,5.766854E-2,-2.8330693E-2,-3.8187664E-2,-4.788122E-3,-1.6776923E-3,-2.4214191E-2,-4.8148725E-3,1.8188884E-2,5.634862E-3],"categories":[],"categories_nodes":[],"categories_segments":[],"categories_sizes":[],"default_left":[0,0,0,0,0,0,0,0,0,0,0,0,0,0,0,0,0,0,0,0,0,0,0,0,0,0,0,0,0,0,0],"id":43,"left_children":[1,3,5,7,9,11,13,-1,-1,15,17,19,-1,-1,21,-1,23,-1,25,-1,27,-1,29,-1,-1,-1,-1,-1,-1,-1,-1],"loss_changes":[1.3159244E3,3.839079E2,7.924344E2,8.359613E1,1.524874E2,4.033661E-2,1.1586914E0,0E0,0E0,8.898987E0,2.5043285E-1,5.125427E-1,0E0,0E0,4.134474E0,0E0,2.9074097E-1,0E0,6.9506764E-3,0E0,1.6005594E-1,0E0,4.0957546E-1,0E0,0E0,0E0,0E0,0E0,0E0,0E0,0E0],"parents":[2147483647,0,0,1,1,2,2,3,3,4,4,5,5,6,6,9,9,10,10,11,11,14,14,16,16,18,18,20,20,22,22],"right_children":[2,4,6,8,10,12,14,-1,-1,16,18,20,-1,-1,22,-1,24,-1,26,-1,28,-1,30,-1,-1,-1,-1,-1,-1,-1,-1],"split_conditions":[1E0,1.3851766E14,1E0,1E0,1E0,1.38518005E14,1.3851766E14,-3.0611323E-3,-1.2478529E-3,1.3851767E14,1.3851767E14,1.3851766E14,-6.746869E-4,4.079207E-3,1.3851767E14,-5.2073415E-2,1.38518005E14,-1.2960917E-2,1.38518005E14,-1.2232384E-3,1.3851767E14,4.3324556E-2,1.38518005E14,-2.8330693E-2,-3.8187664E-2,-4.788122E-3,-1.6776923E-3,-2.4214191E-2,-4.8148725E-3,1.8188884E-2,5.634862E-3],"split_indices":[3,0,2,2,2,0,0,0,0,0,0,0,0,0,0,0,0,0,0,0,0,0,0,0,0,0,0,0,0,0,0],"split_type":[0,0,0,0,0,0,0,0,0,0,0,0,0,0,0,0,0,0,0,0,0,0,0,0,0,0,0,0,0,0,0],"sum_hessian":[2.326394E6,1.0661515E6,1.2602424E6,1.0609278E6,5.223864E3,4.237075E5,8.3653494E5,6.384112E5,4.2251647E5,3.7809849E3,1.4428788E3,4.2236247E5,1.3450317E3,8.3394675E5,2.5881882E3,5.3691254E2,3.2440725E3,1.9037325E1,1.4238414E3,4.223436E5,1.887318E1,2.867772E1,2.5595105E3,4.4462307E1,3.19961E3,6.5208607E0,1.4173207E3,1.1527019E1,7.3461614E0,2.547219E1,2.5340383E3],"tree_param":{"num_deleted":"0","num_feature":"4","num_nodes":"31","size_leaf_vector":"1"}},{"base_weights":[1.0259672E-3,-2.2276659E-2,2.0767659E-2,-2.1071326E-2,-2.7364096E-1,-1.1000338E-2,3.691811E-2,-2.7593933E-3,-1.1230614E-3,-3.7543094E-1,-1.6697515E-2,-1.1016023E-2,-6.0715195E-4,3.6858418E-3,5.617002E-2,-4.9418148E-2,-3.5589844E-1,-1.1859637E-2,-1.5267283E-2,-1.1009112E-3,-1.5937623E-1,4.0880717E-2,5.2205194E-2,-2.6270974E-2,-3.5712052E-2,-4.3837093E-3,-1.5105328E-3,-2.2464443E-2,-4.402138E-3,1.673655E-2,5.0996062E-3],"categories":[],"categories_nodes":[],"categories_segments":[],"categories_sizes":[],"default_left":[0,0,0,0,0,0,0,0,0,0,0,0,0,0,0,0,0,0,0,0,0,0,0,0,0,0,0,0,0,0,0],"id":44,"left_children":[1,3,5,7,9,11,13,-1,-1,15,17,19,-1,-1,21,-1,23,-1,25,-1,27,-1,29,-1,-1,-1,-1,-1,-1,-1,-1],"loss_changes":[1.0682971E3,3.2268134E2,6.4501E2,6.8036194E1,1.3292664E2,3.2691956E-2,9.556885E-1,0E0,0E0,8.268066E0,2.085256E-1,4.3131256E-1,0E0,0E0,3.577962E0,0E0,2.6260376E-1,0E0,5.928606E-3,0E0,1.3768071E-1,0E0,3.4610176E-1,0E0,0E0,0E0,0E0,0E0,0E0,0E0,0E0],"parents":[2147483647,0,0,1,1,2,2,3,3,4,4,5,5,6,6,9,9,10,10,11,11,14,14,16,16,18,18,20,20,22,22],"right_children":[2,4,6,8,10,12,14,-1,-1,16,18,20,-1,-1,22,-1,24,-1,26,-1,28,-1,30,-1,-1,-1,-1,-1,-1,-1,-1],"split_conditions":[1E0,1.3851766E14,1E0,1E0,1E0,1.38518005E14,1.3851766E14,-2.7593933E-3,-1.1230614E-3,1.3851767E14,1.3851767E14,1.3851766E14,-6.0715195E-4,3.6858418E-3,1.3851767E14,-4.9418148E-2,1.38518005E14,-1.1859637E-2,1.38518005E14,-1.1009112E-3,1.3851767E14,4.0880717E-2,1.38518005E14,-2.6270974E-2,-3.5712052E-2,-4.3837093E-3,-1.5105328E-3,-2.2464443E-2,-4.402138E-3,1.673655E-2,5.0996062E-3],"split_indices":[3,0,2,2,2,0,0,0,0,0,0,0,0,0,0,0,0,0,0,0,0,0,0,0,0,0,0,0,0,0,0],"split_type":[0,0,0,0,0,0,0,0,0,0,0,0,0,0,0,0,0,0,0,0,0,0,0,0,0,0,0,0,0,0,0],"sum_hessian":[2.3222148E6,1.0650522E6,1.2571625E6,1.0599706E6,5.0816455E3,4.237146E5,8.3344794E5,6.3745306E5,4.2251753E5,3.639407E3,1.4422385E3,4.2236928E5,1.3453074E3,8.308746E5,2.5733428E3,5.1063458E2,3.1287722E3,1.882888E1,1.4234097E3,4.223507E5,1.8600193E1,2.7476053E1,2.5458667E3,4.329503E1,3.0854773E3,6.503373E0,1.4169064E3,1.1273938E1,7.3262553E0,2.5024967E1,2.5208418E3],"tree_param":{"num_deleted":"0","num_feature":"4","num_nodes":"31","size_leaf_vector":"1"}},{"base_weights":[9.25034E-4,-2.0071292E-2,1.8735625E-2,-1.898083E-2,-2.5319567E-1,-9.900169E-3,3.334269E-2,-2.4870138E-3,-1.0107646E-3,-3.509411E-1,-1.5047058E-2,-9.914289E-3,-5.463732E-4,3.3288456E-3,5.0866008E-2,-4.6776816E-2,-3.319873E-1,-1.0842553E-2,-1.37486365E-2,-9.907995E-4,-1.4680488E-1,3.84855E-2,4.7236912E-2,-2.431475E-2,-3.3316366E-2,-4.012797E-3,-1.3599603E-3,-2.081264E-2,-4.024077E-3,1.5379525E-2,4.61304E-3],"categories":[],"categories_nodes":[],"categories_segments":[],"categories_sizes":[],"default_left":[0,0,0,0,0,0,0,0,0,0,0,0,0,0,0,0,0,0,0,0,0,0,0,0,0,0,0,0,0,0,0],"id":45,"left_children":[1,3,5,7,9,11,13,-1,-1,15,17,19,-1,-1,21,-1,23,-1,25,-1,27,-1,29,-1,-1,-1,-1,-1,-1,-1,-1],"loss_changes":[8.6699963E2,2.7049326E2,5.246913E2,5.534546E1,1.1531329E2,2.6496887E-2,7.876587E-1,0E0,0E0,7.622101E0,1.73424E-1,3.62545E-1,0E0,0E0,3.0859127E0,0E0,2.3519897E-1,0E0,5.0526857E-3,0E0,1.1808193E-1,0E0,2.9175234E-1,0E0,0E0,0E0,0E0,0E0,0E0,0E0,0E0],"parents":[2147483647,0,0,1,1,2,2,3,3,4,4,5,5,6,6,9,9,10,10,11,11,14,14,16,16,18,18,20,20,22,22],"right_children":[2,4,6,8,10,12,14,-1,-1,16,18,20,-1,-1,22,-1,24,-1,26,-1,28,-1,30,-1,-1,-1,-1,-1,-1,-1,-1],"split_conditions":[1E0,1.3851766E14,1E0,1E0,1E0,1.38518005E14,1.3851766E14,-2.4870138E-3,-1.0107646E-3,1.3851767E14,1.3851767E14,1.3851766E14,-5.463732E-4,3.3288456E-3,1.3851767E14,-4.6776816E-2,1.38518005E14,-1.0842553E-2,1.38518005E14,-9.907995E-4,1.3851767E14,3.84855E-2,1.38518005E14,-2.431475E-2,-3.3316366E-2,-4.012797E-3,-1.3599603E-3,-2.081264E-2,-4.024077E-3,1.5379525E-2,4.61304E-3],"split_indices":[3,0,2,2,2,0,0,0,0,0,0,0,0,0,0,0,0,0,0,0,0,0,0,0,0,0,0,0,0,0,0],"split_type":[0,0,0,0,0,0,0,0,0,0,0,0,0,0,0,0,0,0,0,0,0,0,0,0,0,0,0,0,0,0,0],"sum_hessian":[2.3184455E6,1.0640599E6,1.2543856E6,1.0591069E6,4.9529873E3,4.2372072E5,8.306649E5,6.365887E5,4.2251822E5,3.5113286E3,1.4416589E3,4.2237516E5,1.3455554E3,8.2810494E5,2.5599678E3,4.8684448E2,3.0244841E3,1.8639763E1,1.4230192E3,4.223568E5,1.8351711E1,2.6388226E1,2.5335796E3,4.223825E1,2.9822458E3,6.4873605E0,1.4165319E3,1.1043658E1,7.3080535E0,2.4620314E1,2.5089592E3],"tree_param":{"num_deleted":"0","num_feature":"4","num_nodes":"31","size_leaf_vector":"1"}},{"base_weights":[8.3413586E-4,-1.8082242E-2,1.6898884E-2,-1.709612E-2,-2.3381235E-1,-8.910116E-3,3.0104004E-2,-2.241198E-3,-9.0967445E-4,-3.272617E-1,-1.355926E-2,-8.9228265E-3,-4.9171265E-4,3.0054785E-3,4.603436E-2,-4.416183E-2,-3.089574E-1,-9.904762E-3,-1.2380707E-2,-8.9170923E-4,-1.3510142E-1,3.6148157E-2,4.2715605E-2,-2.2463454E-2,-3.1008422E-2,-3.672693E-3,-1.2243597E-3,-1.925735E-2,-3.6778771E-3,1.41141815E-2,4.170395E-3],"categories":[],"categories_nodes":[],"categories_segments":[],"categories_sizes":[],"default_left":[0,0,0,0,0,0,0,0,0,0,0,0,0,0,0,0,0,0,0,0,0,0,0,0,0,0,0,0,0,0,0],"id":46,"left_children":[1,3,5,7,9,11,13,-1,-1,15,17,19,-1,-1,21,-1,23,-1,25,-1,27,-1,29,-1,-1,-1,-1,-1,-1,-1,-1],"loss_changes":[7.035136E2,2.2616983E2,4.2665674E2,4.5003662E1,9.956616E1,2.1465302E-2,6.479492E-1,0E0,0E0,6.9731445E0,1.4407238E-1,3.0443192E-1,0E0,0E0,2.652979E0,0E0,2.088623E-1,0E0,4.3026954E-3,0E0,1.0099211E-1,0E0,2.4538755E-1,0E0,0E0,0E0,0E0,0E0,0E0,0E0,0E0],"parents":[2147483647,0,0,1,1,2,2,3,3,4,4,5,5,6,6,9,9,10,10,11,11,14,14,16,16,18,18,20,20,22,22],"right_children":[2,4,6,8,10,12,14,-1,-1,16,18,20,-1,-1,22,-1,24,-1,26,-1,28,-1,30,-1,-1,-1,-1,-1,-1,-1,-1],"split_conditions":[1E0,1.3851766E14,1E0,1E0,1E0,1.38518005E14,1.3851766E14,-2.241198E-3,-9.0967445E-4,1.3851767E14,1.3851767E14,1.3851766E14,-4.9171265E-4,3.0054785E-3,1.3851767E14,-4.416183E-2,1.38518005E14,-9.904762E-3,1.38518005E14,-8.9170923E-4,1.3851767E14,3.6148157E-2,1.38518005E14,-2.2463454E-2,-3.1008422E-2,-3.672693E-3,-1.2243597E-3,-1.925735E-2,-3.6778771E-3,1.41141815E-2,4.170395E-3],"split_indices":[3,0,2,2,2,0,0,0,0,0,0,0,0,0,0,0,0,0,0,0,0,0,0,0,0,0,0,0,0,0,0],"split_type":[0,0,0,0,0,0,0,0,0,0,0,0,0,0,0,0,0,0,0,0,0,0,0,0,0,0,0,0,0,0,0],"sum_hessian":[2.3150492E6,1.0631642E6,1.2518851E6,1.0583275E6,4.8366343E3,4.2372597E5,8.281591E5,6.35809E5,4.2251856E5,3.3955002E3,1.4411342E3,4.223802E5,1.3457783E3,8.256112E5,2.547899E3,4.6531305E2,2.9301873E3,1.8468222E1,1.4226659E3,4.2236206E5,1.8125546E1,2.5403225E1,2.5224958E3,4.1281723E1,2.8889055E3,6.472699E0,1.4161932E3,1.0834134E1,7.291412E0,2.4254E1,2.4982417E3],"tree_param":{"num_deleted":"0","num_feature":"4","num_nodes":"31","size_leaf_vector":"1"}},{"base_weights":[7.5255404E-4,-1.6288944E-2,1.5240107E-2,-1.5397523E-2,-2.1550375E-1,-8.018967E-3,2.7173188E-2,-2.019435E-3,-8.187176E-4,-3.044686E-1,-1.2218204E-2,-8.030409E-3,-4.4250727E-4,2.712854E-3,4.1646738E-2,-4.1585352E-2,-2.8687352E-1,-9.041368E-3,-1.1148627E-2,-8.025185E-4,-1.2422532E-1,3.3875447E-2,3.8614728E-2,-2.071744E-2,-2.879478E-2,-3.360935E-3,-1.1022513E-3,-1.7796585E-2,-3.3609688E-3,1.2938194E-2,3.7690576E-3],"categories":[],"categories_nodes":[],"categories_segments":[],"categories_sizes":[],"default_left":[0,0,0,0,0,0,0,0,0,0,0,0,0,0,0,0,0,0,0,0,0,0,0,0,0,0,0,0,0,0,0],"id":47,"left_children":[1,3,5,7,9,11,13,-1,-1,15,17,19,-1,-1,21,-1,23,-1,25,-1,27,-1,29,-1,-1,-1,-1,-1,-1,-1,-1],"loss_changes":[5.708068E2,1.8865442E2,3.4683948E2,3.6579727E1,8.5583755E1,1.738739E-2,5.325928E-1,0E0,0E0,6.3320007E0,1.1956672E-1,2.5538826E-1,0E0,0E0,2.273265E0,0E0,1.84021E-1,0E0,3.6613345E-3,0E0,8.6152494E-2,0E0,2.0596576E-1,0E0,0E0,0E0,0E0,0E0,0E0,0E0,0E0],"parents":[2147483647,0,0,1,1,2,2,3,3,4,4,5,5,6,6,9,9,10,10,11,11,14,14,16,16,18,18,20,20,22,22],"right_children":[2,4,6,8,10,12,14,-1,-1,16,18,20,-1,-1,22,-1,24,-1,26,-1,28,-1,30,-1,-1,-1,-1,-1,-1,-1,-1],"split_conditions":[1E0,1.3851766E14,1E0,1E0,1E0,1.38518005E14,1.3851766E14,-2.019435E-3,-8.187176E-4,1.3851767E14,1.3851767E14,1.3851766E14,-4.4250727E-4,2.712854E-3,1.3851767E14,-4.1585352E-2,1.38518005E14,-9.041368E-3,1.38518005E14,-8.025185E-4,1.3851767E14,3.3875447E-2,1.38518005E14,-2.071744E-2,-2.879478E-2,-3.360935E-3,-1.1022513E-3,-1.7796585E-2,-3.3609688E-3,1.2938194E-2,3.7690576E-3],"split_indices":[3,0,2,2,2,0,0,0,0,0,0,0,0,0,0,0,0,0,0,0,0,0,0,0,0,0,0,0,0,0,0],"split_type":[0,0,0,0,0,0,0,0,